b_storage1,b_storage2,b_storage3,b_storage4,b_storage5,b_storage6,b_storage7,b_storage8,b_storage9,b_storage10,b_storage11,b_storage12,b_storage13,b_storage14,b_storage15,b_storage16,b_storage17,b_storage18,b_storage19,b_storage20,b_storage21,b_storage22,b_storage23,b_storage24
-6.030736,-6.1368232,-6.4479203,-6.9802155,-7.1853476,-8.0159044,-7.6221089,-8.199049,-9.2630892,-8.8373022,-10.766548,-9.6482286,-10.815018,-10.96983,-11.150127,-10.816973,-11.216266,-11.7215,-11.556033,-12.278485,-13.034445,-13.476674,-13.271129,-13.448446
-6.7435732,-7.0733166,-7.9816217,-7.8477354,-8.4767437,-8.3694363,-8.6316977,-9.3814774,-9.4538298,-9.7293215,-10.732198,-11.120942,-11.300876,-11.473454,-11.017795,-11.457333,-11.619853,-12.260385,-11.842986,-12.869344,-13.378198,-14.350479,-14.119843,-13.920889
12.059829,11.697172,11.357748,10.912497,9.9210691,9.6180582,8.9870424,9.1475754,9.1473465,8.5588531,8.4310198,6.9784937,6.8895717,7.5308232,5.8688927,5.9752302,5.7119389,4.5814734,3.4807224,3.2075405,3.6426461,2.9665573,2.238801,1.2097372
-10.421596,-10.842193,-11.04997,-11.234753,-11.595325,-12.619226,-12.200659,-12.906071,-13.393088,-13.924065,-13.725344,-14.061408,-15.355467,-15.19124,-15.493957,-15.664169,-16.586662,-16.147297,-17.239155,-17.550314,-18.160969,-18.242453,-18.668705,-19.181654
2.4933598,2.0782349,1.5529474,1.1671568,1.023491,.60919863,-.015113109,.30843407,-.74143308,-.90448827,-1.2341577,-1.4412696,-2.0324862,-3.2885647,-2.6138856,-3.5375946,-4.0802641,-3.6122296,-4.7606912,-5.7715874,-5.817595,-5.1733184,-6.3763776,-7.125689
.40509123,.015975967,-.37520787,-1.0928615,-1.2611552,-1.1593651,-1.6271333,-1.8301611,-3.2779374,-3.1674767,-3.2502334,-4.0402141,-4.5180302,-5.2488718,-4.7770171,-5.2079563,-6.1253352,-6.3648319,-5.9243255,-7.0409794,-7.3523874,-7.7000999,-8.0211792,-7.8200994
8.4616709,7.8480244,7.4302864,7.5897622,6.644917,6.2320533,6.2249203,5.3473477,5.7844019,4.4242144,3.3493338,4.0682592,4.3691993,3.1106296,2.2242069,2.6257899,2.3334765,2.1582916,.64537215,.78087032,.42836389,-.36557186,-.50910383,-.80207139
-2.3522637,-2.488966,-2.7651007,-3.2403333,-4.3409839,-4.3512917,-5.5734878,-5.1372032,-5.045711,-6.1699734,-6.610415,-6.1665144,-6.2628136,-7.2400422,-7.7077556,-7.4785109,-7.3972683,-8.4198599,-8.9562502,-8.7052374,-8.3801479,-11.163599,-10.91059,-10.561947
-1.0624257,-1.5284268,-1.9129183,-2.1445804,-2.7204592,-3.3157156,-3.1708999,-3.3638082,-4.0643368,-4.364059,-4.8505707,-5.5989709,-6.2263832,-6.407712,-6.6515355,-6.3893461,-8.2621145,-6.8919196,-7.9863472,-9.1035118,-9.5694065,-9.9368067,-10.203699,-9.7060213
-9.4647789,-9.7906046,-10.324491,-10.801079,-10.573477,-11.063639,-11.606489,-11.73264,-12.085477,-12.412548,-12.897079,-12.592571,-13.182901,-13.969576,-14.637594,-14.627728,-14.945346,-15.077287,-16.935232,-16.021069,-14.820898,-15.789412,-16.217457,-17.950191
4.2265949,3.8309391,3.1901209,2.6574364,2.7509828,2.082124,2.3309581,1.9268111,.8695882,.62047422,.7788825,.42138264,-.58931243,-1.5727473,-1.3090209,-2.0829778,-1.3232708,-2.7995152,-3.2176635,-3.1773591,-3.3841264,-4.0798712,-4.42804,-5.2837052
-.18077049,-.48468161,-.81933367,-1.4322228,-1.1703193,-1.8818237,-2.3195376,-2.7002139,-3.3711989,-3.077208,-3.7077985,-3.9854803,-4.3417745,-4.6456366,-4.5210934,-5.1602702,-5.6732788,-6.819077,-7.376627,-6.2580748,-7.9068203,-7.933567,-8.4055319,-6.92767
-6.1862898,-6.4784765,-6.7246904,-7.038116,-7.4204359,-7.7754021,-8.7903004,-9.1094542,-8.9318752,-8.9900866,-9.9862146,-11.048317,-10.727977,-10.885334,-10.956416,-11.015973,-11.589063,-11.651228,-12.451386,-12.996284,-13.715876,-14.157262,-14.156942,-14.823784
3.503854,2.8914459,2.6526937,1.9607486,1.4907027,1.0763916,1.1907084,.72534603,.49262413,-.02950675,.0098333759,-.78800857,-1.7998151,-2.0572433,-2.3362274,-2.8976803,-3.1458833,-3.2215507,-3.217751,-4.0843019,-4.856307,-4.9777474,-5.578753,-5.8322144
-1.4885657,-1.9427626,-2.3277335,-2.5277998,-2.7282176,-3.5368328,-3.6004596,-4.0105329,-4.3825002,-4.6745687,-5.1215348,-6.2160978,-6.1589618,-6.5764599,-6.5193572,-6.6843119,-7.3500447,-7.2686095,-8.1498785,-8.80089,-9.4151716,-8.9303932,-10.686857,-10.609494
-11.907081,-12.042735,-12.635241,-12.437577,-12.927319,-13.854199,-13.80985,-14.160419,-14.998322,-13.980596,-15.007344,-15.507269,-15.673255,-16.071552,-15.679914,-16.412632,-16.296366,-16.48011,-18.060476,-17.625795,-18.092669,-16.844028,-18.746918,-18.498575
2.1886277,1.9025003,1.3435034,1.3367004,.76633334,.15651342,-.60586888,-.603508,-1.3646154,-1.7983173,-1.4041423,-1.6475532,-1.8075391,-2.6955843,-2.5705192,-3.7791305,-5.0596566,-5.5063214,-5.5798068,-6.3370533,-6.0411639,-5.426115,-6.189044,-6.7247438
7.9017177,7.369915,7.285635,6.4824219,6.3377538,6.8005419,5.5064225,5.4654932,4.4238548,4.4065285,3.1971505,3.4081488,2.2488804,2.6344538,2.3546274,.22828795,.59680253,.86427003,-.11837909,-.23387928,.34810665,-.76068193,-.89377838,-1.1559856
-3.4671445,-3.9640241,-3.8901565,-4.8003302,-5.0325441,-5.4691644,-5.6894341,-6.4536576,-6.356257,-6.7982283,-7.387259,-7.6200566,-7.9549813,-8.199852,-8.855422,-8.9235134,-9.3537693,-9.3538141,-9.8860159,-10.528004,-11.049318,-11.75028,-12.560872,-11.537139
-4.076407,-4.4936495,-4.7867198,-5.1662049,-5.6528206,-5.8072767,-6.8204999,-7.0961881,-6.8218403,-7.3022299,-7.9915729,-8.4789495,-9.0291443,-9.0452032,-8.4867105,-9.6673307,-10.232243,-10.686955,-11.651357,-11.897876,-12.739699,-11.976097,-12.053144,-13.257872
.28897107,-.10639415,-1.0040693,-.65440005,-1.744146,-1.6565278,-2.4395673,-2.9436684,-3.1095078,-3.071784,-3.7049243,-3.5922186,-4.0622911,-5.3859835,-4.7960849,-5.6192098,-7.1149664,-6.0036812,-7.405395,-7.6652684,-7.4075227,-9.0877857,-8.4992714,-7.9392047
-11.387524,-11.688041,-12.015925,-12.153562,-12.572598,-13.03113,-13.111958,-14.505568,-14.510027,-14.642758,-15.140703,-15.233373,-15.331418,-15.524237,-15.8209,-16.398283,-16.902643,-17.291346,-17.829073,-17.420137,-19.099993,-18.525743,-19.118044,-18.735807
1.5557642,1.157522,.79339945,.27698645,.051167041,.035762731,-.65817237,-.96332926,-1.1229632,-1.942088,-1.6916815,-2.5479698,-3.6668739,-2.8186736,-3.7172508,-4.0752072,-4.3905091,-4.4390278,-4.3057442,-5.5377755,-5.328824,-6.0143404,-6.3269444,-6.9230556
5.2597237,4.8691998,4.6153831,3.9341533,3.6077471,3.2452035,2.3606226,1.691388,1.7241877,1.8234656,1.195612,.92268068,-.052723028,-.52457887,-1.3973937,-.15862677,-2.0904193,-1.3742709,-1.9565479,-4.0233674,-4.0389781,-2.2667425,-4.1174097,-2.8703377
-8.5346098,-8.8775396,-9.2367201,-9.7198782,-9.855463,-10.298635,-10.291533,-11.358822,-11.853165,-11.385356,-11.959289,-12.627974,-12.774275,-12.538411,-13.055082,-13.460743,-14.462066,-13.913211,-15.813978,-15.424862,-14.97181,-15.935635,-16.426859,-16.674297
4.2526088,3.9928484,3.331677,2.9694161,2.5434842,1.3387461,1.3915291,1.1457632,.48845622,.74724638,-.72494417,-.56533784,.3337369,-.99508077,-1.5917745,-2.1190493,-2.9401374,-2.9240336,-2.7089543,-3.0621176,-5.2550511,-3.6427212,-4.8246679,-5.2475686
-3.6647768,-3.9319363,-4.2696552,-5.0984521,-5.2562866,-5.177186,-5.4429898,-5.7629566,-6.6353469,-6.1962419,-7.7092147,-7.8590693,-7.4164357,-8.5081844,-9.4822645,-8.825737,-9.2001362,-10.179224,-9.3367786,-10.10913,-10.650443,-11.688634,-12.281076,-12.264856
3.0223999,2.4100013,2.5210056,1.8044827,1.4244343,1.468415,.4045563,.33075881,.12560235,-.15928675,-1.0632217,-1.4753155,-1.3826736,-2.2052581,-2.4017475,-3.812176,-3.6206582,-3.2043097,-4.2849307,-5.0137053,-4.3459415,-4.7067881,-7.2036853,-5.3632803
7.2747016,6.6286798,6.5845995,6.2665482,5.4969521,5.4748116,3.3976676,4.223444,3.7897377,3.8409965,3.5658579,2.4334426,2.4677284,2.3445885,1.3949822,.51108092,.84013361,.65978527,-.25054413,.068071499,-.98200321,-1.5915927,-2.2726824,-2.0020964
9.3110247,8.790781,8.5640259,8.2304449,7.4651856,6.3085995,5.9522228,6.0345569,5.3996196,4.636632,4.9069495,4.876071,3.7641635,4.1584044,2.9015303,2.6627915,2.3803396,2.6379232,.11280965,.53295487,1.1640964,1.0246198,-.36856979,-1.5131781
5.103416,4.6045198,4.3655863,3.7626281,3.2655063,3.3245709,2.5747445,1.7151456,2.0985894,1.0689328,.70474547,.31886122,.57507396,.17200314,-.75217789,-1.5925183,-2.4026089,-2.3782158,-2.4331489,-3.1649444,-3.3661082,-2.7750318,-4.3831615,-4.8987904
-9.806448,-10.293207,-10.320554,-11.052385,-11.167522,-11.810811,-12.186575,-11.930171,-12.537673,-13.237532,-13.177595,-13.711788,-13.928021,-14.869845,-15.205659,-15.520499,-15.166565,-15.885328,-15.627446,-17.107708,-17.001944,-16.959246,-18.405731,-18.365501
-7.4964461,-7.8007894,-8.1691008,-8.7778835,-9.0004358,-9.2311554,-9.2562294,-9.7648277,-9.9499073,-10.938262,-11.261456,-11.554351,-11.438574,-12.463376,-12.439633,-13.082993,-12.595652,-13.53072,-13.264958,-15.128119,-14.919684,-14.460333,-15.699794,-15.846241
2.4401729,2.0600595,1.4153168,1.0695196,.45350426,.87345451,.13232367,-.67934287,-.97655368,-1.6516554,-1.8879462,-2.6276538,-2.782918,-3.750438,-3.2639096,-4.3628602,-4.7182312,-4.7852373,-4.9068651,-5.7048793,-4.939785,-7.5458822,-6.8443022,-6.1449323
-5.0017395,-5.2056689,-5.4047318,-6.0549264,-6.5486465,-6.8609986,-6.7334971,-6.8170629,-7.9921522,-8.3785772,-8.663084,-8.8734522,-9.7942686,-10.033607,-10.253166,-10.551306,-10.395696,-10.910197,-11.132684,-12.049603,-12.540971,-14.146762,-13.275976,-13.010219
-3.0902276,-3.4915724,-3.6480505,-4.076756,-4.8197289,-5.3739648,-4.8652658,-5.840879,-6.3352089,-6.4770198,-6.7539411,-7.8473592,-7.3880539,-7.1785626,-8.8464317,-8.7118721,-9.2528086,-9.3585882,-9.4412184,-10.872362,-11.180054,-12.42345,-11.56897,-11.800612
.98528808,.49757212,.36395264,.19365005,-.85247445,-.82926559,-.80967921,-2.0166373,-2.2245684,-2.6106522,-2.41693,-3.9538355,-4.0965033,-3.7776423,-5.2479706,-4.5995336,-5.170496,-5.6281309,-6.0765519,-7.0703735,-6.6579361,-8.2077484,-8.1857176,-7.9857583
2.0257857,1.8183702,1.2270451,1.1116531,-.15483241,-.094123177,-.64398378,-1.0196521,-1.2789533,-1.6597128,-1.5810456,-1.5884429,-3.022325,-3.0725126,-2.8644044,-3.8879554,-4.8397217,-4.980042,-4.9770331,-4.8860383,-7.1158018,-6.2829828,-6.5512991,-6.84867
-10.859941,-11.250264,-11.43333,-12.053308,-12.307546,-12.922355,-13.534911,-13.076051,-13.631703,-14.427156,-14.704121,-14.451552,-15.412187,-16.213449,-16.145399,-16.125185,-16.430862,-16.941082,-17.095816,-17.564564,-18.127195,-17.252821,-17.829248,-19.503462
-4.0339384,-4.348568,-4.8495054,-5.1577215,-5.7104011,-5.7208209,-6.7063799,-6.5715723,-6.9244795,-7.0083041,-8.0610552,-8.5588646,-7.9042115,-8.4557018,-9.8075075,-9.7281027,-9.7855253,-10.385848,-10.449656,-11.497488,-11.396567,-11.756999,-12.475723,-12.661926
12.834677,12.661728,11.478608,11.888518,10.677115,10.408899,10.182343,9.8246107,8.9272928,9.0199766,8.6456995,7.4432092,6.6601033,6.851676,7.4047441,5.8336849,6.7884417,5.2365098,4.6746874,3.2431829,3.3797572,3.4700251,3.1845729,1.1241146
6.3532677,6.1839924,5.8432183,5.0092092,4.4833374,4.5892148,4.1082592,3.487309,2.8178103,3.0324292,1.9079536,2.7834868,1.0154523,.64592338,-.24101643,.65506577,-.12239885,-.3283703,-1.0043343,-1.3847556,-2.6358106,-2.1485207,-3.0796478,-2.7536826
-2.4241943,-2.8015802,-2.9300039,-3.6210907,-4.2726727,-4.3693852,-3.7798727,-4.768919,-5.5233951,-5.62046,-6.0806813,-6.8615479,-6.9035311,-7.5532665,-7.6102619,-8.3163548,-8.3290739,-7.2295127,-9.5122957,-8.4557905,-10.417103,-10.887135,-10.390873,-10.215812
16.80117,16.386282,15.407382,15.687176,15.296273,14.919606,14.426802,13.653186,13.402758,13.365302,11.284472,10.983772,11.974776,11.314528,10.433958,10.2284,9.310298,8.8467464,7.7407904,8.9579201,7.7315044,7.0524898,7.0420489,6.862844
-14.994331,-15.243762,-15.590858,-15.804008,-16.411602,-16.780222,-16.891516,-17.422129,-17.416086,-17.608553,-18.331318,-18.545101,-18.669157,-19.006638,-18.979834,-19.59742,-19.095699,-20.128742,-21.240751,-21.940443,-20.711512,-21.43392,-22.213984,-22.107506
-4.7895718,-5.158937,-5.4354639,-6.060585,-6.2530341,-6.3925481,-7.0826478,-7.5571074,-7.2752523,-8.9036331,-8.350008,-9.0563993,-9.027873,-9.2948074,-10.487053,-10.778133,-10.876519,-11.432319,-11.810216,-11.187952,-12.16467,-12.841481,-12.620791,-12.623499
9.5032358,9.0599918,8.5483065,8.0391188,7.7874565,7.6397843,6.5972104,6.518374,6.7753835,5.4181581,5.7390156,5.8936067,4.1540885,4.8087139,3.8381059,4.5831299,2.2360439,2.9774556,1.9801245,1.4882056,.7628755,1.5037624,.021105485,-.048961472
-10.999594,-11.536896,-11.6645,-12.083931,-12.212064,-12.506885,-13.692781,-13.107129,-14.014894,-13.780645,-14.502531,-15.007048,-16.057957,-15.09596,-16.008469,-15.845969,-16.547388,-17.087456,-17.131693,-17.425909,-17.806812,-18.542332,-18.227861,-18.79175
4.5565305,4.1727586,3.8738801,3.2295656,2.9502676,2.2412722,2.5989828,2.4701068,1.6538748,1.4023292,.30498445,.28383312,-.62739241,-1.3483297,-1.3260345,-2.7494378,-2.2566385,-2.658175,-2.0677803,-3.3653524,-3.7425129,-3.7926311,-4.0471711,-3.2470083
-6.2692652,-6.4905477,-7.0659957,-7.6288667,-7.9010644,-7.9618049,-8.358551,-8.4280109,-8.6093941,-8.838068,-10.163707,-10.430104,-10.568444,-10.559656,-11.173475,-11.708749,-12.600056,-12.365234,-12.159399,-12.289825,-13.987005,-13.494382,-14.90751,-14.652218
6.9412479,6.2120032,6.0836177,5.6904898,5.1867938,4.9411426,4.187932,3.8055179,3.0370517,3.3893063,2.7288978,2.1714766,1.8602325,1.4599286,.87271953,.62867385,.26763737,-.78871578,-1.2262874,-1.3228556,-1.2429695,-2.0528014,-3.0056725,-2.5948937
-5.3104272,-5.5042901,-6.0497074,-6.2467761,-6.6750107,-7.4566507,-7.7673082,-7.7028856,-8.0678244,-8.0980701,-9.1645956,-9.5185747,-9.7340422,-10.252062,-10.937151,-10.705535,-10.730986,-11.933464,-12.215462,-11.673581,-11.833025,-13.555266,-14.543501,-13.488703
-4.9177618,-5.2463808,-5.6392951,-6.1136017,-6.5445089,-6.5537853,-7.0701051,-7.9435649,-7.8845005,-7.1495285,-9.0033236,-9.5792236,-9.3047056,-9.287096,-9.000906,-10.524643,-9.8824358,-11.281781,-11.320516,-11.337903,-11.809464,-11.697042,-13.130719,-13.739823
-4.9684644,-5.1589384,-5.8520589,-5.6970654,-6.4158468,-6.2898936,-7.1214395,-7.6792908,-7.8354721,-7.9882684,-8.922575,-8.5188484,-9.5680399,-9.7152929,-9.494092,-10.946973,-12.069007,-10.861484,-11.992831,-11.835857,-13.990273,-12.212832,-10.962174,-13.287199
.15456493,-.072879739,-.5682261,-1.4793414,-1.4264905,-1.7891386,-1.7497938,-2.4668472,-2.7348328,-3.3733747,-3.6444612,-3.8308537,-4.4953876,-4.3854671,-4.9497457,-5.7187433,-6.3098145,-6.2732425,-6.919754,-6.4929867,-7.2775016,-7.1314611,-7.8989258,-8.844039
4.0751843,3.7196188,3.4674623,2.6590197,2.5662832,2.5037344,2.1106272,1.1189145,.78864533,.28636485,-.22087921,-.51013929,-.37414443,-1.4936286,-1.0715731,-1.5488939,-2.567327,-3.6608994,-2.752542,-3.4070177,-4.117681,-3.132647,-3.8537836,-5.248805
-3.054518,-3.6277282,-3.5997777,-4.233294,-4.5709085,-5.0903993,-5.9112911,-5.5694604,-5.9189668,-6.8752294,-6.8866305,-6.782937,-7.3608632,-7.8592439,-8.2974892,-8.7617569,-8.9940643,-9.288372,-9.7888451,-10.174637,-10.652109,-9.702878,-10.893869,-11.521096
12.503097,12.052808,11.838799,11.283777,10.817249,10.211247,9.4966717,9.5153017,9.7255564,8.2665176,7.8472891,7.2473807,7.9470654,7.2637801,6.7272081,5.8050771,4.9997907,5.5456071,5.1834612,4.2942829,3.5471513,4.0964417,2.8880289,2.2974148
8.5549335,8.2027369,7.9938192,7.0380092,6.4017057,6.2382736,6.4027519,5.5916948,5.5066752,4.4507294,3.8588455,3.8929274,4.28478,2.5770259,2.7854388,2.8124285,2.4260252,1.6331947,.30526751,1.0773385,.64959389,-.41006449,-1.1026963,-1.0799978
2.5919688,2.2842963,1.9535805,.63379377,.95548356,.055203818,-.2041446,-.071195185,-.26944277,-.72020984,-1.3713956,-1.633175,-1.9177654,-2.4178686,-4.0824099,-2.6275029,-3.1105804,-5.0805125,-4.4344354,-5.6749597,-5.7346425,-6.1176662,-6.0343552,-6.3578372
7.2993093,6.4810014,6.8704944,6.1876082,5.8578176,5.4316959,4.5521603,4.2246056,3.7149038,2.8969114,3.4290414,3.9601319,2.8037663,2.2575629,.65675271,1.7612172,.95931602,-.16834387,.24355718,-.33452386,.067000329,-1.535381,-.72844583,-1.3702239
4.3534937,3.8973353,3.6060205,3.3577743,2.2590189,1.9335761,1.632874,.2744146,1.313087,.88221252,.36567077,-.085349374,-.53216863,-.14813499,-2.4906869,-2.5062079,-1.4823714,-2.5513351,-3.6282837,-4.0496898,-4.1558805,-3.9023266,-5.06846,-4.0539613
-1.428598,-1.7111479,-2.0695765,-2.7765954,-2.4527941,-3.3227262,-3.6116068,-4.0304222,-4.5223141,-4.8749418,-5.1737347,-5.2483969,-6.2869024,-6.4118977,-6.5773993,-7.2517829,-7.2286725,-9.4618473,-8.3307505,-8.9962997,-8.4334574,-9.2575779,-9.6893425,-11.36459
2.8516803,2.4645083,1.9164959,1.5688708,1.3375851,.8058306,.57087845,-.43459025,-.069804728,-.78688216,-.67907447,-1.7334077,-2.5648768,-1.7241656,-2.532505,-2.6592042,-4.0317054,-3.2741616,-4.9619246,-4.028429,-6.1543946,-4.8442702,-6.0055642,-5.9078903
-14.494447,-14.916509,-15.13968,-15.331923,-15.814299,-15.880587,-16.889322,-16.827984,-17.206972,-17.644196,-18.406385,-18.384085,-18.330009,-18.973196,-19.169992,-20.092146,-19.191265,-20.641037,-20.845339,-19.673899,-21.132038,-22.28343,-20.914923,-21.868
4.8029609,4.4721045,3.8588643,3.7972019,2.8729265,2.836067,2.4701807,1.590332,1.6660746,1.1010511,.0099486206,.54595721,.032942399,-.224682,-.92739892,-2.1460385,-2.3838944,-1.7743024,-2.5401947,-2.9975607,-3.2711947,-4.5446224,-3.0995026,-3.4771998
-5.5105,-5.7710605,-5.9990587,-6.8499889,-6.9958963,-7.2623844,-7.3797326,-7.5898657,-8.0246153,-8.460084,-9.5351334,-9.4683781,-9.7039814,-10.225561,-10.417297,-10.372964,-11.040526,-12.280379,-12.388766,-12.152304,-13.253722,-13.260893,-14.318447,-13.732406
-13.338014,-13.58857,-13.755529,-14.22961,-15.154785,-15.324937,-15.441371,-15.32097,-16.316624,-16.036861,-16.482168,-16.833916,-17.353481,-17.661991,-17.964619,-17.77685,-18.574844,-19.137062,-18.829103,-19.763332,-20.030132,-20.615135,-20.899645,-21.305145
-2.7884698,-3.0433412,-3.5731452,-3.6486652,-4.2086134,-4.4513063,-5.0778198,-5.5723071,-6.5500083,-5.7948723,-6.4106789,-6.303802,-7.0689487,-7.8974271,-7.3858089,-8.9840441,-7.8715491,-9.1491623,-9.0561457,-9.9912977,-10.340948,-11.301402,-11.603902,-10.223276
-11.33968,-11.712242,-12.122473,-12.399271,-12.847263,-13.115132,-13.530123,-13.310547,-13.893313,-14.473949,-14.641549,-15.08506,-15.158002,-15.196983,-16.426817,-16.544182,-17.684839,-18.234257,-17.552647,-17.595726,-18.277309,-19.513142,-17.986969,-18.399071
-1.1133091,-1.3250515,-1.6070827,-2.5030522,-2.7072456,-2.9506238,-4.1052542,-3.6903515,-3.2676241,-3.9122579,-4.0394197,-5.039741,-5.4440517,-6.0515041,-6.7657433,-6.3840342,-7.8445458,-7.5998893,-8.1338606,-8.6468086,-8.8110771,-9.3516369,-8.1799965,-9.8990765
-3.4827969,-3.8062112,-4.5334911,-4.8280091,-5.0589457,-5.9569268,-5.7711968,-6.051538,-7.102437,-7.1789546,-7.7100224,-7.6971459,-7.9596891,-8.1871138,-8.4440165,-9.4967842,-8.5844879,-8.9981422,-9.4148426,-10.722341,-11.95176,-11.578426,-12.154561,-12.491213
-4.0530925,-4.6052489,-4.7517405,-5.2638173,-5.9914045,-6.0849195,-6.1585817,-6.9152365,-6.9443126,-7.1479034,-7.1884189,-8.1276722,-8.8726234,-8.0617695,-9.2807398,-9.0327454,-10.346642,-10.081992,-10.574687,-11.743294,-11.232661,-11.946486,-12.682378,-13.85713
3.6104746,3.1600242,2.414999,2.7874768,1.838225,1.9379344,1.4415278,.64645976,.71290851,-.059193056,-.38276103,-1.8679876,-.70612592,-.93748093,-2.4574468,-2.2828333,-3.0110674,-3.9716718,-3.2037876,-3.7688982,-5.7426195,-4.7772794,-4.9843307,-5.3493085
1.8883759,1.3257363,1.0321084,.57008386,.061069366,-.08330182,-.07262022,-1.2075865,-.76528627,-1.7693728,-2.1262853,-2.5416901,-3.8564732,-3.8986495,-3.9059305,-4.0864639,-4.5397096,-5.4442902,-5.482326,-5.3795228,-6.0347114,-7.8052278,-7.3085952,-9.5224056
-6.6436186,-7.1841884,-7.0497613,-7.6556883,-7.9087291,-8.7268667,-8.6787872,-9.288578,-9.6970119,-9.096035,-10.305747,-10.443903,-11.367144,-11.520794,-11.768168,-11.506024,-12.249596,-11.911523,-11.529084,-13.155576,-14.323571,-14.272886,-14.603537,-14.987719
-4.2236581,-4.6158657,-4.7636266,-5.3309774,-5.5445929,-6.2320838,-6.3074369,-6.8443351,-7.4050803,-7.1524105,-8.3528538,-7.8938637,-8.5043011,-8.7288313,-9.0313892,-9.9266281,-10.397511,-10.179623,-11.991199,-11.183126,-11.377173,-11.976339,-11.904084,-12.766387
14.505929,13.733926,13.738002,12.449768,13.26166,12.982682,11.597735,11.663981,10.929712,10.669713,10.607028,10.322983,9.250658,8.5696707,9.705019,7.8357244,7.3553295,6.9710684,6.8869648,6.8820643,6.791903,5.6228437,4.4277339,5.6169033
-6.4643273,-6.8946862,-7.3082581,-7.5547757,-8.2700262,-8.140645,-8.6182137,-8.6936464,-9.9550915,-10.094981,-10.425505,-10.058031,-10.850958,-10.56031,-11.345609,-12.146098,-12.891363,-12.981287,-12.776228,-13.000539,-14.776772,-13.714688,-14.275149,-14.548757
3.740402,3.3928881,2.8105922,2.7220695,1.8679394,2.0181634,1.2865559,.51343489,.91584784,-.24797058,-.14422292,-.39430487,-1.6306356,-1.1691681,-1.3893965,-.68986428,-2.2051985,-2.291225,-3.2862103,-4.4316473,-4.9067216,-5.2983742,-4.7535634,-6.002871
-17.223219,-17.585951,-17.688566,-18.300678,-18.694603,-18.588715,-19.281839,-19.644245,-20.093834,-19.878927,-19.885635,-21.024607,-21.380304,-20.593384,-21.334063,-22.598135,-22.921532,-21.5156,-22.332403,-23.54064,-23.025023,-23.24777,-23.800735,-25.006603
11.998582,11.517006,11.263233,10.565791,10.644532,9.9597721,9.3975544,8.9302893,8.9003763,7.9263563,8.2326488,7.6468658,6.2061973,6.3511105,6.4292836,4.8221993,4.3862314,4.0880818,3.5744574,3.0683253,2.9265966,2.9285913,1.190111,1.4786162
-8.9979496,-9.2761822,-9.7553701,-9.7635498,-10.047991,-10.507157,-10.84181,-11.744756,-11.144414,-12.135616,-12.72214,-12.694352,-12.710691,-13.543662,-14.448039,-14.3721,-13.370744,-14.83804,-15.376274,-15.086833,-15.110335,-15.713533,-16.349846,-16.50979
9.5878744,9.1341858,9.149127,8.2166748,7.5542059,7.416007,6.8384218,7.4471984,5.9677691,5.4738255,4.8416061,5.2976332,6.2922416,5.2524171,3.9182699,5.3666854,4.046968,2.9534965,1.3623623,2.3768044,.45347184,1.2806606,.40202215,.13561787
-2.4403265,-2.7851202,-3.1892831,-3.5033383,-4.0031109,-4.0743685,-4.892519,-4.7630191,-5.2470093,-6.1881809,-5.5718942,-6.6460476,-6.9350839,-7.0836182,-6.8672767,-7.0037866,-8.806694,-8.9948006,-9.6335421,-8.8453541,-9.2809019,-9.693676,-10.186019,-10.370866
9.9890871,9.6027155,9.0134792,8.9824982,7.9675479,8.0344343,7.8023696,7.3294792,6.2528229,6.7309108,5.7037644,5.0160446,4.5401845,4.2762203,3.9119248,2.3200631,1.7896914,2.1539316,1.7594237,1.9688145,1.5435182,.51353484,-.017171206,-.70492417
-.45898905,-.71677303,-1.5011472,-1.2512022,-2.0777669,-2.4397221,-3.0178106,-2.8726931,-3.213712,-3.294076,-4.4607606,-4.6717119,-4.7857795,-5.242415,-6.5446634,-6.9130187,-6.8453321,-8.3958235,-8.1582174,-8.3089085,-9.164937,-7.6750174,-9.3266068,-9.0527887
-2.2251427,-2.6780596,-2.9235737,-3.2967298,-3.8298926,-4.2414079,-4.8881021,-4.7059331,-5.2763019,-6.3032227,-6.0312834,-6.4940519,-6.6299787,-6.8629155,-7.4145598,-7.3600669,-8.2539835,-9.227541,-9.3283434,-9.8987579,-10.819594,-10.708481,-10.988007,-11.385243
-13.154141,-13.528639,-14.088391,-13.901423,-14.175416,-14.632698,-15.186211,-15.532235,-15.249876,-15.962763,-16.749741,-16.849644,-17.083471,-17.182253,-17.645065,-18.044277,-18.085144,-18.186651,-19.440624,-17.914137,-19.340366,-19.789007,-19.659708,-20.760292
-5.7352886,-6.1965981,-6.5933404,-6.8303409,-7.1466308,-7.2954073,-7.9676437,-8.529377,-8.4554996,-9.7622442,-9.5833387,-9.7139225,-9.7457275,-10.54813,-11.629399,-11.639831,-10.715583,-11.68779,-12.268645,-13.75322,-13.24316,-12.237612,-14.018113,-14.787942
.3686091,-.0050477786,-.41033137,-.50632912,-1.1433812,-1.2318679,-2.043376,-2.5517023,-2.8260601,-2.8450923,-3.5679109,-4.4498768,-4.1338186,-4.5297484,-4.7108359,-6.6046195,-5.93891,-5.6980443,-7.355443,-6.7772751,-7.0595417,-8.0072575,-7.7950749,-8.9467936
-.29620543,-.57226789,-1.1395701,-1.4250027,-1.4417073,-1.9418261,-2.5824387,-2.9174042,-3.0468175,-3.0921578,-3.8934741,-4.7613459,-4.4624867,-5.5555167,-5.6506596,-6.0330796,-6.9668641,-7.0451455,-7.3864522,-8.8392429,-7.844718,-8.1939936,-8.3837214,-8.4899149
.33503112,-.29831418,-.58395272,-.64904332,-1.1299162,-1.2829491,-2.6409581,-1.7228397,-2.5156026,-2.8898816,-4.0828052,-3.5624957,-3.9259939,-5.1533933,-5.6106138,-5.7307706,-5.9432082,-6.5637326,-6.991538,-7.3783317,-7.9001284,-7.4552183,-9.2526093,-9.0226002
-1.3875524,-1.8371634,-2.237581,-2.584857,-2.5655568,-3.3513064,-3.7674694,-3.9604204,-4.3506331,-4.9873557,-4.7726288,-5.7756505,-5.9806304,-6.2093115,-5.8964334,-6.8035502,-6.7376556,-8.4774523,-7.7034774,-9.1100044,-8.7273569,-8.8697777,-9.1601305,-10.020939
6.5708294,6.159512,5.6534348,5.5155234,4.8417292,4.3191786,4.0469213,3.2859969,3.4805119,2.9638336,1.9187702,2.3843513,1.3027756,2.0862343,.37783715,.20929471,.3222703,-1.0670217,-.13136254,-1.7832912,-1.7821709,-1.8658191,-1.8408628,-3.937767
11.397274,11.005344,10.387174,10.231867,10.042402,9.4685144,8.8276453,8.2169895,7.8451734,7.8680286,7.8999996,6.3312011,6.3624582,5.1804085,5.4153838,5.2476425,4.4054427,4.7659235,3.3020818,2.837086,3.3953307,2.8690383,1.5044565,.664433
-10.208526,-10.502474,-11.320279,-11.429947,-11.186369,-12.088224,-12.803436,-12.23162,-13.348323,-13.17009,-14.158943,-13.422338,-14.927189,-14.02447,-16.053854,-15.402449,-15.617629,-16.942457,-16.819777,-16.015537,-17.012264,-17.511543,-19.254889,-18.652559
7.2613511,7.0330453,6.3214059,6.279459,5.3398285,4.8150029,4.7471132,4.5706,4.0631757,3.806006,3.3693552,2.9217505,2.202523,1.8150003,1.9447124,.49389899,.36817256,-.34500161,.12854768,.3224763,-1.1724945,-1.5715353,-1.9205159,-2.968184
-5.761271,-6.286521,-6.3217864,-7.0645332,-7.1271548,-7.7081017,-7.6775908,-8.3735037,-9.1349907,-9.6906595,-9.2776041,-10.534914,-9.8131599,-11.034019,-10.830862,-12.126279,-11.772104,-12.643104,-12.316954,-13.258803,-12.984432,-13.511317,-14.589854,-14.500572
-6.405591,-6.7179279,-7.3570275,-7.4645467,-7.9102321,-8.0535641,-8.7530537,-9.5361309,-9.215703,-10.209235,-10.429869,-10.168596,-11.434968,-10.888129,-10.272468,-11.389616,-13.530807,-12.348096,-13.245505,-12.214292,-12.633069,-13.528601,-12.284571,-15.458771
-9.6157608,-9.9295263,-10.266467,-10.857656,-10.929592,-11.71751,-12.125526,-12.277012,-13.169284,-12.180645,-13.41568,-13.612617,-13.936168,-13.955384,-14.637804,-14.964228,-14.807356,-16.088648,-15.54273,-16.461792,-16.947603,-17.412439,-17.375278,-17.77552
-2.8408694,-3.0898504,-3.4017372,-4.0415821,-4.2188401,-5.345603,-5.0461283,-5.6460238,-6.5413017,-5.8093996,-6.473021,-6.2155485,-6.794836,-7.503427,-8.086216,-8.7864141,-8.4344387,-9.4140844,-8.842514,-8.4301424,-10.182933,-10.746752,-10.965264,-11.992502
4.1080761,3.7363906,3.0240471,2.9947703,2.510592,1.6105925,1.6257581,.80144477,1.0521514,.65621865,-.049472451,-.78310156,-.81698817,-.73222911,-2.1168342,-1.6753255,-1.8827397,-2.6116564,-3.2691119,-3.5417778,-3.6784482,-4.601306,-4.8077226,-6.2356539
10.200059,9.844636,9.4708433,9.1843185,8.7589064,8.2725458,8.493289,7.3271208,6.8241706,6.1979198,6.0705242,5.6993723,4.8700805,4.4581275,5.2396402,4.1819167,3.6744757,3.4790485,2.7454758,1.7206961,2.3940721,.80904204,1.0627971,-.021972097
4.2980857,3.9597971,3.7096226,3.1249177,2.486289,1.8642042,1.7116405,.82694304,1.3856307,.43476102,.34637073,.47872502,-.66860133,-1.0135407,-2.205672,-2.0672355,-2.1594226,-1.6662518,-3.4336412,-4.0943484,-3.7384076,-4.5508709,-4.1943941,-5.0946016
-1.4302535,-1.68584,-2.2366111,-2.7197449,-2.8685277,-2.9980712,-3.8422065,-3.9460461,-4.1745501,-5.183907,-4.9194894,-5.5770826,-6.2719584,-6.2750506,-6.8560443,-7.1547027,-7.8559318,-8.5525808,-8.7910833,-7.2767611,-9.518858,-9.8736172,-10.684168,-9.6751928
-3.6246595,-3.943388,-4.5682673,-4.7132297,-5.4695234,-5.3895612,-5.4314947,-6.0796356,-6.127749,-6.9062643,-7.3025818,-7.1486282,-8.018424,-9.5492563,-8.4093018,-8.3644228,-9.8504601,-9.9998703,-11.201492,-11.148409,-10.694688,-11.24434,-11.428511,-12.906673
-6.9212236,-7.2671905,-7.8329649,-8.4317827,-8.0525475,-8.5770731,-9.7543077,-9.8966255,-10.026172,-9.4773312,-11.471566,-10.655599,-12.013433,-12.170774,-11.889979,-11.80831,-12.816641,-12.900196,-12.776312,-13.911767,-14.873702,-15.349592,-14.666217,-14.922188
-10.994557,-11.542927,-11.452949,-11.923,-12.871084,-12.781483,-12.759977,-13.962739,-13.830194,-14.161614,-14.269972,-14.966719,-15.210124,-15.403354,-15.285311,-16.423843,-16.485346,-16.060133,-17.445988,-17.855955,-17.909678,-17.748262,-19.269632,-18.37674
14.969294,14.453675,14.137336,13.586131,13.160803,12.924636,12.615903,12.217423,11.614263,10.858544,10.248943,9.6384029,10.79711,8.9785213,8.5886602,7.9273396,7.8963223,6.8360572,6.5659428,7.1955276,6.789156,5.8808022,5.0654125,4.6261072
9.5084114,8.93575,8.4071722,8.330431,7.8303189,7.5994849,7.046824,6.486866,6.5783677,5.7297444,5.5384002,4.4537096,4.0431442,4.289031,3.2142744,2.8814995,3.3443964,1.529705,1.0699418,2.1241407,.48300019,.43512434,-.21421356,-1.6013582
-.4670549,-.78057677,-1.0463322,-1.6477047,-1.8973168,-2.5169539,-2.8184018,-3.2821529,-3.7338834,-3.5886257,-5.7322674,-4.4097996,-4.7020154,-5.7432861,-6.8320589,-5.8518596,-6.0403914,-7.5054011,-7.1816053,-7.4029055,-8.0187931,-8.7551327,-9.6678638,-9.1078377
-9.5395279,-10.003831,-10.758539,-10.459537,-11.197986,-11.539601,-11.357404,-12.368087,-13.112688,-13.367189,-13.195192,-13.66825,-13.998686,-14.569883,-15.179841,-15.183915,-16.083292,-15.398498,-16.835043,-16.896915,-16.646191,-17.830057,-17.941938,-18.480988
10.112314,9.8842468,9.4524145,9.037221,8.4009981,7.6101875,7.6453013,6.7606163,7.0295992,5.9605956,6.2076516,5.8396468,5.2428145,4.2133875,3.6456103,3.489085,3.1620519,3.2887762,.98231256,2.7320862,1.2418612,.82136428,.53133452,.5002073
2.5525346,2.0313158,1.44945,1.157665,1.1103313,.73664796,-.12488461,-.48592848,-.74145114,-1.1247127,-1.1395075,-1.1028857,-1.4437144,-2.3400245,-3.5296123,-3.2336719,-3.8331795,-4.6213279,-4.547514,-5.4745522,-5.0156231,-5.8864837,-6.0991077,-7.016036
-.72936487,-1.096751,-1.3245064,-1.9903595,-2.4405646,-2.4034684,-3.208806,-3.9224985,-3.4879906,-4.6220002,-5.1555371,-4.6932688,-4.8998241,-6.1451159,-5.9035387,-7.1157131,-6.9137168,-8.0538206,-6.7886744,-8.4728994,-8.2729692,-8.903863,-9.2886696,-10.820228
-3.71925,-4.1784239,-4.7299972,-4.7885423,-4.5882683,-5.4753518,-6.0163689,-6.5392957,-6.4395323,-6.4458485,-7.3594069,-8.6315203,-7.6375017,-8.3199062,-8.3426685,-8.6875019,-10.385377,-10.070435,-9.6922464,-10.969921,-11.573896,-10.724799,-11.03255,-11.043016
-8.6937675,-9.0231686,-9.5395403,-9.7635069,-10.242764,-10.322042,-11.514293,-11.44305,-11.402884,-12.283293,-11.833245,-12.89361,-13.056982,-13.482594,-14.513128,-14.248418,-14.481671,-15.445723,-15.516174,-16.066895,-16.313288,-16.251936,-17.148752,-16.487705
-5.7978287,-6.0439482,-7.1235008,-6.879024,-6.7518163,-6.9695706,-7.8059587,-8.1688766,-8.2690945,-8.9440594,-9.0151596,-9.4215479,-10.104555,-10.556589,-10.861164,-11.769663,-11.93864,-12.587208,-13.249957,-12.841354,-13.952023,-12.695703,-14.244003,-13.44921
-32.988075,-33.275124,-33.527161,-33.697178,-34.11105,-34.554108,-34.573582,-34.971119,-34.875301,-34.972019,-36.608978,-35.312378,-36.301125,-35.919193,-35.929405,-36.644333,-36.890545,-36.728264,-37.103085,-37.976837,-37.962814,-38.427097,-38.433903,-38.797581
-8.4690886,-8.766098,-8.9744682,-9.46556,-9.751873,-10.309259,-11.333601,-10.921566,-12.16768,-11.938592,-12.794277,-12.692926,-12.974153,-12.890122,-13.5186,-13.624792,-14.509822,-14.866374,-15.053951,-14.60746,-15.946806,-17.266714,-16.145691,-17.015898
-15.690178,-16.122717,-16.062954,-16.515951,-16.70253,-17.920513,-17.906548,-18.488285,-17.83592,-18.470266,-18.891512,-19.140652,-19.653036,-19.709265,-20.12751,-19.605307,-20.237539,-21.668243,-20.866291,-21.472073,-21.201088,-22.048536,-22.537643,-22.762007
-10.118255,-10.596407,-10.851712,-11.218865,-11.415428,-11.822569,-11.920911,-12.930929,-12.644012,-12.77554,-13.697647,-14.39879,-13.692827,-14.187394,-14.365918,-14.929023,-16.727085,-15.976687,-16.267944,-17.110332,-16.323648,-18.033339,-17.756987,-19.239103
1.4081368,1.0319976,.42183158,.11322926,.2539098,-.26644233,-.58245391,-.97393215,-1.8839574,-2.0052221,-2.9343939,-2.8098116,-3.5589929,-3.0341001,-4.3197007,-4.9409494,-5.1324077,-6.0525885,-6.7793946,-5.5770078,-6.716042,-6.9937587,-7.839211,-7.4538302
.27912858,-.15995933,-.67902029,-1.064492,-1.2820578,-1.5832413,-2.1367888,-2.8685584,-2.9677491,-3.7222712,-4.0860443,-3.8072107,-4.9989128,-4.7379098,-5.236455,-5.2630153,-6.126555,-6.5286903,-6.6640224,-7.1356921,-8.3833656,-7.8758755,-8.3394346,-8.5844879
3.6645238,3.2831392,2.8868458,2.4907441,1.704833,1.561397,1.2519162,.32590553,-.10413016,.2896277,-.83900845,-1.032351,-1.6160843,-2.0655158,-1.9347613,-2.5662186,-4.0169168,-3.7187333,-4.365624,-4.2186561,-4.2427173,-4.7887754,-5.6441622,-5.8309202
8.190383,7.7450552,7.5247931,7.1868186,6.3749118,5.9817019,6.2820907,5.135653,4.5427265,4.6405082,4.773016,3.6599135,3.8018482,3.0985968,2.5393403,2.2218227,1.2942433,1.3031132,1.2661757,-.53320944,.049653362,-.080560707,-1.2996621,-2.7336841
-.013435481,-.53664416,-.81124109,-1.1216866,-1.9585655,-1.6153088,-2.6030245,-2.7551534,-3.2749984,-4.3740487,-3.628942,-4.8754172,-4.2408876,-5.8538918,-4.9660263,-6.3591561,-7.6250091,-6.5054445,-7.5241766,-7.7055464,-7.9469347,-8.3643665,-8.2962866,-10.06046
.53291517,.04980924,-.12428023,-.54956239,-1.2583954,-1.5666928,-1.3645078,-1.8415171,-2.5239928,-3.2196648,-2.9238718,-3.5383275,-4.7572637,-4.317153,-5.4086328,-4.3782477,-5.4143863,-5.9817667,-6.5110593,-7.5766773,-6.9549913,-8.5151634,-8.3432856,-7.5937028
2.6138361,2.2125533,1.9414746,1.7202005,.70427346,.98781842,-.15355797,-.55851328,-1.224704,-1.9506196,-.54806805,-1.7448559,-2.8634868,-3.1353965,-3.060111,-3.9247904,-3.1265464,-3.5611937,-4.2580037,-4.5681968,-6.3561015,-5.303019,-5.0879307,-6.8237982
-5.9905949,-6.4488583,-6.7891178,-7.236258,-7.4580026,-7.7179561,-7.9989519,-8.6641188,-9.1665335,-10.150917,-9.6202888,-10.325406,-9.9151516,-10.646798,-11.129684,-11.54423,-12.043346,-12.556216,-12.444483,-13.242874,-13.801481,-13.918607,-14.190796,-14.877842
3.1798751,2.8609078,2.2038698,1.7956477,1.682151,.89307433,.95701188,.70781982,-.43517587,-.041903749,-1.1712147,-.4993594,-2.5040936,-2.1129158,-3.1639352,-2.9092393,-3.6799774,-3.8489032,-4.2143316,-4.1735921,-4.9686904,-4.8279352,-5.8764243,-5.8865623
-3.5921273,-4.1712341,-4.3745298,-4.8901615,-5.1606083,-5.2191796,-5.5674052,-6.9634399,-6.8183641,-7.1882262,-7.7957406,-7.8320856,-8.5106115,-8.2932501,-9.0444374,-9.9763708,-8.9552021,-9.6698856,-9.370182,-10.495101,-11.651676,-11.364161,-12.080539,-11.762974
3.82215,3.4774921,3.0717609,2.3834662,1.9929315,2.035995,1.0237093,.46133694,.22340244,.24545266,-.14367583,-1.4713836,-1.9079009,-2.2942665,-2.6924253,-1.7402563,-3.9153926,-3.1535177,-2.8546042,-3.5931978,-4.9510102,-4.7108693,-4.7529755,-6.1679997
-6.0732675,-6.4099679,-6.6594605,-6.9828668,-7.9020743,-7.9386096,-7.8530951,-8.5584898,-8.517621,-9.9093151,-9.5859518,-10.035669,-11.084063,-10.932229,-11.419318,-12.470513,-12.265498,-12.314627,-14.13765,-12.69944,-12.917432,-14.009776,-14.142697,-14.665512
-.62443376,-.73504913,-1.4300703,-1.5704348,-1.559942,-2.8130569,-2.5522664,-3.720238,-3.4271033,-3.4874635,-4.2362862,-4.3997955,-5.7634087,-5.8018641,-5.2597861,-7.0388408,-7.2256031,-6.9052434,-7.5312414,-7.973165,-9.1830235,-8.3673191,-8.8053637,-9.3564472
2.7766736,2.3256297,2.2133133,1.3241805,.8352136,1.1342934,1.2907686,.073238343,-.038064733,-.77841508,-1.682249,-1.1613836,-1.3655422,-1.8352355,-2.8873394,-3.8396769,-3.594805,-4.6008506,-3.8848739,-4.3651695,-4.4854746,-5.4472995,-5.3398633,-6.4700155
-2.310971,-2.7613153,-3.0774949,-3.5085621,-3.7601278,-4.4493752,-4.5900049,-5.1155968,-5.4868741,-6.007668,-6.1046281,-6.2692423,-7.4069958,-6.7829657,-7.7952423,-8.1671534,-8.5818586,-8.6699772,-9.1514597,-9.6959972,-9.9510555,-10.325564,-10.898154,-11.791939
-9.9654999,-10.422627,-10.493093,-10.978817,-11.674306,-11.587911,-12.09399,-12.266649,-12.583824,-12.856053,-12.659058,-14.415153,-14.070897,-13.892276,-14.609141,-16.020058,-16.679802,-16.328463,-15.577791,-17.596735,-17.052368,-17.241791,-16.653641,-18.136084
5.5961022,5.3059368,4.8147144,4.5096202,3.7760606,4.1929269,3.175534,2.1294267,2.3754468,2.8437002,1.4052148,.84059107,.17414798,.1435452,.18209042,-1.6462051,-1.8835217,-1.8407404,-3.1191399,-2.0482755,-2.8023131,-2.9861579,-3.1689136,-3.2539535
-9.398243,-9.5519657,-10.063268,-10.070828,-11.011802,-10.645925,-11.484508,-11.948438,-12.737892,-12.575624,-13.246496,-12.937149,-13.902773,-14.58564,-13.770729,-14.080816,-15.463312,-15.097989,-15.723423,-15.869653,-16.124454,-16.57522,-17.3498,-18.244602
-1.5838002,-2.0230217,-2.7293174,-3.0490856,-2.964314,-3.0624709,-4.7833219,-3.8991091,-5.0283365,-5.7352376,-5.812645,-6.4833374,-6.8185697,-6.9938445,-6.7231445,-8.0209246,-7.8009553,-7.4696088,-8.789279,-8.6982574,-8.8059826,-11.11877,-9.2837868,-11.073009
6.0605855,5.775001,5.2473092,4.3086338,4.7574377,3.4793978,3.5945485,3.355382,2.8866222,1.9001529,1.7191473,.50087005,1.7006817,1.1232926,.70228148,-.10145359,.48424998,-1.2265214,-1.6152651,-2.2425261,-2.2532077,-2.2037325,-2.8174868,-3.7020876
-4.1275373,-4.3599272,-5.0972595,-5.2287664,-5.1847563,-6.28758,-6.8211584,-6.5910635,-7.2834239,-7.6460552,-7.8877845,-8.5277929,-8.0740232,-9.2769451,-9.481493,-9.2970943,-10.284433,-10.092458,-10.477774,-11.717183,-12.626246,-12.802152,-12.344794,-13.546716
11.683546,11.11832,11.168931,10.617503,10.129132,9.4233627,8.8487196,8.8079596,8.582695,8.3761311,7.2492032,5.947628,6.666358,6.1183171,4.9236779,4.8645082,6.2163901,5.374074,3.8499196,3.8551023,3.393158,3.131418,1.2703118,1.0753343
-6.7129555,-6.831964,-7.4457159,-7.9321918,-7.8337107,-8.5804796,-9.6429014,-8.6021109,-9.2775793,-10.309693,-10.465471,-10.720247,-11.038063,-11.828193,-11.834696,-11.512974,-11.932564,-12.500854,-13.580256,-14.326898,-13.995366,-15.049358,-15.087442,-14.902892
-1.1713325,-1.6175582,-2.2734962,-2.4938297,-2.2238195,-2.7196264,-3.7082682,-3.7200353,-4.8625321,-5.2772088,-5.4788694,-4.5809908,-5.1640258,-6.2164807,-6.4052157,-6.942091,-6.2032223,-7.0172491,-9.5329914,-7.3983626,-9.9312983,-9.435504,-9.8507366,-9.0472202
-1.4889568,-2.0585825,-1.9372926,-2.5298152,-3.2326291,-3.1270461,-3.479404,-4.8250041,-4.9716554,-4.9876838,-5.194437,-5.9448171,-5.3102198,-5.9944363,-6.6173458,-7.5234175,-8.2987757,-8.2997122,-8.6557255,-8.4837408,-8.7082405,-9.3428679,-10.297962,-10.274956
2.2564054,1.9569978,1.5295144,1.1541038,.77759027,.27058816,.23762651,-.39807099,-.9847995,-1.766843,-1.304849,-2.2688456,-2.3520231,-4.0781713,-3.4951711,-3.5243003,-4.157495,-4.5788951,-4.6903443,-6.9905291,-5.7750554,-5.6369958,-6.117496,-7.2135777
4.7454066,4.2993069,3.8821449,3.8604982,3.568505,1.9887515,1.8407507,2.1224353,1.6950465,1.2668625,.57948333,.84208846,.54989648,.54506361,-.63713831,-1.9329917,-1.9317366,-2.1553369,-2.5959055,-3.4461138,-2.9578009,-2.911931,-4.7535815,-4.2538552
3.3229361,2.6767561,2.450012,2.2078171,2.0064576,1.4610287,.68388557,.62045002,.16550159,.26594409,-.10749088,-1.4266227,-.70597976,-.68589109,-1.7912312,-2.2072597,-3.4577048,-3.9107773,-2.9462595,-4.8028312,-3.5635943,-4.9999523,-4.5687537,-7.0875831
-1.3409135,-1.965326,-2.3538527,-2.1618268,-3.0233941,-3.3799152,-3.960835,-4.0178189,-4.1816015,-4.5113559,-4.9498677,-5.8303957,-6.6987953,-5.8476996,-6.5706906,-7.6024384,-7.8444333,-8.5144463,-8.0114555,-8.5059576,-9.1052437,-9.3255215,-9.0785046,-11.124579
-1.242427,-1.5829465,-2.0396922,-2.4597504,-2.9400001,-3.0541072,-4.0627341,-3.5903249,-3.9899569,-4.321342,-4.9977245,-5.1760478,-5.9315114,-6.1621943,-6.1218967,-6.2919755,-7.1569228,-8.0720768,-7.9476843,-8.0433521,-9.7994204,-9.6811762,-10.116852,-9.5953722
4.9971051,4.5884013,3.9074562,4.0264697,3.2410679,2.7772207,1.6974686,2.2427835,1.9103661,.41501555,.19297305,-.24456473,-.18010327,-1.4508138,-1.4731081,-1.2751377,-1.6943545,-1.8576198,-2.4527702,-3.3344872,-2.7377346,-3.5813031,-5.1390762,-4.3425713
-.87939167,-1.1709565,-1.7271826,-1.7743604,-2.4730771,-2.9891527,-3.4600301,-3.712852,-4.071702,-4.2706027,-4.3428702,-5.9673977,-6.6032147,-5.6622005,-6.2129726,-6.3876028,-6.6650138,-7.4662623,-7.6979718,-7.9235687,-7.6225858,-9.3419981,-10.327678,-10.218504
3.6643052,3.2359431,3.0324125,2.3459575,1.5947968,2.1142786,1.8085223,1.0039489,.023164283,-1.1193058,.20290263,-1.3633547,-.44474244,-1.898916,-1.650257,-2.1366856,-3.0592217,-3.0240171,-4.5576787,-3.6338887,-3.1508858,-3.3984203,-4.8072114,-4.941618
1.4148898,1.0858722,.49670231,.21554542,-.02302869,-.46107545,-.41164982,-1.3743793,-1.965912,-2.5491815,-2.1924498,-2.5081515,-3.2377245,-3.4147429,-4.7353187,-5.7253094,-3.7214944,-5.2172675,-5.557219,-5.525918,-5.5125542,-6.7128935,-5.4073257,-8.0022354
-.03870482,-.42399374,-.6965763,-.81636798,-1.3707665,-1.8771845,-2.2803829,-2.8699131,-2.9468918,-3.1893706,-3.8135517,-4.8406806,-4.9263058,-4.8719387,-6.2740788,-5.0879498,-6.1594386,-5.9182906,-7.1335135,-7.5681868,-7.5525818,-7.6032515,-7.9781551,-8.3173532
-1.0507147,-1.4256059,-1.434623,-2.1835842,-2.3336787,-2.6540899,-3.0283058,-3.3943527,-3.2781031,-3.7985575,-4.3237877,-5.0410118,-5.723165,-6.0229001,-6.5721636,-7.2950692,-6.8861413,-7.7773323,-8.6871862,-8.2635145,-8.757185,-9.4116373,-9.8610878,-9.2032356
7.4861059,6.8386369,6.7282228,5.7763419,6.0263324,4.9690199,4.4735537,3.6055281,4.7744598,3.8170516,2.439923,3.3276279,2.9595535,2.166853,2.123596,.90887219,1.0371026,-.86828363,-.60148811,-.52294731,-.70764679,-1.038282,-2.0617154,-2.1559005
3.1114438,2.640837,2.5513551,1.7160547,1.3280686,1.3444731,.56806868,.47216323,.63162309,-.13032924,-1.2080065,-1.6339794,-1.9964914,-1.7399968,-2.9936826,-3.1455536,-3.5147817,-3.4068074,-3.6519721,-5.5802307,-4.4509635,-6.7322216,-6.0745082,-6.6501808
-2.3857524,-2.7798698,-3.3125284,-3.4452257,-3.5917878,-4.5392323,-4.6150246,-5.3606262,-5.3177791,-6.4163833,-5.7770305,-6.3884311,-7.2555828,-7.5938482,-8.5032578,-8.0184755,-9.1425104,-9.6288252,-9.2174597,-10.212645,-10.526651,-10.403773,-10.356681,-10.898091
-3.1515348,-3.7839406,-3.9220483,-4.6023326,-4.750277,-5.0423708,-5.5298119,-6.1441979,-6.1892986,-6.7186341,-6.9849348,-7.4937248,-8.0390234,-8.4365911,-8.0399494,-8.5874176,-9.5481195,-9.2881918,-9.771162,-9.7615337,-10.828795,-11.412821,-11.193074,-12.654389
-3.4024134,-3.8816919,-4.0459924,-4.7814898,-4.6092272,-4.763423,-6.1350417,-5.6857152,-7.1895714,-7.133028,-7.2287941,-8.2877197,-8.6090403,-8.3466043,-9.3669395,-9.1774397,-8.9410982,-9.6821012,-8.9087181,-10.615758,-11.985415,-11.532226,-10.963024,-11.887107
4.5133972,4.2124658,3.9075322,3.4322917,3.0177183,2.9498031,2.4048307,1.4124403,1.2081299,.96955752,-.18127485,.32288009,-.028998634,-.20538042,-2.3212197,-1.1785251,-1.2753799,-2.2140257,-2.9018893,-4.0165296,-3.5014038,-3.4972079,-4.1710849,-5.3046169
-13.155191,-13.444982,-13.767761,-14.210062,-14.579335,-15.218295,-15.750905,-15.517356,-15.871928,-16.047321,-16.688795,-17.136999,-17.501471,-17.609982,-18.526453,-18.94908,-18.035896,-19.378237,-19.441982,-20.258997,-20.959595,-20.556784,-20.676792,-21.189585
-10.127413,-10.657974,-10.778668,-11.227126,-11.397478,-11.45994,-13.145195,-13.229866,-12.484729,-13.058115,-13.21805,-14.312639,-13.349645,-15.748748,-15.122268,-16.211802,-15.977757,-15.582782,-16.496519,-16.727919,-17.246843,-17.081079,-17.438204,-18.438902
-4.7814121,-5.2124968,-5.2156296,-5.8374977,-5.8982086,-6.7455735,-6.7486291,-8.0626373,-7.4496112,-7.9072466,-8.492547,-9.8231773,-9.3897982,-9.8513908,-9.6671839,-9.9330673,-11.618115,-10.678587,-12.230356,-11.334768,-12.180314,-12.700963,-12.251562,-13.237766
-11.288828,-11.50789,-12.035134,-12.049191,-13.146983,-13.007172,-13.20209,-13.585332,-14.315505,-14.33113,-15.420544,-14.654576,-15.660596,-15.599185,-15.8009,-16.977814,-17.214018,-17.419827,-17.242765,-17.642262,-18.956127,-19.126953,-18.397438,-20.19491
-8.0129633,-8.7398157,-8.6542683,-9.0617399,-9.2296705,-9.279398,-10.052306,-10.32107,-10.98854,-11.352699,-11.536947,-11.711639,-12.931308,-12.158227,-12.643303,-13.634584,-14.200855,-14.131727,-14.705573,-14.193802,-15.545225,-15.538446,-16.319496,-16.01787
-7.6127329,-7.9865193,-7.909986,-8.7196198,-9.0350313,-9.2529955,-10.018498,-10.717016,-10.794679,-10.738031,-10.225765,-11.496146,-11.963704,-12.369781,-13.11564,-12.723426,-13.366558,-12.612885,-14.536924,-14.333494,-14.737701,-14.52632,-15.930216,-16.41041
5.1059036,4.6326509,4.2149658,3.6243417,3.1484125,2.8500516,2.8591959,2.2938533,2.372098,1.6869891,.78623086,-.79743654,.8069548,-.34733874,-.52951342,-1.3241193,-1.884707,-2.2113352,-2.5756791,-3.2844307,-2.5365796,-3.3793826,-3.8538609,-3.6696711
1.6786727,1.1323754,.98069161,.90643549,.32358217,-.70902306,-.59750468,-.68275642,-1.5915548,-2.3636489,-2.1641827,-3.0027502,-2.0373635,-3.1705282,-3.3092539,-3.7671018,-4.6895204,-4.1841826,-6.1945572,-6.569943,-6.8610449,-6.6176028,-7.1555538,-7.8978128
-5.2015409,-5.5414701,-5.8642783,-6.5775037,-6.288826,-7.0968122,-7.7142797,-7.3724818,-7.5617237,-8.2850132,-8.9621315,-9.6672468,-10.138866,-9.8466988,-11.017254,-10.464119,-10.833397,-11.878702,-12.665172,-11.803045,-13.38851,-12.970966,-13.278687,-14.135577
-10.000171,-10.318975,-10.544141,-11.233109,-11.079663,-11.719806,-11.737743,-12.268922,-13.023424,-13.269238,-13.866859,-14.252572,-14.044734,-15.068714,-15.641977,-15.465332,-16.200785,-15.89826,-15.795599,-16.064547,-16.882399,-18.26605,-17.326319,-18.87009
-3.2282915,-3.7492881,-4.0302501,-4.5133705,-4.7619386,-5.5968652,-5.4588494,-5.4496918,-6.9797378,-6.5117517,-6.9288702,-7.7650757,-8.1539316,-8.0471506,-8.063983,-9.3129139,-9.5027075,-9.5069065,-11.397322,-11.095057,-10.476392,-11.65902,-10.792277,-12.020819
5.4339223,5.1821837,4.511694,4.5555739,4.2664781,3.9815421,2.7281611,2.5711312,1.9278438,1.5993882,.86734676,.68349022,-.47150812,.19496651,-.029440096,-1.4428675,-.64091563,-1.9872698,-2.5149279,-1.2520089,-2.5288982,-3.1639903,-3.4419994,-4.1290989
6.5695791,5.9471159,6.0086007,5.1101313,4.7708206,4.2035499,3.8185644,3.5857768,2.7661848,2.8791955,1.9052992,1.2970873,1.926641,1.3154413,.77285326,-.073720701,-.22331388,-.69720012,-.52595133,-.95832527,-1.8377794,-3.2472386,-2.429307,-2.1064212
9.0547676,8.897356,8.4196568,8.0508766,7.1396132,7.2437639,7.3256888,5.9014921,5.2330475,4.7321839,4.205761,4.133194,4.6367602,4.193893,3.730082,3.1339471,3.2171755,1.805985,1.2841116,.53747499,1.9296787,1.0420802,.55208212,-.16347605
-4.220706,-4.5082951,-5.167213,-5.1608095,-5.5837169,-5.2848783,-6.6700044,-7.254725,-6.6942959,-7.8482513,-8.1365252,-8.4043808,-9.7212839,-8.7829027,-9.8708601,-10.396032,-9.4089413,-11.223007,-11.156827,-10.820455,-10.942616,-12.617228,-11.230453,-13.898319
-1.8642997,-2.1328752,-2.5071146,-3.156738,-3.7092528,-3.950448,-4.068347,-4.7946696,-5.2525506,-5.6848822,-5.9393091,-5.8227901,-6.9814739,-7.3161025,-7.6488523,-8.1842976,-7.6647434,-8.4130001,-9.2910089,-9.830451,-10.654553,-9.7394295,-11.029452,-10.894769
5.854248,5.6625838,5.0386782,4.6059818,4.2814827,3.9209385,3.0339599,3.3623405,2.8162417,2.8544061,2.3287811,2.023664,1.1928922,.61315411,.27537411,.11773711,-.88976997,-.76028693,-1.5224104,-1.0514406,-2.639801,-2.6483316,-2.4295516,-4.8603811
1.977024,1.5378537,1.1829317,.42158017,.35035348,.39789361,-.47187707,-.7576229,-1.2573372,-1.788624,-2.1116004,-1.5964978,-3.0986781,-3.5026798,-4.7642145,-4.2091045,-4.3062921,-5.2283082,-5.6876845,-5.0864229,-5.7268138,-6.1501064,-7.6589046,-6.6401973
6.3678827,5.8403134,5.4105067,5.2530813,4.9464741,4.3033795,4.01017,3.571665,3.377696,2.5678234,1.3586993,2.5047805,1.2510122,.84377348,-.65574414,-.38347164,-.48171324,-.71000755,-1.5015405,-1.2794471,-1.4676757,-2.3964424,-2.395632,-3.1866798
6.671349,6.4040322,5.5313935,4.8569808,5.0292134,4.7840447,4.2650771,3.6707623,3.7279317,2.8226349,2.1134636,2.5158925,1.8973624,.91974646,.25181687,-.48530355,.51937324,-.59478635,-1.3887854,-.65750647,-1.1015157,-1.9557073,-3.0092895,-2.8523788
-7.2199988,-7.3867059,-7.675077,-8.0776777,-8.8130302,-9.3749952,-9.1692572,-9.3103037,-10.301163,-10.666151,-11.095953,-11.117015,-11.667898,-11.571731,-12.144315,-13.24645,-12.865552,-13.361834,-13.852394,-13.895817,-13.418556,-14.730944,-14.251724,-12.980584
-9.0891066,-9.4078045,-9.9348927,-10.058337,-10.725656,-11.055686,-11.01942,-12.030428,-11.792797,-12.761863,-12.014567,-12.853469,-13.593657,-13.212262,-14.473276,-13.76416,-13.991892,-14.842053,-16.172043,-15.65254,-16.183851,-15.990792,-16.572121,-16.686825
-9.5827007,-9.8179235,-10.098833,-10.898563,-10.710544,-11.253629,-11.570712,-11.56182,-11.879965,-12.757807,-13.10183,-13.754869,-14.261889,-14.628097,-14.378978,-15.339691,-15.721564,-15.772666,-16.239454,-16.140043,-16.552893,-16.16259,-17.397442,-17.694696
2.4052753,1.8521115,1.7784567,1.2361178,.72162241,.30531275,.41157824,-.41531861,-1.209668,-.81185251,-1.5843886,-2.0028675,-3.5044739,-3.3816769,-3.6368001,-3.8966217,-3.1645112,-4.7921023,-5.8365998,-5.7521849,-5.4267578,-6.3638597,-7.347569,-8.3146648
-3.9423065,-4.1604428,-4.9319425,-5.0976567,-5.5455842,-5.7617555,-5.9507127,-5.7177444,-6.9827852,-7.6321902,-6.6467819,-7.8061943,-8.316679,-9.1907825,-9.9786978,-9.6602163,-9.8175774,-11.16183,-10.182702,-10.794683,-10.563285,-12.459095,-12.26832,-11.407169
-9.3176193,-9.7162857,-9.8840551,-10.652548,-10.279262,-11.341261,-11.520097,-11.805285,-11.698689,-11.686499,-13.35956,-13.784359,-13.809142,-13.540089,-14.570015,-14.289711,-15.475799,-15.008251,-15.111027,-15.985071,-16.736845,-17.40082,-16.578577,-17.578119
-8.6455631,-8.6670046,-9.3708763,-9.6677675,-9.9114389,-10.766226,-10.701268,-11.021461,-11.722485,-11.344524,-12.075482,-12.02681,-13.808407,-12.633038,-13.283921,-13.677256,-14.202232,-14.308026,-15.82904,-14.945157,-16.139662,-16.028822,-16.160065,-16.316971
-1.9669019,-2.4315801,-2.8591123,-3.15224,-3.8549418,-3.8739605,-4.0295057,-4.5706739,-4.6423583,-6.2463913,-5.4592304,-6.1835709,-6.8682547,-6.9093103,-7.5618658,-8.4668522,-7.6386089,-8.5833654,-9.8722935,-9.3039351,-10.451731,-9.6636314,-11.383146,-11.399089
-.21265133,-.68310064,-1.1811633,-1.4903448,-1.7873368,-2.3654289,-3.0359058,-3.0328505,-3.203651,-3.7443781,-4.112041,-4.6878142,-5.4832244,-5.0649595,-5.3112507,-6.3462043,-6.5078688,-6.782227,-7.0849915,-8.4183359,-7.9382768,-8.8092985,-8.8133001,-8.8457155
5.0111632,4.6381569,3.8473532,4.0715513,3.3802159,2.7548456,2.9291694,1.9641954,1.4530439,.88134259,.54990959,.9572503,.0046678432,-.18086365,-1.6274545,-1.6937008,-1.3941356,-2.3319044,-2.3684034,-2.9395008,-2.907541,-4.0667701,-4.0537572,-5.2671814
17.973104,17.615604,16.859604,16.846657,16.62676,15.227541,14.707411,14.852407,13.997691,13.202272,12.246305,11.964269,13.209378,12.781904,11.575682,11.888076,10.739891,10.946308,9.1175117,10.73694,8.6332893,8.1846428,8.4568501,8.9904985
-14.504193,-14.670575,-15.018131,-15.588266,-16.067596,-15.914696,-16.496517,-16.407619,-17.02648,-17.303879,-18.000153,-18.237566,-18.219973,-19.237259,-18.539938,-20.029833,-19.798658,-20.135326,-18.631063,-20.820051,-20.706182,-20.954424,-21.854385,-22.20372
-11.727678,-11.936054,-12.812428,-12.484558,-13.019503,-13.479823,-13.586802,-14.828643,-14.672771,-14.750826,-15.252396,-15.592555,-15.182936,-16.737309,-16.941601,-17.87455,-17.247564,-17.754036,-17.819748,-18.062511,-19.030264,-18.525358,-19.656654,-19.714081
11.422035,11.098425,10.43575,10.102067,9.7036009,9.3033228,8.4135342,8.0984774,7.975996,7.6375751,6.3339653,6.6325831,5.516223,4.9733014,6.0262551,4.3111277,4.1245613,4.3594728,3.8753355,2.818584,2.494962,1.7208673,1.0131476,.35684225
3.2852483,2.9472766,2.7514014,1.8059411,1.00677,.95281988,.91112328,.7794621,-.58109343,-.54955232,-.48722258,-.90796608,-1.8588036,-2.0858014,-2.485815,-3.2615519,-2.2787716,-4.5108705,-3.8269782,-4.5125318,-4.8972001,-5.0531974,-5.668777,-7.1272101
-4.3923221,-4.9959259,-5.4514828,-5.6519084,-5.9360762,-6.3913884,-6.8070092,-7.8584394,-7.603457,-7.8237953,-8.2538939,-8.3562679,-8.7504778,-9.4115391,-10.078611,-10.496135,-10.470558,-11.141476,-11.910648,-11.583257,-12.21314,-12.465177,-13.292649,-12.999618
6.2760339,6.0422516,4.8075161,5.1248145,5.0255017,4.3984704,4.2620034,3.1786101,2.4263229,1.7888755,2.5607257,1.4334921,1.8592477,1.4667401,1.0217541,.77057385,-.49434134,-.53752446,-.48158443,-1.0477396,-1.1429375,-2.8591726,-2.9486918,-2.1381359
12.489085,11.983576,11.552303,11.23243,11.121634,10.401582,9.9082317,9.8057461,9.2426262,8.5537262,8.3846397,8.5311232,7.5081158,7.2471561,6.6198821,5.4297819,5.7289934,4.8026185,3.9581676,3.9016712,3.4000995,3.5418456,4.0151529,1.5111228
-1.7456454,-2.2520101,-2.4850256,-2.6394947,-3.2555449,-3.4416234,-4.2855511,-4.2626486,-4.9443688,-4.8724198,-5.8474431,-5.6450567,-6.015491,-6.7142324,-7.3260655,-7.6377249,-8.0514154,-8.4026394,-8.2413969,-9.6012707,-9.7863235,-10.352225,-10.063498,-11.193707
.44531333,.014841376,-.15973954,-.79171842,-.82682556,-1.4416447,-1.9961591,-2.1792624,-2.8171513,-2.6531589,-3.6487875,-3.9912319,-3.9150939,-4.8113484,-5.7962399,-5.3041124,-6.6498895,-5.5250316,-5.8025017,-7.7311778,-7.8616819,-7.6082335,-6.7437429,-8.5071812
.48089454,-.28305665,-.58202952,-.67183608,-1.1074797,-1.2038859,-2.2353108,-2.6117013,-2.6872363,-2.3993075,-3.7585711,-3.5202551,-3.7305393,-4.2319379,-5.8712983,-5.6610947,-5.4400082,-5.476253,-6.5284219,-7.0206037,-6.6994925,-6.8775501,-7.630147,-8.8397474
-6.083777,-6.4269361,-6.6730509,-6.9098854,-7.7478948,-7.6217651,-8.1360006,-8.9010973,-8.7987871,-9.9955645,-9.9762659,-9.3613729,-9.8573771,-10.910221,-11.175051,-11.181483,-12.597966,-11.934336,-12.608043,-12.934937,-13.249896,-12.892875,-14.378415,-14.083194
-2.0748549,-2.5259075,-3.1192002,-3.339663,-3.1361392,-3.9565337,-4.0000377,-4.983212,-5.1022749,-4.4211831,-5.4694123,-6.6592813,-6.2393684,-6.339828,-6.6346097,-8.2165899,-7.2746787,-8.3500214,-9.0836554,-8.4352798,-10.531495,-9.2557745,-9.1496487,-10.412498
-3.1349168,-3.5527604,-3.8943632,-4.4747248,-4.5793719,-4.3247252,-5.7258124,-5.6543641,-5.8151603,-7.5237508,-7.0126152,-7.6559634,-7.6347528,-8.2374144,-8.0825243,-8.9929724,-9.228507,-9.597414,-8.9687796,-10.687914,-10.663789,-11.67877,-11.596586,-11.793825
-4.5206718,-5.0843329,-5.1282425,-5.7036304,-5.9628682,-6.4553838,-6.858983,-7.5602627,-7.5308275,-7.4617963,-8.3333807,-8.5751381,-8.9630728,-9.1960135,-10.132317,-10.267859,-9.5362978,-11.391934,-11.447451,-11.78105,-11.697913,-13.583124,-12.137025,-13.115623
10.168543,9.8112059,9.6060181,9.1625214,8.7851419,8.5982847,7.3546028,7.724144,6.7266374,6.0381708,5.3303866,5.7286768,4.2599645,5.1307774,4.0042157,4.3784928,3.3415403,1.8235064,2.1170733,2.672925,2.0785539,.86704731,.033338439,-.24196789
2.9581835,2.5204015,2.1377535,1.2646638,1.2307385,1.1345205,.49994949,.4033637,-.47276133,-.55983829,-1.7472275,-1.2558057,-2.0388181,-2.4094124,-3.0536184,-3.5012808,-3.1510448,-3.8102665,-4.243845,-4.7259884,-4.5713196,-6.2253914,-6.8239021,-6.1694164
-3.3992534,-3.7750375,-4.1579232,-4.2596474,-4.6633081,-5.5305367,-5.2393079,-5.7842746,-5.8017302,-6.9294434,-6.5000734,-6.9883442,-7.9682212,-8.5899668,-7.9553099,-9.3402662,-9.106205,-9.868824,-11.034986,-10.055606,-10.473374,-11.108109,-10.975672,-12.230654
-2.1274173,-2.3146212,-2.6627955,-3.577384,-3.8079543,-4.4703999,-3.988668,-4.9384785,-4.7056246,-5.9916558,-5.3741226,-6.0567541,-6.3376603,-6.6733723,-6.9729686,-7.0292959,-8.3094883,-7.4605885,-7.8569679,-8.8562002,-10.138669,-9.7371874,-9.2344694,-10.743458
1.8428717,1.437081,1.0667789,.92844635,.68251592,.71949559,-1.2891515,-.80809498,-1.1495118,-1.9122355,-2.3661027,-2.7894449,-1.889783,-2.9956658,-2.6934891,-4.0001559,-4.1324668,-4.5209746,-5.1122661,-5.4062452,-6.0353775,-6.4996557,-7.1031919,-6.3030434
-7.4588461,-7.7972341,-8.1248932,-8.3604269,-9.2818327,-9.4114914,-9.1350307,-10.064774,-10.429189,-10.017224,-10.19263,-11.732396,-11.754778,-11.802169,-12.998052,-13.270358,-12.640779,-13.039312,-14.58622,-13.355969,-13.962269,-15.1936,-14.379805,-15.038501
1.0790501,.76579994,.36392576,-.19773652,-.0073249084,-.68934709,-.88371491,-1.0775954,-2.0706534,-2.7851496,-3.241936,-3.0615265,-4.1974125,-3.9792395,-4.6047463,-5.3620849,-4.8120117,-5.2573228,-6.5918489,-6.8768277,-6.5139589,-7.9409471,-7.6427989,-7.6363091
-5.1623049,-5.39709,-5.9875708,-6.3125772,-6.8805671,-7.2713585,-7.0209627,-8.1243505,-8.7653418,-8.116334,-9.2127066,-9.2383833,-9.8856325,-9.869812,-10.142219,-10.508311,-11.357737,-12.030868,-11.724128,-11.850842,-12.276728,-13.921966,-13.509972,-15.016482
-.0095496448,-.41253981,-.596196,-.93547803,-1.4115442,-1.8923699,-2.4281349,-3.2075303,-2.6759298,-3.6254718,-4.5355244,-3.7213938,-4.8295016,-5.4878902,-5.0140867,-6.0402508,-6.7268362,-6.8132601,-7.0567827,-7.7176027,-7.7624927,-8.7231598,-8.8265667,-9.115346
-9.094326,-9.3917952,-9.6764832,-10.029386,-10.700748,-11.154598,-11.33239,-12.097116,-11.774377,-12.599598,-13.095387,-13.37507,-13.71614,-13.759214,-14.28223,-14.14938,-15.257714,-15.294407,-15.953052,-16.481033,-16.47455,-16.712414,-16.502069,-16.563358
4.0168271,3.6825502,2.9279091,2.3071327,2.5071728,1.8683996,.91642582,.91740382,.87548155,.21510927,.077178769,-.20521151,-1.0130144,-1.0184072,-2.0744052,-2.4388399,-2.0149968,-2.2259033,-3.0240271,-3.824075,-4.262598,-4.6012826,-5.4231009,-4.720973
7.4883752,7.4259753,6.9887748,6.5393834,5.5375118,5.9226718,5.0561676,3.9013474,5.5466323,3.5245702,3.4027214,1.6881653,1.3285706,1.7107645,2.0551836,1.956305,1.7240351,.17263305,1.6937888,-.25710082,-1.2796175,.47123596,-1.2879423,-1.5212116
4.9510107,4.6575933,3.8744843,3.4612799,3.3868854,3.2729604,2.5757143,2.0068004,1.4850408,.9216907,.37559551,.86296505,-.48723286,-.18882287,-1.3207182,-1.270004,-1.7979735,-1.7167888,-2.4596939,-2.2855976,-4.1020832,-3.2553563,-4.0240479,-4.9972353
8.688344,8.189764,7.9043884,7.6187057,7.2361946,6.2484837,6.2319808,5.4970279,4.5732455,4.9057035,4.2848907,3.2241108,4.3487964,2.8118944,3.8090982,2.0242183,1.7576982,1.2968068,1.3924041,.51012772,-.99097323,.19826086,-1.1731504,-1.642211
-7.0325761,-7.3098073,-7.7278719,-7.9858365,-8.2525768,-8.5007458,-8.0289602,-8.7556486,-9.8354998,-10.295937,-10.165791,-11.391958,-10.882104,-11.218263,-12.272827,-11.795944,-12.146761,-12.65919,-13.391069,-11.874082,-14.683473,-14.357281,-15.139667,-13.324152
-5.2284541,-5.5823784,-5.8639922,-6.0986724,-7.003871,-7.1545205,-7.5108652,-7.791924,-8.6418571,-8.4569931,-8.716959,-9.5752935,-9.2479544,-9.7830935,-10.770581,-11.708622,-12.157852,-11.626927,-12.541018,-11.295929,-11.777771,-13.84602,-13.422037,-13.629079
4.4102149,3.9782851,3.5211012,3.323875,2.5238621,2.1892786,1.9100863,.88722378,1.2582591,.7784853,.67511237,-.061840348,-1.0808982,-.68568766,-.69679004,-1.8598348,-2.9000897,-2.7114899,-3.1606114,-3.471283,-4.1034689,-4.3957653,-4.8665438,-4.9165406
1.0462633,.80862081,-.2129164,-.59602386,-.36463097,-.51854837,-.73960865,-1.4012061,-1.6126221,-1.8225056,-3.0356557,-4.0558829,-3.7901881,-4.1251512,-3.7067478,-4.606245,-4.857182,-5.6133709,-7.3038235,-6.953795,-5.6543674,-7.4078956,-7.8960495,-7.8820715
-10.68014,-11.020742,-11.24229,-11.98493,-12.201468,-12.565135,-12.785608,-13.071804,-12.971238,-13.691304,-13.770914,-14.142477,-14.872403,-15.057209,-15.083611,-15.54569,-15.712617,-17.066963,-16.417648,-16.381721,-16.523832,-18.020121,-19.162064,-18.842123
-8.3516836,-8.7570715,-9.1058359,-9.4012499,-9.7606544,-10.26493,-10.1053,-10.484784,-10.985221,-12.097312,-11.976721,-12.804907,-12.957634,-12.889816,-13.288499,-14.105253,-13.881754,-14.227909,-15.144123,-15.065376,-15.144912,-16.537241,-16.467344,-16.723095
-11.250034,-11.742048,-11.81388,-12.168152,-12.411115,-12.690668,-12.915213,-14.125931,-14.223139,-14.15787,-14.207816,-14.762824,-15.610686,-16.316929,-16.079891,-17.008282,-17.367331,-17.718029,-18.077454,-17.457277,-17.050686,-18.30246,-18.264856,-19.191685
-9.9684381,-10.435405,-10.835053,-10.720057,-11.08001,-11.990716,-11.544773,-11.817436,-12.896843,-12.754165,-13.462184,-14.528409,-14.29272,-14.158442,-14.775253,-15.421126,-15.64647,-15.940958,-16.012144,-15.846444,-16.138098,-16.770439,-17.825525,-17.406647
-6.16361,-6.4203963,-6.8757839,-7.4011021,-7.7783089,-7.9119964,-8.1572981,-8.6313858,-9.1059666,-8.8489876,-9.9579039,-10.018194,-9.8669672,-10.903036,-12.094828,-11.735705,-12.706453,-12.659298,-13.01243,-13.187799,-13.889873,-14.193159,-14.355184,-14.56708
2.9920654,2.6404433,2.2697375,1.8687886,1.4458507,.97155261,.62007868,-.097930297,.16118889,-.72825539,-.87237811,-1.4589471,-2.5046797,-2.2614512,-2.5145376,-3.3596988,-3.2156293,-4.5211225,-4.0615802,-5.3541632,-4.7880754,-5.7335873,-6.7878094,-6.6546926
-7.2902722,-7.6630502,-7.9964385,-8.5801764,-8.3703842,-8.9475813,-9.0485277,-9.9216967,-10.699882,-10.724227,-10.654429,-10.620644,-11.367111,-12.583335,-12.308017,-13.150084,-12.755751,-13.094454,-14.610374,-14.76311,-15.422977,-15.241689,-15.209333,-15.030795
-1.0861971,-1.5976822,-1.7247068,-2.2244186,-2.6648612,-3.1927223,-3.3702283,-4.4534168,-4.1658092,-4.2774887,-5.2223306,-5.7515812,-5.4125929,-6.1283841,-6.4385934,-6.2864051,-6.7631245,-7.6344066,-7.4833522,-8.934104,-10.016882,-9.5865049,-9.7144318,-9.5946093
-10.849835,-11.236808,-11.13684,-12.150157,-12.320179,-12.080444,-13.1742,-13.421595,-13.570194,-14.2092,-14.442007,-14.938933,-14.87737,-14.794344,-16.041122,-15.896861,-15.541486,-16.960331,-17.104067,-17.171654,-17.205324,-18.46571,-18.29203,-18.364202
-1.6001326,-2.1827595,-2.4409485,-3.0297644,-3.6784472,-3.5874975,-3.893378,-4.9391618,-4.9392319,-5.0584564,-5.7880645,-5.6993322,-6.6644468,-6.5709324,-6.6397419,-7.0475883,-7.3730831,-7.3667212,-8.8607168,-9.2473087,-9.097579,-9.3537312,-9.2610598,-10.199346
-23.486971,-23.836119,-23.882605,-24.247734,-24.467058,-24.958775,-25.031116,-25.03541,-25.977808,-25.491718,-25.558075,-26.530981,-26.882612,-26.781631,-27.449928,-27.741579,-28.60639,-28.688517,-28.055334,-28.581636,-29.97142,-29.477917,-30.788124,-31.390646
14.279282,14.141304,13.013839,12.944925,12.602332,11.585397,12.041744,10.865059,10.858821,9.2646999,10.049286,8.9221554,10.060508,7.8547564,8.6877632,7.9519558,7.8322191,7.1380525,6.7935767,7.2135835,6.3228998,4.5547433,4.6621771,5.4088459
1.3339698,.77338541,.42562813,.2974782,-.57062596,-.59445673,-1.6855521,-1.4554971,-1.2749139,-2.1558068,-3.6060536,-3.1550822,-3.9346979,-4.3446622,-3.8806531,-4.112308,-4.9910641,-6.0143709,-5.8925657,-5.7524147,-6.4420052,-7.8538456,-6.9702811,-8.0310526
11.551182,11.357791,10.084333,10.390764,9.7207193,8.4590788,8.6805658,8.9252348,7.9538736,7.5852909,7.3837729,6.7922406,6.027616,6.1574965,5.6724262,5.0983214,4.1055102,4.5106564,4.2421303,3.5244617,3.9069552,1.2763982,1.1432445,1.2207373
-.28184465,-.69780463,-.93411088,-1.3481268,-1.5473071,-2.167747,-2.8200169,-3.0607915,-3.2642865,-4.3980947,-4.6221771,-4.899559,-5.6089988,-5.0951843,-6.2030129,-6.9027667,-7.4106388,-6.7474265,-7.8323588,-7.9632854,-8.260354,-8.6324863,-9.774333,-8.9030609
-2.4284153,-2.6690662,-2.8198757,-3.5537872,-3.766803,-4.3883328,-4.5599437,-5.3924956,-4.9191766,-6.3612013,-6.6932783,-6.5512357,-7.0199742,-8.2911386,-8.1295156,-8.3743753,-8.4854975,-8.47645,-9.13624,-9.4758654,-9.5619249,-10.134041,-11.059084,-10.304493
.6523807,.2585319,-.12554102,-.33001217,-.7589761,-.86024481,-2.2354548,-1.6659684,-2.0037191,-3.0867178,-3.2277036,-3.6708338,-4.6154757,-4.8196259,-4.5135179,-5.1281233,-6.5449882,-6.2947826,-5.5865073,-6.5453806,-6.7454324,-7.7477484,-7.3508744,-8.531189
17.764299,17.273865,17.190611,16.498013,16.357943,15.371898,14.877107,14.831774,14.517983,14.650501,12.939942,13.012527,12.492924,10.84696,11.12421,11.879183,10.227723,9.510788,9.8277006,8.506216,9.2404575,9.4163294,8.0474596,8.2926664
3.6597867,3.1061227,2.7764628,2.6372504,2.047205,1.5193406,1.1319425,.77131891,.28125075,-.37189218,-.81206316,-1.000721,-1.4753972,-.95906484,-1.4292972,-1.611235,-2.1356013,-2.294096,-4.0942864,-3.9084427,-5.0247474,-4.8615313,-5.3142858,-5.8794432
1.6213264,1.0994009,.6323337,.38187125,-.3337563,-.10476238,-.89858162,-1.8693577,-.82084274,-1.9244028,-2.0113328,-2.2012072,-3.2245624,-3.4055512,-5.5680504,-4.7908335,-3.7221985,-4.5526605,-4.7546463,-6.2654181,-6.470542,-5.8709073,-6.2411594,-7.0207725
-5.3799672,-5.5815115,-5.5514922,-6.6169925,-6.4151626,-7.4023852,-7.4071121,-8.4475794,-8.505724,-8.5811758,-8.3154383,-8.6447001,-9.231966,-8.6733646,-10.338444,-10.161626,-9.7770939,-12.025953,-11.242806,-11.95139,-11.151716,-12.550448,-12.906867,-12.10832
-2.39745,-2.596112,-3.2075865,-3.8723574,-4.1367779,-4.5679555,-4.8175707,-5.2520022,-5.1882319,-6.5486479,-6.18718,-6.0516548,-6.9167747,-7.6277833,-7.622581,-7.9762177,-8.2123384,-8.5334568,-10.125121,-9.6969986,-9.279808,-10.494234,-10.791078,-10.120324
17.042591,16.477863,15.880494,15.829791,15.359349,14.429052,14.44986,13.141225,13.076956,12.685391,12.912601,11.797896,11.959095,11.109784,10.788726,9.7345018,9.8112087,9.1765966,10.029609,9.0223799,7.2698088,7.9130449,8.0763226,5.6893249
5.2928972,4.7403479,4.5690384,3.9060833,2.9661901,2.4631605,2.4691365,2.4802814,2.1116285,1.7025182,1.6205094,1.2822348,.44838461,-.62846959,-.094741143,-1.3221819,-1.5606438,-1.2432851,-2.0182271,-2.9663861,-3.2099934,-4.0825028,-2.7707293,-4.568922
-.02274045,-.48603797,-1.2838647,-1.0582237,-1.5032908,-2.1025374,-2.6661167,-2.3556857,-2.6603897,-3.1506815,-4.5395312,-4.6081452,-4.9052405,-5.1013951,-5.3904018,-5.7786517,-6.1499958,-6.1005893,-6.3325124,-6.9136729,-7.2134252,-8.0668459,-8.1599846,-9.2528028
-7.5695138,-7.7820187,-8.1201696,-8.2991638,-9.0616617,-9.10602,-9.6051979,-10.677669,-10.499301,-10.517436,-10.567737,-11.492576,-11.587655,-12.415827,-12.62588,-13.154208,-12.378661,-14.252867,-14.070084,-13.95932,-14.987692,-14.713898,-15.111309,-14.772594
8.1756287,7.6692948,7.3436856,6.912621,6.3717036,6.0911207,4.7648077,4.9823446,4.4235778,3.7446113,3.4601603,3.4640334,3.0385699,3.2528179,2.4998496,1.680706,.4670454,1.3685013,.13662349,-1.7516466,-.46256196,-1.5353981,-1.2472396,-.60551906
3.3723924,2.9500256,2.580164,2.3984551,1.5234845,1.7522491,.94181705,.74998105,.16866425,-.44388399,-.32178229,-1.3202623,-.7477783,-2.0081382,-2.4370162,-3.1820805,-3.3773718,-3.8257875,-4.661972,-5.0284166,-4.9809675,-5.3898077,-4.6536551,-6.2339082
.98798305,.68312663,.46580154,-.14082152,-.067820638,-.54367936,-.92241526,-1.5135138,-2.0705595,-2.2829959,-2.9605036,-3.1052458,-3.8839388,-3.3011131,-3.1354496,-4.0244551,-4.6720171,-5.8379531,-5.845397,-6.1751494,-6.6862812,-6.2275767,-7.7834458,-8.6437445
.99436021,.28536996,.15527123,-.026291082,-.68605781,-1.798214,-1.0880358,-1.0535996,-2.5315368,-1.5072218,-2.0908287,-3.1290452,-2.9148149,-4.1734996,-3.1091385,-4.6346402,-4.4550514,-4.5399437,-4.7684197,-5.1675663,-7.2919273,-5.2490458,-6.4515805,-7.4533548
11.581719,11.266238,10.161248,10.207424,9.8070726,9.2066708,9.4135017,7.8354001,8.5291443,8.2133255,8.249424,7.0413876,5.9471478,5.7129207,6.6119137,5.5596914,5.4343147,3.4085407,4.6278987,4.4821758,4.0134621,4.3655667,2.7079234,.62599403
2.8097637,2.050822,1.9389875,1.831813,1.3065553,.78411698,.043412276,.12702744,-1.0411649,-.48317403,-.76773995,-2.2959003,-2.1009934,-1.6482955,-3.4065311,-4.1407394,-2.6394162,-3.8569257,-5.0209026,-4.8713179,-5.7354841,-5.4448066,-5.8019695,-6.7828465
-.2444391,-.72207677,-1.1202495,-1.4030031,-1.4451767,-2.1812592,-2.239531,-2.6896598,-3.0970004,-4.4678693,-5.0392098,-4.4740467,-4.8926454,-5.3184776,-5.5407515,-7.030468,-6.4936013,-6.3691654,-7.1113253,-7.4190454,-8.4306002,-9.324173,-9.3647718,-8.3233557
3.6164024,3.4051995,2.6985898,2.6949179,1.670809,1.4054697,1.0407983,.67202634,-.36277446,-.029634587,-.98266321,-1.4497234,-1.2170359,-2.0571549,-2.7843859,-2.0183728,-2.5557318,-2.9408138,-4.0341902,-4.0272708,-5.3954577,-4.3778329,-4.6671743,-5.5161805
1.2072492,.77322596,.47667807,-.15579081,-.39016309,-.8425647,-1.1460108,-1.9782948,-2.5030003,-2.7781847,-3.2281539,-3.5723391,-4.3944721,-3.3908038,-4.2274919,-5.4365439,-3.9676163,-5.8078084,-5.7569923,-5.3346324,-6.6353493,-8.4683189,-7.6432509,-8.0364838
1.1594944,.83908069,.44780409,.1988844,-1.0951678,-.92319417,-.3029356,-.60897464,-1.9334121,-1.9626381,-3.2014372,-2.6945589,-3.255646,-3.0202372,-5.025228,-4.2476349,-4.3396878,-6.3546019,-6.8295069,-5.2723589,-7.1262217,-6.618207,-7.4852519,-7.0456305
-9.2352438,-9.8384447,-9.9252653,-10.413572,-10.909126,-10.920215,-11.438378,-11.228681,-12.066246,-13.026675,-12.941983,-13.276443,-14.053508,-14.013029,-14.009502,-14.447995,-14.67831,-15.320812,-15.721527,-16.226416,-16.115288,-16.001966,-16.716114,-16.501038
3.6562595,3.1829925,2.1966841,2.4867156,1.7483939,1.778129,.59386224,.84406894,.49747056,.27193773,-.86221564,-1.2286814,-1.3372786,-.85763937,-2.5258532,-3.1675718,-2.143539,-3.2957795,-3.9583776,-3.9488416,-5.3569603,-3.8120797,-4.4442577,-5.4057446
-4.2388124,-4.5968165,-4.8365026,-5.5571709,-5.7493639,-6.1227875,-7.3056688,-6.2362394,-6.6886578,-7.1374664,-8.0105391,-8.8214912,-8.9553776,-9.077795,-9.6458397,-9.776885,-10.955105,-10.501671,-10.77008,-10.781074,-11.373921,-12.037288,-12.698703,-12.513968
-9.2936764,-9.7118397,-9.8263903,-10.229977,-10.606186,-11.28711,-12.03315,-12.226281,-12.332536,-12.344206,-12.804855,-13.43959,-13.830523,-14.20665,-15.074268,-14.752334,-14.968905,-15.456442,-15.949183,-15.395548,-15.666931,-16.529465,-16.564196,-17.771574
-.12245974,-.59171623,-.86174554,-1.2251536,-1.9439957,-2.4605668,-2.3980932,-2.8542128,-3.6749153,-3.6925855,-4.5091004,-4.9493136,-5.1598296,-5.1865382,-5.3243995,-5.7063231,-6.5669622,-6.2169847,-7.3052511,-8.2143049,-7.6687341,-7.7461314,-8.168788,-9.3246756
-7.4644518,-7.7417564,-7.8897748,-8.2726526,-9.0920467,-9.8455381,-9.4271574,-9.9918213,-10.455971,-10.936652,-10.846889,-11.777781,-11.304769,-13.058223,-12.902227,-12.845872,-13.820473,-13.881141,-14.627709,-14.967527,-14.411267,-14.102307,-15.300249,-14.913158
-11.224437,-11.594761,-11.947983,-12.149549,-12.355269,-12.655387,-12.925016,-13.669747,-14.307961,-14.490791,-13.994333,-14.927101,-15.000686,-15.625955,-15.731965,-16.654572,-16.265671,-17.319998,-15.734174,-17.644426,-18.376907,-18.200846,-18.28039,-18.891768
7.1132832,6.6851559,6.1858974,6.1973653,6.0323482,4.5681257,4.9611497,4.7199664,3.799397,3.0550654,3.2505226,2.3675809,3.2011259,1.5943978,2.1278803,-.064072959,.49888653,-.4624761,-.2083737,-.84487206,-2.4558547,-3.0233662,-2.2665946,-1.7630252
-8.4232368,-8.8645086,-9.3698254,-9.4341125,-9.7296391,-10.317261,-10.352411,-10.692192,-11.61316,-11.740548,-11.780837,-12.321035,-13.260379,-13.04992,-13.421283,-13.67471,-14.240445,-14.668283,-14.932014,-15.05145,-16.667416,-16.781475,-15.2179,-16.781181
-11.640935,-11.835794,-12.369498,-12.613395,-13.427883,-13.198475,-13.734234,-14.031649,-14.156082,-14.606852,-14.943451,-15.499153,-15.292544,-15.931981,-16.304518,-16.659342,-17.389437,-17.511452,-17.977848,-18.397722,-18.050898,-18.602383,-19.586218,-19.534996
-1.2204591,-1.656872,-1.7176481,-2.4534569,-2.7532086,-3.7306995,-3.6229646,-3.8634899,-4.1522493,-3.9183483,-5.0725036,-5.3563242,-6.1266713,-6.4967079,-7.1205959,-6.7764859,-6.9835992,-8.8225222,-9.295537,-8.0296974,-8.7512798,-9.6424389,-9.1091738,-9.0569086
5.564683,4.9313483,4.8000364,4.5536604,3.7859988,3.2134068,3.1224439,2.4992895,2.3874266,.94118011,1.7282718,.8039906,1.3829302,.22332631,-.45075193,-.50162953,-.33671409,-1.9809102,-2.1908159,-2.9619505,-3.1525257,-2.7748656,-3.4127872,-4.8632021
3.7515745,3.4017601,2.8063641,2.6346691,2.3371396,1.3202742,1.7579056,.7508319,.45138305,.26538596,.17145765,-.086313613,-1.5203892,-2.238584,-2.4931321,-2.6220932,-4.1574512,-3.0828156,-4.3135328,-5.1609354,-4.624321,-5.0476274,-5.7189798,-6.1150107
6.6251464,6.1358333,5.7285919,5.2307143,4.6965613,4.6041169,4.6164694,4.0463638,2.4064691,2.7941065,3.197752,2.238694,1.1421134,1.8903735,.63446039,.10530553,.22502565,.54615682,-.75189745,-.47714317,-2.4565928,-2.7057443,-1.924188,-2.0239177
12.191001,11.594424,11.319228,10.668048,10.957617,10.366113,9.728796,9.4094944,8.5965767,8.8272753,8.1299582,7.5284615,6.7066402,6.3544974,6.5169554,6.5916457,5.3944569,4.5664444,5.7394075,4.9145041,3.5297732,2.4928598,1.5559404,2.8985872
-4.5380254,-4.7619829,-5.2801561,-5.6129508,-6.2034144,-6.6716251,-6.7029943,-7.390079,-7.674499,-8.2784109,-8.513135,-9.6331768,-9.0934591,-9.0084038,-9.5589323,-9.8571424,-10.81061,-11.655881,-11.516705,-10.976796,-12.204412,-13.474615,-13.978288,-13.469913
10.867054,10.352784,10.282791,9.1823492,8.8975067,9.075882,8.1279478,8.6026344,7.9982448,7.7005768,6.5808744,5.3377304,5.5914745,5.0735807,5.2409778,4.349957,4.5112472,2.9899628,2.4589815,4.0957193,1.903422,2.3370879,1.221301,1.2612777
-5.3742528,-5.918458,-6.5834284,-6.6005282,-7.0321059,-6.903204,-7.4695115,-8.0341358,-8.6374331,-8.5347586,-9.6784649,-9.9588919,-9.8189096,-9.4857359,-11.352098,-11.32387,-11.349916,-12.120855,-11.277769,-12.796943,-13.484712,-13.155617,-14.129401,-13.769476
.8562507,.46734762,.049068164,-.39003873,-.92036182,-.7737869,-1.3744571,-2.5459151,-2.3423452,-2.8580182,-3.1206331,-3.8099532,-4.4307628,-4.5160627,-4.8280444,-5.1306157,-5.2521839,-5.583972,-7.019485,-6.7605658,-6.9305644,-8.0016432,-7.5011954,-6.4624658
6.6847954,6.6847954,5.9873376,4.6439495,5.1037512,4.3357382,4.7016978,2.9000444,3.591763,3.9425313,3.9886961,2.7037184,2.0382378,2.3017731,1.58834,1.3043736,-.43470415,.72354716,.62403268,-1.315662,-.29535091,-.55015188,-.64793915,-3.5386338
3.0255733,2.6559718,1.9604869,1.7117803,1.7098918,.80067766,.44005325,-.065702483,.10744499,-.80774325,-1.5664605,-2.0930018,-2.15804,-2.4450147,-3.0092833,-3.659868,-4.1929946,-4.4511843,-4.2782612,-3.546411,-4.7138705,-5.0748835,-5.8969111,-6.7485967
-.61947781,-1.1889719,-1.4705138,-1.951112,-2.7871737,-2.8337674,-3.0466015,-3.6515877,-3.109411,-3.9405053,-4.4709282,-5.0825372,-4.5481629,-6.4167356,-5.8158388,-5.6452727,-6.0208449,-6.965673,-6.7784314,-6.6498828,-7.8077679,-8.4179602,-8.2314444,-8.8574705
1.8883764,1.4415766,1.00172,.67873853,.96855837,-.081990607,-.49427792,-.74681938,-1.4053901,-1.9766482,-2.3956933,-2.4731455,-2.2334397,-2.5308104,-3.2681878,-4.4085989,-5.8633223,-4.2512274,-4.9811144,-5.8069582,-6.8733773,-7.4779987,-6.839098,-6.9640141
6.9896436,6.6272774,6.1599302,5.7292104,5.4261117,4.4692321,5.1861978,4.2408571,3.0624757,3.8503532,2.728693,3.3017948,2.4765298,1.669323,.61823994,1.780105,.44472247,.58718467,1.4460357,-.71863919,-1.1116836,-1.7425454,-1.2607096,-1.9207766
-9.3537159,-9.763607,-9.8860445,-10.590074,-10.302831,-11.090377,-11.093937,-11.911155,-12.258885,-12.45893,-12.628147,-13.291162,-13.096207,-13.575768,-13.134323,-14.848747,-14.057223,-15.032367,-16.374588,-16.623272,-16.12608,-16.288782,-16.356907,-16.963133
16.206247,15.661554,15.478564,14.861668,14.883412,13.131873,13.403852,12.267198,11.639008,11.609767,12.497978,11.417583,10.302095,9.6757421,10.141559,9.7178707,8.7867556,8.3355474,7.3879423,7.3493223,7.4294114,5.5190039,5.8266697,6.2913747
7.1918559,6.8522363,6.1920323,6.0552015,5.6768341,5.0275846,4.9840522,4.2843561,3.9627583,3.6282003,2.8561075,2.3430109,2.1861584,1.4604278,.73553556,.83029127,.40732509,.11555115,-1.6804698,-1.5092843,-1.5960088,-1.6412643,-1.541533,-3.7931929
4.7580166,4.5229082,3.9367936,3.5346937,2.9960737,2.3205013,2.5203803,1.9767423,2.0494688,1.2164073,.68027902,-.12222365,-.74640942,-.16323376,-.45306584,-1.9201416,-1.4885265,-2.9021132,-2.4490857,-2.9055493,-4.3929639,-4.4209819,-3.5254431,-5.1453543
8.4236631,7.7972193,7.5351434,7.4095106,6.9625516,6.3753033,6.113904,5.4760242,4.5376134,4.7306995,3.4124997,3.6298685,3.4327669,2.7540157,2.5057292,2.6383662,1.4397773,2.3331597,.39863521,.2238826,-.1761992,-1.3338016,.059727821,-1.3107412
-14.497403,-14.678443,-15.573438,-15.334495,-15.78645,-16.22101,-16.105518,-17.004381,-17.733482,-17.927134,-18.106028,-17.646984,-18.351496,-18.366142,-18.88216,-19.434338,-20.194159,-19.675066,-20.579407,-20.948908,-21.763153,-20.64986,-22.299435,-22.432169
-7.6355557,-8.1390162,-8.1553707,-8.6964321,-9.5302677,-9.055644,-9.8837843,-10.28608,-10.322543,-10.962864,-11.634474,-11.350451,-12.248651,-12.936116,-12.707603,-13.29274,-13.078967,-14.091351,-14.808505,-14.024934,-14.941668,-15.333419,-15.605412,-15.428547
-6.081758,-6.3846736,-6.8630986,-7.119606,-7.594327,-7.6112695,-8.5850925,-8.5975494,-8.8973522,-8.7045612,-10.195429,-10.032236,-10.899114,-10.391984,-11.396325,-11.947767,-12.315578,-13.491128,-12.823288,-13.787785,-14.729828,-14.923934,-14.02408,-13.924316
1.9215367,1.4558998,1.0451903,.89278466,.39013374,-.063453488,-.54604673,-1.0275609,-1.8752378,-1.3409402,-1.8087323,-2.5497017,-2.923378,-3.5758047,-4.472393,-4.3342323,-3.7097309,-5.0106182,-6.7373486,-5.0000935,-6.3421617,-5.6096091,-6.5484929,-7.9157929
-1.2739682,-1.5549265,-2.1078339,-2.4936228,-2.6656222,-3.0405588,-3.655257,-4.128365,-3.6391358,-4.7250419,-5.0181484,-5.9245739,-5.4166889,-5.6731791,-6.3620944,-7.4309707,-7.0883465,-7.6207504,-9.356019,-7.4802375,-8.5897217,-9.1436348,-10.410034,-9.5873966
.09196949,-.22831306,-1.0313814,-1.1016369,-1.6061062,-1.8569483,-2.3417001,-2.8829734,-2.8768001,-3.199451,-3.6822186,-4.368391,-4.2699037,-5.2644982,-4.6533165,-6.2164578,-5.7533689,-7.31951,-7.8407521,-7.2910681,-6.8558908,-8.3831358,-8.2098932,-9.1879349
8.5285883,7.99088,7.4569454,7.18928,6.9702225,6.4598107,5.4502397,4.9383464,4.5983682,5.5998216,4.4264808,3.4446983,3.084105,3.1640086,2.857537,1.723649,.87462318,1.2993273,.42077217,.71433318,-.71707684,-2.0162041,-1.3480231,-2.867177
-6.2488427,-6.4617534,-6.8789201,-7.4697175,-7.7241278,-7.8681831,-7.771349,-8.8777246,-9.2182932,-10.041145,-11.079447,-10.393602,-11.285499,-11.324885,-10.75481,-11.284292,-12.109267,-12.727716,-12.608865,-12.832292,-13.629769,-14.338848,-13.916851,-14.183255
2.6668088,2.4129565,1.9621766,1.7272232,.88818079,.61009443,.75355148,-.66765183,-.75931901,-.49802476,-.69417566,-1.9071734,-2.053781,-2.8258924,-2.1468754,-2.9282966,-4.1701312,-3.6852851,-4.2210069,-5.6518469,-5.9751415,-6.016212,-6.2341857,-6.7684722
-7.4122086,-7.6092706,-8.1092186,-8.2882299,-8.7324371,-8.7522373,-9.5730572,-9.9328842,-10.272853,-9.9741898,-11.269433,-11.283126,-11.448682,-12.441503,-12.288101,-12.342751,-12.881547,-13.011652,-13.515849,-14.457882,-15.303812,-14.603665,-15.182319,-15.145555
-11.117381,-11.411042,-11.480372,-11.763161,-12.099947,-13.195027,-13.561966,-13.46701,-14.016026,-14.93099,-14.74308,-13.643963,-14.928575,-15.353494,-16.096115,-16.165222,-17.099466,-16.475727,-17.160805,-16.850544,-18.098886,-18.086489,-17.555767,-18.820993
6.7506456,6.6316323,5.7473722,5.3396025,5.2990866,4.6959782,4.4903002,3.3940089,3.8089273,2.7576344,2.5911808,1.9063281,1.090127,1.1217747,1.1381123,.99684674,.096956208,.079467244,-1.0431565,-.60261232,-2.8097618,-2.0736618,-3.7362559,-3.142936
-5.01548,-5.3641028,-5.6594896,-5.9127698,-6.7974057,-6.4868269,-7.2853703,-6.7927294,-8.8255072,-8.4990206,-8.7427197,-8.9660168,-9.8524113,-9.50529,-10.168801,-10.829141,-11.098595,-11.419199,-10.863723,-11.662343,-11.825603,-12.181013,-13.434205,-13.213207
-9.2685528,-9.5707054,-9.9815826,-10.461793,-10.792211,-11.01353,-11.151292,-12.471558,-11.835124,-12.060585,-12.274422,-13.314542,-13.663737,-14.689779,-14.471102,-14.536929,-15.040625,-15.739541,-15.212629,-16.32478,-15.957408,-16.492254,-16.708992,-17.707066
.22500494,-.056858487,-.75041831,-.95633167,-1.5568852,-1.5215383,-2.6950974,-2.1259613,-2.9864452,-3.4061401,-3.6916273,-3.7340739,-4.446919,-5.8511038,-6.0632787,-4.6586332,-6.8788338,-5.7969356,-6.6710806,-6.7060108,-8.0419912,-8.1205893,-8.5341635,-7.6722298
3.8849933,3.5121155,3.0657341,2.6571822,1.5939984,1.990872,1.1577284,1.0692209,.83487588,-.044604212,-.11535401,-.82834375,-.39452583,-.99392432,-2.1655731,-1.9524498,-2.4004412,-3.2609565,-4.3904734,-3.3056414,-4.3176951,-4.5820704,-5.9279847,-5.5113535
-2.029218,-2.324048,-2.7870936,-3.4946742,-3.3648958,-3.81459,-4.2935357,-4.4807625,-4.8615007,-5.2370639,-6.0770903,-5.8902369,-6.1927404,-6.2855978,-6.7885828,-8.3043213,-8.3525877,-8.31458,-9.3994398,-9.6950703,-9.3233442,-10.784133,-10.445168,-11.624985
-1.6256469,-2.2046509,-2.3986375,-2.8200614,-2.9935858,-3.5266445,-3.7887738,-4.331573,-4.2739367,-4.9251146,-3.8947787,-5.6516604,-5.8086247,-6.376853,-6.1456203,-6.5937157,-8.1998367,-8.520731,-9.0258942,-8.2403593,-8.7835312,-10.190558,-10.128238,-10.504212
-8.3673,-8.7160406,-9.0406246,-9.5067129,-9.705596,-10.40798,-10.222773,-10.8851,-11.118559,-11.666986,-12.256187,-11.788462,-13.079622,-12.901971,-13.686559,-13.068936,-13.914448,-14.521011,-15.442048,-16.295702,-15.283323,-16.575991,-15.560513,-16.894529
-1.0549831,-1.3868037,-2.1010575,-2.3743598,-2.258918,-3.1531005,-3.5402625,-4.0983548,-3.4410183,-3.9317894,-4.2110043,-4.4891305,-4.6231246,-5.4413729,-5.5970254,-7.2594619,-6.2198472,-8.326293,-8.0693331,-8.5849094,-9.2124929,-8.4435711,-9.3924551,-10.451593
2.462266,2.0033236,1.0223801,.88369268,.65177703,.32324332,.12089575,-.54163671,-1.313848,-1.1438107,-1.7714721,-2.0711381,-2.1605411,-2.7589185,-3.2498994,-3.5931008,-4.0698409,-4.115098,-4.882895,-5.1200995,-6.1333995,-6.2129993,-5.6832266,-5.9915018
-3.9864326,-4.6615887,-5.1631021,-4.9924397,-5.5217433,-5.7488055,-6.0895963,-7.0504317,-6.8911138,-6.334507,-8.8143911,-7.5352297,-8.4603949,-8.0695667,-8.445797,-8.9909191,-10.300664,-10.288363,-10.671594,-10.557483,-11.500309,-11.189325,-12.48198,-12.208725
-2.9551988,-3.2673888,-3.8522797,-4.0062704,-4.717629,-4.6563778,-5.383337,-5.1557055,-6.0463667,-6.3747668,-6.4859896,-7.7021365,-7.6305776,-8.1478806,-8.7641792,-8.1772833,-9.6169615,-10.077994,-9.1893482,-10.967764,-12.115134,-11.471824,-10.892013,-12.406872
-5.7035594,-6.1132708,-6.2817197,-7.272893,-7.0837026,-7.3935475,-7.9846416,-8.9075737,-8.3359108,-8.6805201,-8.6929798,-9.8886538,-10.345217,-9.8869104,-11.609596,-10.955571,-11.978845,-11.692709,-11.506345,-12.579353,-12.579519,-12.942875,-13.881495,-13.797106
-3.9074354,-4.2267885,-4.6907182,-4.7593765,-5.1790776,-6.40657,-6.3359103,-6.9805017,-6.8356175,-7.0125136,-7.5074849,-8.787755,-8.4547138,-8.7335091,-9.8688269,-9.466897,-10.138813,-11.573356,-10.684402,-10.350616,-10.98195,-11.810777,-10.857156,-12.993006
-10.117348,-10.370691,-10.74549,-11.19031,-11.458827,-11.39525,-12.221653,-11.997481,-13.058277,-12.699676,-12.894016,-13.072585,-14.30868,-14.361951,-15.092821,-16.327118,-15.210796,-15.755017,-15.984224,-17.168287,-17.559618,-17.946468,-18.301764,-18.892963
-.62589324,-.97101152,-1.4686683,-1.5883958,-2.1653857,-2.6747022,-2.9222579,-3.543555,-3.8699534,-3.7934659,-4.3026447,-4.4269295,-5.2429776,-5.8158755,-5.6890407,-7.1724062,-6.7241907,-7.3085408,-7.9827714,-8.4083195,-8.2321568,-9.7531414,-8.8067579,-10.396485
5.8997107,5.3065009,4.9214063,4.6600981,4.1954799,3.5741687,3.2866683,3.2777171,2.7565756,1.7657018,1.3775738,1.1190429,1.1633993,.0092192618,.019917073,-.78312272,-.46307045,-.96746153,-1.0190938,-1.5724602,-3.4420855,-3.9795358,-3.7125063,-3.4525733
2.202348,1.7650446,1.4430041,1.0078753,.97501332,.43207222,-.2141992,-.52348286,-.80864573,-1.4209064,-1.3183607,-2.094769,-2.7045057,-2.7656078,-2.9404297,-3.760097,-3.826005,-4.8830395,-4.4085894,-5.1100321,-5.1548386,-5.144825,-6.7481823,-6.9791555
10.40233,10.062523,9.7007418,9.3743734,8.7386246,7.9594889,8.1228151,6.9220409,6.9623437,6.3207707,5.9104481,4.7175341,5.635746,4.1964693,3.757623,3.1137259,3.3571694,2.2262838,1.2982764,1.8418741,2.6713035,2.5534332,.083380148,.16655007
-12.765903,-13.019113,-13.567287,-13.797091,-13.896135,-14.1493,-14.827393,-14.852088,-15.871106,-15.637438,-16.264694,-16.675304,-16.590464,-17.493473,-16.948174,-17.929182,-17.963535,-19.208447,-18.181278,-18.601694,-19.814983,-19.103855,-20.576931,-20.154665
6.3559475,5.9675994,5.6546597,5.3035946,4.7128868,3.7171481,4.0355835,3.1913178,3.0904143,1.9240843,2.569943,1.28269,1.3175018,.90607047,.68247408,.31769294,-1.5389946,-1.2459093,-1.9278613,-1.3796493,-1.4005835,-3.0368519,-3.1233914,-3.5763266
-13.448709,-13.840355,-14.232193,-14.337646,-15.142078,-15.360018,-15.767111,-15.395269,-16.088461,-16.702925,-17.388203,-17.075512,-17.776245,-17.372143,-17.731808,-18.877705,-19.01893,-19.096762,-19.031809,-20.089651,-20.341572,-21.16341,-19.985342,-20.335953
1.2284858,.77924097,.41522798,.22733256,-.36780572,-1.0797675,-1.181908,-1.8090284,-2.0095198,-3.1875741,-2.570292,-2.601712,-3.6207979,-4.3000321,-4.4540129,-4.4674196,-5.2750988,-4.5754557,-5.6201601,-6.7596951,-7.2114043,-7.2507596,-6.2163844,-7.1458888
10.753107,10.529965,9.4828663,9.2669373,9.0180597,8.8431911,7.8972201,7.4386964,6.9776769,6.9517107,6.2559371,5.2819552,4.6930618,4.9611382,4.9857802,3.8430843,4.1947618,3.3588958,2.7351971,2.4567022,1.0847785,2.2512162,1.1149427,.093143716
-2.2541857,-2.5092738,-2.747705,-3.96736,-3.8928609,-4.1361699,-4.7819109,-5.305109,-5.7200093,-6.5715852,-6.1815248,-7.2496343,-7.0988512,-7.3267341,-7.7997842,-7.8173528,-8.9087572,-8.6873446,-9.7285242,-8.7976494,-10.35943,-9.2118635,-11.508189,-10.910516
3.2693112,3.0153203,2.2341368,1.9973701,1.5676273,1.2553275,.58415425,.71613163,.051084723,.15258981,-.25392279,-1.076578,-1.0961787,-1.3054999,-2.1214719,-3.0902357,-2.8054779,-3.0057559,-3.6945913,-3.286026,-6.0247054,-4.4760141,-4.9011984,-6.0080185
-11.308552,-11.492306,-12.077216,-12.492363,-12.500674,-12.919237,-13.044202,-13.140656,-13.658161,-14.158694,-14.88917,-15.687876,-15.325186,-15.14831,-16.435057,-16.94236,-16.890003,-17.157209,-17.884668,-18.340561,-18.058121,-18.700762,-19.606508,-17.907906
-8.5958672,-9.2163954,-9.4038124,-9.5046768,-10.4398,-9.9965248,-10.907653,-10.868643,-11.584831,-11.734823,-12.408757,-12.4607,-12.909178,-13.249331,-13.498161,-14.085258,-14.629333,-14.472936,-15.588247,-15.591875,-16.378958,-16.402294,-16.563499,-16.661367
-4.4873376,-4.9339209,-5.1723542,-6.2819662,-5.6766658,-6.3743439,-6.0189228,-6.9777122,-7.4197764,-7.6625147,-7.5522509,-8.3039331,-9.1125708,-8.9428577,-8.3208275,-9.7116556,-9.5396528,-10.43083,-10.78906,-10.622533,-12.874351,-10.947652,-13.356229,-11.674629
-4.3724737,-4.7023401,-5.12183,-5.1920166,-6.092205,-6.3693104,-7.0596151,-6.183526,-7.3056316,-7.7580247,-8.168685,-8.4928608,-9.3517275,-9.7667665,-8.8458776,-9.3722677,-10.360088,-10.721948,-10.041306,-11.416886,-11.946225,-11.613489,-12.531606,-13.301849
-1.9128247,-2.4288342,-3.0799127,-2.7656333,-3.294364,-3.2415905,-4.0209746,-5.1132741,-5.7154803,-4.797647,-6.0988412,-7.2964692,-6.7424049,-6.9579568,-8.2505846,-7.0460706,-8.3036108,-8.5187263,-8.6338015,-10.052491,-9.2128468,-8.9614162,-8.6543303,-11.066433
-4.7745686,-5.060854,-5.7565637,-5.7930436,-5.905026,-6.9605622,-6.8013563,-7.0173912,-7.4151053,-7.8638778,-8.0480986,-9.0352707,-10.263603,-9.5295582,-10.792929,-9.8988409,-11.003934,-10.878309,-11.065918,-10.733709,-12.522367,-12.342574,-13.182598,-13.970081
.31078047,-.26150757,-.76130652,-1.1090509,-.95485657,-1.2864491,-1.7723678,-2.2906199,-3.0970778,-3.7294648,-3.5679786,-4.6573386,-3.7089362,-4.5049887,-4.1525359,-6.0148778,-6.3942299,-5.9920774,-6.3832707,-6.7981644,-6.5370407,-7.6462016,-7.6429996,-7.9056926
5.5642028,5.12816,4.9723163,4.2619872,3.2892625,4.1388893,3.5953112,3.2071149,2.4711668,2.0134776,.98795849,1.2144405,1.3541124,.18706003,-.47164235,-1.0520595,-1.0598385,-1.6871811,-1.9601076,-1.218536,-2.6483188,-3.0019648,-2.5673347,-2.7762384
-2.3137708,-2.644814,-2.932929,-3.4078414,-4.0624261,-4.4859242,-4.7050514,-5.586556,-4.9345098,-5.6496267,-5.9424376,-7.0086751,-7.0355964,-8.0410013,-8.2337952,-9.5365438,-8.4600801,-9.4271135,-9.4018602,-9.0888805,-9.2799549,-9.6350765,-11.917217,-10.912221
6.1784015,6.1117449,5.1165538,4.6356311,3.8420248,4.1401424,3.9231858,3.8092768,3.2322462,1.975144,2.5971406,2.7171888,1.1341118,1.4496654,1.2208146,-.8086533,-.83403784,.3413834,.19523384,-1.4783052,-1.224824,-3.0409594,-2.5518634,-2.0299942
3.8883579,3.6090572,2.9390118,2.6430578,2.2851989,1.6907594,1.2848843,.82594895,.50498253,1.041036,.077139109,-.24212265,-.74551004,-1.8838603,-1.7169334,-2.4821367,-2.0531154,-3.103909,-3.1206791,-3.9959114,-3.0783758,-4.4424639,-5.0745368,-7.2489009
2.491524,1.9542816,1.7037438,1.9074262,.97389662,.75612551,-.3121013,-.24516006,-.33705109,-2.1791773,-.82218832,-1.6400597,-2.6521366,-2.8969131,-2.9006031,-3.7234964,-3.7683196,-4.5260124,-4.860395,-5.4332519,-6.2212515,-5.7010889,-5.7337322,-5.6084657
8.0108519,7.7362018,7.216002,6.5683661,6.6298714,5.9989648,4.9526811,4.625618,5.2308016,4.8562627,4.0163169,3.9013555,3.0016856,1.783722,2.7977064,2.4092708,1.3841126,1.370224,-.11862543,.83563316,-1.0897788,-.19225815,-.59305519,-.90552479
-.824018,-1.1096728,-1.5501523,-1.9361107,-2.5679824,-3.0272906,-2.7336605,-3.6436441,-3.6657751,-3.8017626,-4.6955338,-5.4239497,-5.5642233,-5.1738753,-5.6006346,-6.822577,-6.8667417,-6.5374589,-8.4761591,-7.1173825,-8.4610291,-8.3051596,-9.7719479,-8.9340525
-2.383215,-2.6147578,-3.5979476,-3.5052111,-3.8565092,-4.3128643,-4.752408,-4.6968102,-6.1659474,-5.3366985,-6.9722486,-6.8444963,-7.176548,-7.2273493,-7.9472156,-8.2856951,-8.7383547,-8.7289066,-9.8927965,-10.153483,-10.010385,-10.800655,-10.978469,-10.93574
12.126889,11.764289,11.359755,11.013976,10.420581,9.3321142,9.62988,9.4345207,8.0254927,8.3208647,7.6869216,6.8922844,7.1602774,6.5567455,6.5472989,5.0493741,6.038053,4.9221435,4.0422387,3.4450808,3.2315769,3.3564348,2.447351,1.2087706
-8.0107317,-8.3122101,-8.8977976,-8.9802513,-8.9233046,-10.045687,-9.8966293,-10.666712,-10.16048,-10.806689,-11.757683,-12.150288,-12.556053,-13.117398,-12.475459,-13.038102,-14.040806,-14.412941,-14.929914,-15.418971,-14.966664,-15.21197,-15.765502,-17.199495
-.67286336,-.9705776,-1.2972324,-1.3678297,-2.1656227,-2.75085,-3.046993,-4.0130205,-4.015727,-3.8258483,-4.3976235,-5.1900845,-4.7601862,-5.8175993,-5.3615499,-5.8312445,-6.4733391,-5.7663326,-7.6232586,-8.0164251,-7.2322073,-8.7643614,-10.054479,-10.537452
-1.4178984,-1.7593954,-2.1036217,-2.6021118,-3.0161414,-3.2565145,-3.5919919,-4.6887069,-4.5140409,-3.8654151,-5.0450482,-5.1939669,-5.4023089,-6.3390708,-6.0420461,-6.8331885,-7.0734406,-7.7907038,-7.1224842,-8.9290667,-8.5671864,-9.8318291,-9.645256,-10.132943
-12.473419,-12.847193,-13.297167,-13.149055,-14.035173,-14.168013,-14.995452,-14.893575,-15.034487,-15.220003,-15.701797,-16.235905,-16.258953,-16.982285,-17.303204,-17.135172,-16.990522,-18.114267,-19.061125,-18.774244,-19.798899,-18.966827,-19.284658,-20.160036
7.7302914,7.2603388,6.9609876,6.4943576,5.7162509,6.1904769,5.6391644,4.9822731,4.1356516,4.3910742,3.7190845,3.2168739,3.1142991,2.431406,2.4422405,1.8755177,2.2601521,.99324208,-1.2598093,-.18064943,.76156646,-1.1031609,-1.6207248,-2.4234145
14.827939,14.562217,14.264398,13.539197,13.840026,13.467669,12.503624,11.990953,10.558732,10.996764,11.211377,10.844268,8.0997305,8.761157,9.0264578,8.7393208,8.180872,5.5978565,6.7843313,7.6764359,5.7377949,6.675292,6.2065334,4.0180779
-.88617826,-1.3278052,-2.0167863,-1.9826552,-2.6475606,-2.563081,-3.4772005,-4.0123558,-3.3510587,-4.1621041,-4.649189,-5.5459723,-4.8644881,-5.4516134,-5.7779951,-6.6515779,-5.9498377,-7.4215198,-7.2193193,-7.1958914,-8.5032139,-7.906261,-9.0802011,-8.7633934
-7.9587731,-8.4011555,-8.8912983,-9.4565954,-9.5580082,-10.297881,-10.31069,-10.033885,-10.41803,-11.380273,-11.954885,-12.105758,-12.520577,-11.993886,-13.181381,-12.960789,-13.532769,-13.841369,-14.414084,-13.645637,-14.077338,-14.380355,-16.771519,-16.449057
2.1136525,1.5013379,1.4620397,.60980052,1.153039,.98976576,-.20983748,-.57866043,-.47087863,-1.6092274,-2.2636588,-1.8331858,-2.3536894,-2.8425303,-3.4531238,-3.3589485,-4.2893605,-3.9813685,-4.1292553,-6.3257098,-5.9198265,-6.5439167,-6.09586,-7.0604033
-2.9550757,-3.3674533,-3.6036768,-4.5227156,-4.7176514,-5.0819502,-5.5398898,-5.2307725,-6.0701866,-6.7018251,-6.6964679,-7.1881933,-7.9013243,-7.603415,-7.7805996,-8.8149147,-8.6799002,-9.2604742,-9.599844,-10.195262,-10.469338,-11.063607,-11.866961,-11.196644
6.2284231,5.7892399,5.5953932,5.1554718,4.7454119,4.0659809,3.200331,3.283201,2.5117033,2.1108963,2.6017137,1.2944787,1.475125,.051829729,.55708015,.45267403,-.6654439,-.0026813177,-2.737118,-1.6415801,-2.3422735,-2.1550739,-3.0250056,-3.9216011
4.6493378,4.3790722,3.6116946,3.3258858,3.0264285,2.7469656,1.6269648,2.0596013,1.1621795,.49350515,.6838513,.72003347,.15365809,-1.072965,-.81359535,-1.3555406,-3.0391808,-1.2485739,-1.8888613,-3.3863182,-3.311456,-4.1123548,-5.4328313,-5.1055074
-.17660993,-.60291409,-.82006818,-.87229335,-1.9987763,-2.0167572,-2.9669406,-2.4805589,-3.3202748,-3.9097223,-3.5626316,-4.8453236,-5.1759958,-5.7105155,-5.6656942,-5.781219,-6.5147138,-6.6875267,-6.3887591,-7.7333155,-7.6083317,-6.9090648,-8.3376369,-9.5380535
-8.4549103,-8.7524261,-9.120986,-9.7595816,-10.060934,-10.170391,-11.144206,-10.810712,-11.789795,-11.758638,-12.280399,-12.62689,-12.625712,-13.077658,-13.561754,-14.645022,-14.482652,-14.740134,-15.391142,-16.258226,-15.770534,-16.948027,-15.202046,-16.510794
8.9344912,8.342329,8.1828346,7.673161,7.2775178,6.6041255,6.1125817,5.2960854,4.0158033,5.0171981,4.5291533,4.2333918,4.2242813,3.5653501,3.8451512,3.2159035,1.8978596,1.6884601,1.5072809,1.6230938,.66569728,.17439087,.57244033,-.25168574
-.60240757,-.86687946,-1.4398155,-1.4311236,-1.9887388,-2.9816413,-2.583288,-2.7225101,-3.4951758,-4.0415072,-4.8900161,-4.9281263,-5.2921643,-5.1417232,-5.7316175,-7.4513621,-6.7747083,-5.8059287,-7.0880365,-7.482121,-9.1079798,-8.7431965,-9.4632511,-9.9724522
-6.5134497,-6.6091762,-7.3051639,-7.5106096,-8.1020164,-8.4243231,-9.0609236,-9.5095148,-8.9752264,-9.7807083,-10.286496,-11.351402,-10.179349,-11.409569,-10.535111,-11.615959,-12.286283,-12.392148,-11.919288,-13.480134,-13.115772,-14.197397,-15.297762,-15.162129
5.9418893,5.4421868,5.1250362,4.8655701,4.6371469,4.3152905,3.6146679,2.9399168,2.7496588,2.3358326,1.9048448,1.7981184,.88389874,1.0942208,-.044006482,.20577735,-.69060367,-.090134576,-1.4949539,-2.1513915,-2.2821279,-2.9300241,-2.4874268,-2.6522696
-3.9923005,-4.4486761,-4.4872227,-4.921627,-5.3646798,-5.5445762,-6.2051978,-6.9114647,-7.5108142,-7.4953523,-8.2558947,-7.6929712,-8.4709959,-8.6923027,-9.3856583,-10.019579,-10.526772,-11.109996,-10.999651,-10.870084,-11.36257,-11.359925,-13.190414,-12.219766
-10.089672,-10.633628,-10.870452,-10.862084,-11.864385,-11.648155,-11.827605,-12.450649,-13.134488,-12.857294,-13.686297,-13.478614,-13.91708,-14.243215,-15.158892,-16.017601,-15.498059,-15.898206,-16.878307,-17.258959,-17.647736,-18.174044,-18.163027,-18.510971
-.30518195,-.81165993,-.96794772,-1.4942529,-2.2962322,-1.9606576,-2.6971436,-3.034251,-3.4688866,-4.0220647,-4.167222,-4.8566031,-4.2632098,-4.4801526,-5.6956625,-6.452291,-6.7998075,-7.0179596,-7.596118,-7.6266918,-8.1912212,-7.9356961,-7.7584443,-8.6009197
.96938574,.77309513,.27526706,-.27000177,-.46042377,-.79608667,-1.2889137,-.7125299,-2.1498995,-3.2251325,-3.0857062,-3.7883639,-3.4753039,-3.8646691,-4.3455591,-4.0614824,-4.3274159,-7.3553543,-5.7291341,-6.2443147,-7.6583743,-7.0591087,-7.7106032,-9.0807467
4.2889371,3.9920306,3.5521455,3.4182339,2.9422841,2.3351059,1.7628225,1.6526122,1.1470006,.41266823,.22094522,.20201834,-.25006074,-.51154929,-1.0184522,-1.7552773,-1.6996679,-1.8867344,-2.9179041,-3.7046399,-4.8198838,-3.1859994,-4.908103,-5.5184703
8.1134357,7.7811937,7.5485849,7.1303744,6.5121236,5.8196797,5.2544227,4.7267399,4.5879407,4.1788025,3.2772288,2.7473536,3.3260708,2.0284257,2.7396491,1.8274388,1.2641886,1.8619845,-.17882012,1.5164424,-1.4987053,-.2919994,-1.0235157,-1.481223
-6.8077703,-7.0664368,-7.1390662,-7.4456859,-7.8826351,-9.1417046,-8.9801836,-9.3344011,-9.6028538,-10.59234,-10.5048,-10.430575,-11.6811,-11.679521,-11.838923,-12.818548,-12.237668,-12.785437,-14.226818,-14.037924,-13.91995,-14.965071,-14.523257,-15.381151
-9.8966169,-10.215015,-10.505342,-11.197717,-11.672901,-11.654999,-12.10131,-12.91577,-12.730764,-12.968497,-13.259115,-14.495986,-13.973372,-14.798576,-15.284651,-15.505815,-15.72798,-15.725339,-15.906201,-17.196333,-17.426569,-18.084381,-17.758732,-17.934011
1.9834038,1.719062,1.2939658,1.0417147,.42581674,.16008835,-.45193303,-.75482565,-.63263625,-1.1687669,-1.4753237,-2.4336212,-2.3127759,-2.8558829,-3.1213055,-3.2625332,-5.4190979,-4.0162449,-6.11691,-5.1193218,-5.6856718,-6.7258258,-7.1254487,-7.8836498
1.9916588,1.5004441,1.2076654,.66166949,.25574178,-.5424329,-.46759742,-.98357671,-1.0093329,-1.2219025,-1.6956061,-2.792712,-2.7424159,-3.2487693,-4.5027347,-4.1525249,-5.2735286,-3.7151952,-5.5716043,-5.4592714,-5.9644146,-5.9210386,-7.0985909,-7.6138372
3.252727,2.7619832,2.5779338,1.5613619,1.7961335,.91520089,.64137226,1.2695216,.082844652,-.89072871,.066602126,-.73093623,-1.8661728,-2.1244991,-.91683763,-2.6944945,-2.872467,-2.6121037,-3.1843836,-3.1133564,-3.3476307,-3.6072431,-4.8802071,-5.4393148
-1.6501611,-2.0330422,-2.2047317,-2.3184435,-3.6274817,-3.5899267,-4.0007715,-4.7577648,-4.8131871,-5.0961938,-5.7077575,-6.3277364,-5.6613708,-7.5236001,-6.8927388,-7.5654449,-8.1808901,-7.6973228,-9.0510511,-8.8660421,-9.4612226,-9.3056126,-9.9318113,-9.9751987
-5.4479928,-5.5263853,-6.0818577,-6.3773575,-7.1312003,-7.3158026,-8.0194035,-7.9135613,-8.2510738,-8.3925943,-9.950201,-9.83078,-10.324317,-9.9031277,-9.9545078,-11.713203,-12.557882,-12.089859,-11.383404,-12.223543,-12.764567,-13.439767,-13.694361,-13.965774
1.0011077,.56696713,.21691349,.0614633,-.17928976,-1.3539666,-1.0299385,-1.4846658,-2.0019298,-3.0151193,-2.7608428,-3.2900522,-4.1928062,-4.4335327,-4.8769026,-5.7139988,-5.1482344,-6.2668781,-5.953136,-6.2595849,-6.6242685,-7.244596,-8.0969219,-7.4897523
-6.8986831,-7.443202,-7.7079949,-8.1276608,-8.0196085,-8.5738087,-9.3859072,-10.071479,-9.3776245,-9.4506321,-10.444878,-9.9583817,-11.407272,-10.12857,-12.315939,-12.140541,-12.147846,-12.489409,-12.943569,-13.396787,-14.267803,-13.272112,-14.296076,-14.362549
11.253328,10.871446,10.566378,9.9757557,9.3530025,9.1996384,7.688189,7.9069753,8.080904,7.5742068,6.9452457,6.2722502,5.0715714,5.3868752,6.3820844,4.4682713,3.253113,4.5756297,3.3053184,2.3729663,2.9175842,3.0761876,.50542164,-.020965952
-5.9064913,-6.3579483,-6.6442661,-7.2176638,-7.3133039,-7.2628531,-8.2115641,-8.6266346,-8.6996059,-9.6470928,-9.9220791,-10.09514,-10.947725,-10.78469,-11.814049,-11.45147,-12.276831,-12.832087,-13.456063,-13.396152,-14.001678,-13.494442,-14.065755,-14.074203
-1.3592284,-1.9366999,-2.2931497,-2.5270791,-2.6918139,-3.1374366,-3.480336,-3.5066996,-4.9004707,-4.8962326,-5.3820796,-6.3630571,-5.9229884,-7.1592689,-7.1650796,-6.9392495,-8.0937757,-8.1686296,-8.2238712,-8.8108587,-8.9177017,-8.4965191,-8.7785006,-9.7489872
15.483214,14.650873,14.298116,14.02378,13.349519,12.786985,12.519977,12.17909,12.542227,11.332129,10.951581,10.210575,9.8900309,8.4763002,9.6227798,7.7566957,8.2555685,7.5244608,7.482254,6.9247322,7.5062075,6.0743299,4.3835869,5.941051
4.7235675,4.3085556,3.8345692,3.2084908,2.781498,3.3329372,2.6718533,1.5930545,.90882301,1.323114,1.9711037,1.6690066,.17699963,-.80865663,-.32304463,-1.4917523,-1.6442429,-2.0070274,-1.3293917,-3.0309391,-2.9666748,-2.1224656,-4.4327312,-3.481992
6.3438673,6.0551095,5.5545535,4.8925548,4.3300848,4.4946032,3.5807059,3.6336102,3.4664176,2.2769659,2.2780454,1.513001,.63829851,.90900075,-.31770119,.40214315,-.53789485,-.17245306,-2.0707488,-2.3361616,-2.3355381,-2.6607001,-3.7961338,-2.5889955
.26108,.040760379,-.59272397,-1.0342379,-1.3568339,-2.0573711,-1.8873012,-2.3981829,-2.8522873,-2.7210345,-3.7589819,-4.298964,-4.0676131,-4.4201164,-4.865818,-5.3643136,-5.795558,-6.4944377,-6.7305117,-6.9294324,-7.9191866,-7.6611743,-7.7595143,-8.5368166
-3.8736415,-4.3738933,-4.3928905,-5.2320337,-5.2875199,-5.6127882,-6.301394,-5.854887,-6.826292,-7.2360067,-7.6681213,-8.8368206,-7.710361,-8.1722364,-8.8095894,-8.4350357,-9.3165855,-9.4419203,-11.090856,-11.643686,-10.053405,-11.350436,-11.493465,-11.686647
6.0500302,5.8240557,5.2705774,4.8823824,4.9886236,4.3096862,3.7852569,3.3200498,3.4480481,2.3747165,2.7258759,1.3304421,1.2335885,1.0251353,.7008993,-.65873152,-.72876984,-.36193988,-.58293051,-1.3545153,-2.9561296,-2.580255,-2.53865,-4.2217584
-15.715172,-16.011709,-16.036545,-16.890631,-17.292095,-17.13306,-17.579641,-17.950945,-18.077425,-18.70702,-19.307615,-18.435139,-19.246059,-19.578711,-19.647814,-20.664555,-20.785885,-21.523977,-21.388914,-21.923399,-21.977211,-22.35924,-22.384394,-24.235636
8.5579004,8.143364,7.5332079,7.3064194,6.4753475,6.2691221,6.2022133,4.9962516,4.9332657,4.8840241,4.8642898,4.1296716,3.7213759,2.6735969,2.3857691,2.2263544,1.4210106,1.3805598,.52077562,1.1319396,-.053919263,-1.0249188,-.68957901,-.72857779
