b_storage1,b_storage2,b_storage3,b_storage4,b_storage5,b_storage6,b_storage7,b_storage8,b_storage9,b_storage10,b_storage11,b_storage12,b_storage13,b_storage14,b_storage15,b_storage16,b_storage17,b_storage18,b_storage19,b_storage20,b_storage21,b_storage22,b_storage23,b_storage24
-3.9815958,-4.1478138,-4.6362844,-4.3769364,-5.0290747,-5.2205772,-6.2270017,-5.7063851,-6.3074331,-6.2815433,-6.7893143,-6.3952718,-7.1469226,-7.7616653,-8.0202475,-8.6493797,-8.2123814,-8.3930731,-9.3537626,-8.8917208,-9.8765106,-9.1994772,-10.395852,-10.484251
-3.9800835,-4.1147327,-4.4299784,-4.6878586,-5.0412402,-5.2154689,-5.2165241,-5.6755581,-5.9639597,-6.585691,-6.5723977,-6.6730499,-7.1937184,-7.9214263,-7.2190313,-7.384088,-6.8193808,-8.3607731,-9.0706234,-8.2374754,-9.7757854,-10.030318,-8.9407578,-10.852554
5.1285172,4.9299464,4.636692,4.0233321,3.6667879,3.5517526,3.2240784,2.5314236,2.9476972,2.2409122,1.1887349,1.3734322,1.3572096,1.0822288,.23219129,-.031829871,-.53402048,-.84686136,-.95636445,-1.1117283,-1.1400089,-1.6482081,-2.2281549,-2.4917514
2.9348171,2.7899575,2.0453408,1.5338562,2.1756248,.63427699,1.0616518,.67694712,.19243309,-.38769522,-.74850094,-.65780157,-1.2793071,-1.6819822,-1.449999,-1.8065581,-1.4595605,-2.9610684,-2.5457783,-3.3792343,-3.5877881,-4.449512,-4.9105453,-4.057354
-1.0447108,-1.1938833,-1.4922602,-2.5975759,-2.3873956,-2.4627333,-2.9342785,-3.0478294,-3.7589827,-3.7146714,-4.4720068,-4.8900299,-5.1258669,-5.920444,-5.2326779,-6.4405308,-6.155798,-6.4900422,-7.145473,-7.4101391,-9.3268871,-7.8598332,-8.2717772,-8.5131922
5.2048092,5.1222458,4.6403866,4.1554222,3.7823284,4.1523371,3.0402682,3.147644,2.6526098,1.7994949,1.5356878,1.975487,.12950905,1.0341635,-.089208446,.35844183,-.77780831,.30717015,-.23038891,-1.6229268,-2.2178392,-2.6075885,-1.7808142,-1.5445852
-.37187141,-.4998683,-.84059674,-1.7184135,-2.0112486,-1.8794624,-2.2891107,-2.5542979,-2.6964288,-3.3832498,-3.6097579,-4.2046018,-4.599123,-4.5421791,-4.3372908,-4.6788611,-5.3789439,-5.7001486,-5.5960722,-6.0507965,-7.3811145,-7.4065208,-6.5616832,-7.8876181
3.1586468,2.9548244,2.6533012,2.5861986,1.8533701,2.0691922,1.358392,1.0031714,1.025409,.6452114,.15194987,-.40859726,-.184935,-1.1104932,-.86712158,-1.1804159,-.92502165,-1.7286195,-2.3980927,-2.5652394,-3.0409112,-3.2607276,-3.1143296,-3.3109839
-4.434691,-4.6356864,-5.3629975,-5.1792946,-5.6994681,-5.7596645,-6.4132195,-6.7221951,-6.9015198,-6.9167461,-7.3242626,-7.9213729,-8.3654156,-8.4460316,-9.1239347,-8.6264334,-9.2239866,-10.290408,-10.495766,-10.138835,-10.368753,-11.564448,-10.435036,-11.354454
.19594188,-.10643412,-.068315722,-1.0021005,-.88352317,-1.1839911,-1.9808434,-1.838964,-1.8276256,-2.4373002,-2.5772634,-2.6660271,-3.4567249,-3.5145855,-3.3643389,-4.5969558,-4.3652802,-3.6075599,-5.44804,-6.0430646,-5.0886321,-5.2498121,-5.8182096,-6.6327062
-1.7636044,-2.1331658,-2.3534856,-2.9792316,-2.8634181,-3.4858253,-3.7515323,-4.0007644,-3.6605513,-4.2517071,-4.7686806,-4.8957167,-5.9817715,-5.5680337,-6.3682923,-6.4549665,-6.4918923,-7.6068935,-6.4511151,-7.5850587,-8.1262426,-6.9327283,-7.8822069,-8.1882601
11.377006,11.24281,10.736664,10.6459,10.237132,9.675972,9.4965038,8.9176331,7.9175048,7.8050756,7.0216537,8.1156378,5.579668,6.7356482,6.6227956,6.5989203,5.4358115,5.8751931,6.1737471,4.8707862,4.7739716,4.7840967,2.7574363,3.179111
.37954196,-.15751311,-.0080998847,-.25421637,-.78125358,-1.6775903,-2.5042596,-1.661185,-2.0197353,-2.5604548,-3.045454,-2.4577038,-3.9787543,-2.8375001,-3.8614542,-3.2818494,-4.9511209,-4.9012642,-4.65626,-5.031189,-5.76542,-6.1866693,-5.3777332,-6.859271
1.2285811,.84750122,.69779062,.47473454,.034962207,-.15426432,-1.3336846,-1.0792495,-1.5790937,-1.9314742,-2.4028246,-2.4692564,-3.4982092,-3.3799586,-2.8889556,-3.9363675,-3.5268118,-4.8983455,-4.5831165,-5.3341928,-4.7384686,-5.4930081,-5.9155707,-5.6976175
-1.7598929,-2.0461178,-2.0477445,-2.4552515,-2.6884718,-3.5840523,-3.5245752,-3.8353248,-4.1798291,-4.2470531,-5.7234221,-5.3761683,-5.4500899,-5.6374774,-5.6482291,-6.0988569,-6.4734626,-6.0780063,-6.6534419,-7.6479177,-7.7856555,-8.3777676,-8.856287,-8.6233721
-1.3418548,-1.6633234,-1.6242669,-1.7322375,-2.697638,-3.0340405,-3.1473353,-2.9574301,-3.6894495,-3.7297111,-4.6712112,-3.956424,-4.1045585,-4.6456766,-5.3462038,-4.9960518,-5.9026814,-6.3345947,-5.9691339,-5.674665,-7.29353,-6.7554111,-7.4689832,-6.9630828
.97103202,.47856122,.062473752,-.3398951,-.35147572,-.54359323,-1.4648714,-1.5210302,-1.6869992,-2.233413,-1.6150769,-1.9599909,-2.6218886,-3.4131141,-3.7774885,-3.5833552,-4.0872145,-4.6635823,-4.3894749,-4.8709822,-4.4424877,-6.0391359,-5.1884608,-6.0544462
12.063895,11.791735,11.200348,10.812637,10.911528,10.839127,10.788191,9.9019384,8.8351774,8.7551441,8.5714989,9.2156448,7.9421039,7.4733491,6.7005391,6.6774836,6.6811666,7.1418834,6.7137613,5.3445292,6.1303239,5.1706572,4.850162,3.7475138
-2.7128937,-3.0738575,-3.2433455,-3.952776,-3.8453012,-4.0298238,-4.2220988,-4.7703428,-6.3858356,-5.0944748,-5.9688201,-6.1013827,-5.5100865,-7.6013727,-6.7087145,-7.3448567,-7.4879699,-8.1768045,-8.2390308,-8.6986189,-8.8534174,-9.358036,-9.8284416,-10.428036
-1.180397,-1.3810004,-1.7213869,-1.8503029,-2.6260393,-2.5914955,-3.0433958,-3.6581509,-4.0113626,-4.1693997,-4.2587409,-4.7506881,-4.8674526,-6.6508369,-6.4707618,-6.5908785,-6.7222171,-7.524828,-7.6693711,-7.1048813,-8.7266541,-8.2026548,-7.7133961,-9.1928473
-3.5120983,-3.6893492,-4.0157566,-4.3938727,-4.8258657,-4.640265,-5.4144726,-5.7662053,-6.5282645,-6.6269636,-7.0652256,-7.3608932,-7.3595648,-7.4443679,-8.2938471,-8.2400846,-8.4753923,-9.0690098,-8.8867006,-9.8530712,-11.205503,-10.083693,-10.786564,-10.76803
3.2964287,2.9778168,2.4808695,2.1217115,1.577336,1.5304922,1.008477,.98645085,1.0366254,.5644244,-.11312456,-.30352139,-.079961054,-.93987823,-1.3547137,-1.3666123,-1.9603291,-2.7273219,-2.1365163,-2.7085547,-3.7623389,-3.4363191,-3.6337306,-5.7310867
5.7328873,5.5831532,5.3743362,4.6948767,4.552393,3.5999959,3.3118083,3.6942306,2.9836166,2.6035295,1.2034914,2.2808666,1.7902008,1.5516994,.88214749,.58129627,-.5843994,-.52557653,-.23746786,-.50629425,.046981029,-1.4830434,-2.590493,-1.2623883
-7.9966874,-8.0976448,-8.8928289,-9.2824087,-8.9823542,-9.5968208,-9.5107946,-9.8380404,-10.511926,-11.035975,-9.9729013,-11.534236,-11.166934,-11.619437,-11.862049,-12.910691,-12.15074,-13.007894,-13.152025,-13.737974,-13.204293,-15.470663,-14.152955,-14.188599
-2.8449631,-3.0931885,-3.520232,-3.6799288,-4.200562,-4.1754785,-4.418901,-4.6868196,-4.9565573,-4.9409051,-5.8589139,-5.6822462,-6.979393,-7.1380963,-7.3876343,-7.1600375,-7.4569216,-8.0920906,-8.4608784,-7.7582011,-8.2776155,-8.869422,-9.6864624,-9.5861769
-3.4412253,-4.0385227,-3.9885156,-4.6061974,-4.2017093,-4.9461918,-5.0894589,-6.2645879,-5.7754431,-6.1965756,-6.1854787,-6.934566,-7.1548901,-6.5786128,-7.6245308,-7.9194446,-8.2174234,-9.433753,-9.1273031,-9.2486916,-9.4912891,-9.2223167,-9.2129784,-10.828542
.65168023,.38636714,.14554295,-.48231176,-.54619527,-.62629443,-1.4078307,-2.3277266,-1.7926283,-2.0154967,-2.324929,-2.1992764,-3.3788598,-3.7652674,-4.1954761,-3.4741001,-4.9798446,-5.6740651,-4.8480997,-5.9735885,-4.8070683,-5.4096656,-5.1447926,-5.7921681
.095476359,-.14055607,-.32176635,-.62157029,-1.6442977,-1.5475965,-2.2804296,-2.1485474,-3.0146568,-2.4709616,-2.8165426,-3.4493749,-3.3456879,-4.6005483,-3.9739301,-4.6592436,-5.5729604,-6.1649632,-6.0075312,-5.9585285,-6.4258761,-6.6846948,-6.8674984,-8.6716471
2.4243197,2.1762025,1.778955,1.285501,.89211273,.44685006,.81261265,.45565906,-.55755419,-.5306955,-1.181468,-.9825657,-1.061474,-.96123272,-2.122798,-2.1140487,-2.9659176,-1.3968467,-3.3265018,-3.5446215,-3.8849199,-4.4804511,-4.9563899,-5.0190115
-3.9703248,-4.3758459,-4.8283873,-4.7181106,-5.2166157,-5.3520017,-5.6930609,-6.1239228,-5.9605069,-6.1054754,-6.6764407,-7.7667289,-7.3946958,-7.8903432,-8.797184,-8.0604048,-8.8877811,-10.886068,-9.5296268,-11.180259,-11.004487,-10.813135,-10.838017,-10.854155
-3.6206915,-3.9960475,-4.6603794,-4.1730561,-4.7714491,-5.9066234,-5.2941046,-5.8534803,-6.0026927,-6.9927974,-6.4641123,-7.4976549,-8.1255732,-8.1080112,-8.6652365,-8.5652561,-9.4732246,-9.2272701,-9.5905285,-9.0625219,-9.7891188,-10.213691,-10.338167,-11.799711
-1.375859,-1.7633693,-1.9602792,-2.4218116,-2.7170403,-2.500922,-3.4128635,-4.0163622,-4.1110358,-4.5619993,-5.1234999,-4.7807722,-5.2142096,-5.9001746,-6.1364703,-6.1024032,-6.7693276,-7.0590367,-8.0590954,-8.108386,-8.5625954,-8.6111774,-8.7575922,-8.9120884
2.2205009,2.0458584,1.5820662,1.3945937,.70556074,.818847,.91996878,.75663251,-.34043017,-.38927722,-.64299852,-.29198402,-1.6306393,-1.3868922,-2.2811179,-2.7716746,-2.2306304,-3.3766477,-3.0238061,-2.4502952,-4.1498928,-3.2663167,-3.860672,-5.2124486
9.1294279,8.5341616,8.475872,8.3955593,7.5016789,7.0234265,6.8734508,6.2640805,6.2522726,6.4522533,6.4904475,5.3455296,5.2440004,3.7805431,3.803164,4.2624483,3.7114887,2.7897637,2.5905695,2.4834323,1.2967346,.99347806,1.7487773,1.1431447
.44099689,.15909587,-.13554673,-.42557737,-.74796432,-1.005057,-1.7350177,-1.9477773,-2.4148812,-2.265744,-2.8454049,-3.253252,-3.0020893,-3.9280586,-4.2054048,-4.1879201,-4.583065,-4.3460679,-5.536869,-5.7995329,-6.1020718,-5.1981664,-7.1502323,-6.2524672
-4.6965375,-5.0247064,-5.4233394,-5.6552482,-5.903688,-6.4528031,-6.767024,-7.0078135,-7.2032342,-7.6000071,-7.4094634,-8.298584,-8.0437059,-9.1619844,-8.9588728,-9.8941851,-10.4119,-9.7181349,-10.647306,-10.809164,-11.485661,-11.288528,-12.392392,-11.340106
1.9118137,1.5917387,1.2905281,1.2546962,.72441232,.28128189,-.32821283,-.22451386,-.57119632,-1.0991634,-.68591255,-2.4406297,-2.2240212,-2.1627705,-1.8366202,-2.3377972,-2.928447,-3.0525928,-4.0758634,-3.7510157,-5.0861893,-5.404048,-4.7631431,-4.3350983
1.1313001,.87962151,.54148388,-.0066316715,-.079913296,-.92652482,-.85308468,-1.7205961,-.74535161,-1.7345151,-1.5213718,-2.7999709,-2.6556277,-2.8823433,-3.8495409,-4.4227576,-3.9986825,-4.6817927,-4.3676615,-4.7265229,-5.2846961,-4.9523983,-6.2027407,-6.7732186
4.8014889,4.435246,4.4278417,3.9182522,3.6666696,3.0152805,2.6541755,1.8808933,2.1456773,1.5867388,.98769438,1.8750031,.93882799,.129232,-.31757104,-.93178087,-1.0340279,-.59355021,-2.7817359,-2.2654104,-1.9087425,-3.1374297,-2.2789936,-3.5365546
.64258921,.10889766,-.058550343,-.64689493,-.62546939,-1.3749367,-.944897,-2.639101,-1.6530358,-2.0811644,-2.8912599,-2.9916208,-3.1454654,-4.2033911,-3.5718305,-4.5171065,-3.8901744,-5.246418,-5.377316,-5.3386717,-6.2518711,-6.8436542,-6.5934057,-6.5963163
-3.6751335,-3.9318793,-4.1721559,-4.6604218,-4.9893823,-5.1560674,-5.3770857,-5.7106442,-6.3072891,-6.4001765,-6.3751602,-6.5718508,-6.9943757,-6.9488854,-7.7636871,-7.8250971,-8.2865715,-9.4682159,-8.9634981,-9.975894,-9.7063618,-9.66397,-9.9028482,-10.65119
5.9808135,5.6657863,5.2323632,5.0998855,4.6814423,4.6718755,3.4096951,4.1107488,3.2794468,2.9568849,3.0458515,1.9998888,2.3542688,2.3417919,.86002791,1.0140175,-.14522943,.21853994,-.23128287,-.22523378,.55423433,-1.6396638,-1.0924414,-2.3808913
5.4063163,5.1819105,4.4753761,4.2857828,4.5445805,4.2203608,3.4233878,3.0378909,3.0607357,3.362963,2.4291744,1.2245781,-.19545688,1.1116289,.87724173,1.0209165,-.8554526,-.55443674,.57100928,-1.1450781,.0099328598,-.26246452,-2.9342041,-2.164294
-5.7208748,-6.0324326,-6.458365,-6.3562231,-6.7126756,-7.7444739,-8.1637182,-8.0079145,-8.1336851,-8.003376,-8.6093807,-9.1983709,-9.0005856,-9.6772108,-9.679677,-9.5458879,-9.5444517,-9.9359083,-10.818748,-11.754984,-10.83925,-11.901194,-12.929008,-12.524754
-3.494617,-3.6604481,-3.9350524,-4.4651136,-4.6252785,-4.8184066,-5.2696037,-6.0398898,-5.6114593,-5.0833755,-6.2330618,-7.0583601,-6.5324883,-7.3224168,-7.2928782,-7.2381253,-8.2298365,-8.33288,-8.0617676,-7.9319921,-10.335525,-9.2783337,-9.3121147,-9.5164309
6.7045755,6.3206658,5.7803679,5.763865,5.256525,5.3741107,5.1758585,4.3806081,4.3820581,3.6425056,3.1052651,3.1058054,3.1010258,2.412328,2.7013834,2.2407761,1.5565174,1.4861722,1.1190277,.85450292,-.3274979,.056780491,-.9173103,-1.0399085
-6.5823708,-6.8752141,-6.8932004,-7.1006231,-7.6775508,-8.1926126,-7.9112039,-8.116539,-8.3047562,-9.7285891,-9.2783585,-8.8253279,-10.557846,-10.580883,-10.281729,-10.443076,-9.8862753,-10.839482,-10.849774,-11.939821,-11.82668,-12.384853,-12.547537,-13.208191
-8.3076191,-8.7304182,-8.8386221,-8.9925222,-9.551652,-9.8473597,-9.7226114,-9.6539364,-11.030578,-11.014995,-11.474091,-11.902082,-11.78476,-11.742102,-12.763589,-12.862265,-13.22252,-13.259067,-13.095887,-13.524593,-14.107791,-13.599367,-15.626825,-14.920199
1.087173,.93753916,-.03053028,-.31361133,-.026312489,-1.2080169,-.45652822,-1.547101,-1.1423073,-1.8463703,-2.367568,-2.2480166,-3.0194211,-3.1302791,-3.7588205,-4.3602762,-3.0362883,-3.8731806,-6.2502031,-5.1364031,-6.234868,-4.57375,-5.8768859,-6.6137934
2.553961,2.3881121,1.9730858,1.6323287,1.0640652,.88133579,.13299549,.32769352,-.029322628,-.55986786,-1.0444356,-.45365065,-.9080584,-1.5532738,-1.7716668,-2.2613239,-2.9918733,-3.3461936,-3.9518919,-3.5317922,-3.2103479,-4.6665511,-3.9622838,-3.9726183
.050272223,-.2351494,-.45908722,-.8434633,-.75855088,-1.7934965,-2.0598993,-2.5290143,-2.2980034,-3.1796112,-3.718565,-2.8800991,-3.5424981,-4.0808206,-5.2417793,-4.5227866,-5.70432,-5.736866,-6.6586356,-5.886878,-6.1487665,-6.9677811,-6.6945496,-7.9921494
12.115776,11.837934,11.564959,11.446819,9.9159298,10.740566,10.867381,9.8298178,8.9065161,8.7962379,7.9487958,7.936934,6.9575987,8.0430384,7.2192039,7.4387836,6.2964396,6.6660066,6.5695853,5.906621,6.7877717,4.7156453,5.2511144,4.5535493
.19258633,-.18623133,-.3337324,-.75034094,-.87849599,-1.9591231,-2.0372934,-2.2764375,-2.0506909,-2.1907625,-3.1672235,-2.8915257,-3.4603441,-3.3469777,-4.3250484,-4.6374431,-4.5993176,-5.0593643,-5.4404082,-5.7057142,-5.2580032,-6.6548829,-6.1962218,-7.3922138
6.0273509,5.5022531,5.5400324,4.9342694,4.7215261,4.0316544,4.0144367,3.7149448,3.7118773,3.3849907,2.4214036,1.6420237,1.0669534,1.7218508,.69242948,.47063488,.4733206,1.072225,-.19162862,-.20219618,-.18916434,-.66625524,-2.0058513,-2.8020132
.95615721,.70087457,.41933474,.028702032,-.42679569,-1.0217019,-.80647147,-1.2544739,-1.1702862,-2.2950523,-1.6633589,-2.7990596,-3.3172944,-3.2074521,-2.782119,-3.9809029,-4.1573386,-4.4394932,-3.986376,-5.0270891,-4.3926134,-5.7496986,-6.6394482,-6.9518838
-1.1208731,-1.4222831,-1.7272884,-1.81401,-2.1679513,-2.8054841,-3.0290148,-2.7915936,-3.0960379,-3.7228158,-4.0559402,-4.3807969,-4.1562095,-5.3102522,-5.3001366,-6.5435128,-6.0499034,-6.6450491,-6.5467744,-7.1187067,-7.8430376,-8.2197599,-7.8606777,-7.5449681
8.8128252,8.5314999,8.0585461,7.8152227,6.9995403,7.032958,6.687963,6.1221271,5.6308913,5.3899326,5.3098469,4.8689408,4.8975329,4.9547434,3.5124936,2.8264937,3.5421476,2.3531728,2.7721221,.61300731,1.5560122,1.7578082,.36251295,.52747309
-7.6083126,-7.7950454,-8.2276621,-8.360095,-8.9223051,-8.9321823,-9.4633064,-9.7568216,-9.7695332,-10.013862,-10.002007,-10.407736,-11.103117,-11.472358,-12.336946,-11.824546,-12.510632,-12.151937,-13.011433,-13.124604,-13.867176,-13.847687,-14.255624,-15.009575
4.7175202,4.1670613,4.0766673,3.7417853,3.2051985,3.0106292,3.0007548,2.3983295,2.2044952,2.0260978,1.2518903,1.4684443,.75691622,.9307605,-.310083,-.77894115,-.49116087,-.80092084,-1.4511795,-2.3932946,-2.1434588,-2.1205015,-2.4807146,-2.0270042
-2.7165608,-3.0143633,-3.2974167,-3.6607962,-4.2175641,-3.7494454,-5.1225171,-4.437839,-5.3027287,-5.3315578,-6.3649945,-6.4283376,-6.0368667,-6.9412718,-8.2572947,-7.0358562,-8.5529633,-9.0908947,-8.7473917,-7.6079316,-9.3537798,-8.6099844,-9.2087145,-11.448519
8.912261,8.4300098,8.0675535,8.0832634,7.690886,7.5164628,7.2717433,6.8189392,7.7207332,5.7613845,5.9956222,5.2804146,5.2857909,4.3660727,3.6521022,3.8936868,4.9199271,3.4196823,3.77985,2.6401577,2.590678,1.1075065,2.2494619,.310716
.71685404,.34001043,-.14864936,-.58064824,-.48069534,-.60521638,-1.3565538,-1.4245049,-1.6870748,-2.5187557,-3.1523066,-2.0464907,-3.0014644,-2.9087355,-3.3043249,-2.5437672,-4.4658937,-5.017478,-5.6140518,-4.8825841,-4.6432438,-6.3478742,-6.9898849,-6.9173818
.38152325,.11537313,-.40445024,-.56984806,-1.3109577,-.86111832,-1.5451058,-1.6567684,-1.8385891,-2.4846308,-3.1091502,-3.2013028,-3.7363784,-3.4802296,-4.3726683,-4.1882176,-4.8651385,-4.8676395,-5.5423293,-5.7974653,-5.8946671,-5.4565654,-7.3320274,-7.3739963
7.7420225,7.5458007,7.4586964,6.4464631,6.296555,5.7228127,4.8901896,5.5138726,4.876596,4.2121816,4.5817156,4.0989347,3.3079178,3.4263225,2.9094994,1.9617347,2.6541946,1.00091,.98548758,1.4506607,-.23743196,.054659616,.33093527,-.72259432
-6.8805246,-7.0311422,-7.3307042,-7.6086907,-7.7690535,-7.9514489,-8.3639517,-9.0375929,-9.3798819,-9.2630987,-10.039515,-9.7365103,-10.325792,-10.87676,-10.093214,-10.558214,-11.86261,-11.406417,-12.022898,-11.714643,-12.849792,-12.627077,-13.123993,-13.533565
-3.3491662,-3.5883589,-3.880168,-4.370749,-4.4613466,-4.9230762,-5.4097404,-4.9637594,-5.89498,-5.7276349,-6.4648395,-7.0191031,-7.1582928,-7.1700768,-7.3474503,-7.9499187,-7.9300418,-8.6044579,-8.9840355,-9.2795725,-9.3897018,-9.9742365,-10.322456,-10.533637
-11.833466,-12.08209,-12.453611,-12.819211,-13.171599,-13.633439,-13.217188,-14.384221,-13.962397,-14.512335,-14.759305,-15.030304,-15.566165,-16.110147,-15.685397,-16.067907,-16.976612,-17.546919,-17.481325,-18.057148,-18.200905,-18.559635,-18.027908,-17.833126
.23208472,.054703604,-.16886443,-.70271719,-.87950754,-1.4371541,-1.1362635,-1.7379146,-2.1146801,-2.5554228,-2.4136167,-2.775357,-3.7238791,-4.0374689,-4.3116341,-4.9092226,-4.3993888,-4.3615012,-4.9448037,-6.3394156,-6.2043252,-5.7925363,-5.2999325,-6.3719034
-3.7534466,-4.053565,-4.5816503,-4.3917155,-5.0290208,-5.5832434,-5.017024,-5.6074705,-6.2928581,-6.1785426,-6.4201908,-6.8260045,-7.8056126,-7.9906349,-8.2669668,-8.2048922,-7.3978324,-8.1875544,-9.1090441,-9.3122168,-8.7271948,-9.1564741,-9.8320293,-10.127191
-6.0774589,-6.4197788,-6.6307106,-7.0222673,-7.4648271,-7.6578393,-7.4210954,-7.717051,-8.4720469,-9.1757164,-9.2179127,-9.0831451,-9.3431835,-9.7538252,-9.9731112,-11.500364,-11.13043,-10.651093,-11.743551,-11.011289,-12.269864,-11.832685,-13.393275,-12.40088
-7.1690497,-7.6226964,-7.8126326,-7.640429,-8.1800652,-8.4735889,-9.1360559,-8.0071268,-9.56143,-9.1237402,-9.8845415,-9.8541756,-10.492368,-11.507107,-10.346762,-11.538284,-11.601508,-12.023757,-12.008927,-12.823905,-12.007631,-12.184282,-12.424523,-12.879686
-8.6465349,-9.0263567,-9.1483059,-9.3965759,-9.4797659,-10.02538,-10.338819,-10.728118,-11.3915,-11.125422,-11.4944,-11.730991,-11.712998,-12.21382,-12.411091,-13.341063,-12.748477,-13.860604,-13.158546,-14.385397,-14.249557,-14.805459,-15.1484,-14.47164
2.0557175,1.6171716,1.4336412,1.2714765,.92500758,.62646544,-.2590881,-.1697347,-.32590246,-.98048818,-1.6782515,-.73472381,-1.0084877,-1.6852872,-2.0145719,-3.2029965,-3.3290818,-3.6722736,-3.6236601,-3.863986,-4.3588538,-3.7114308,-3.1980853,-4.5854912
-12.965816,-13.150266,-13.588619,-13.671197,-13.75676,-14.100269,-14.417233,-15.142026,-15.377677,-15.710159,-15.753792,-15.323847,-16.739124,-16.303642,-16.896736,-16.980236,-17.675423,-17.599672,-17.984236,-18.051065,-18.027697,-18.786627,-19.241219,-19.072807
.8328051,.3669641,.43804535,-.23680638,-.11689212,-.85583514,-.99640167,-1.1197816,-2.440659,-2.2219737,-2.6085086,-3.0876887,-3.759779,-3.9755113,-4.0612879,-3.7681756,-4.7056398,-5.0757422,-5.0209956,-5.2317095,-6.1470561,-6.0060391,-6.4281287,-7.3893433
-5.571785,-5.7990317,-6.1526814,-6.6131401,-6.6137323,-6.8658614,-7.5021372,-7.5521107,-8.3082848,-8.0052605,-8.3448162,-8.4570351,-9.4903221,-9.9163494,-9.5220709,-9.2969608,-10.578228,-10.885036,-10.117393,-11.676234,-12.093266,-11.779972,-12.123281,-12.312899
1.0966681,.81348008,.25800282,.29450092,-.28845498,-.16115452,-.89895934,-.89417356,-1.2339307,-1.7229258,-2.2495382,-3.0256352,-2.8601084,-2.650769,-3.0249832,-4.3004222,-4.9060216,-3.7028642,-4.7548475,-5.1373501,-5.0771146,-6.5540004,-5.8791533,-6.8423843
3.4189107,3.0033803,2.8367951,2.5059114,2.5199432,2.1938002,1.5380939,.51269943,1.452415,1.2842957,.40566343,-.3198427,.45089665,-.53115207,-.5020836,-1.8521856,-1.039297,-1.312579,-1.399332,-2.396899,-2.4978549,-2.3320622,-4.0597177,-4.0773735
-9.2993727,-9.4736204,-9.9712324,-10.018734,-10.395214,-10.523707,-11.37577,-11.248923,-11.780488,-12.394017,-12.003392,-12.482358,-12.883473,-13.263989,-13.545613,-13.115404,-14.632198,-14.332541,-14.829452,-14.899882,-15.777933,-14.633773,-15.485736,-16.516596
4.5795102,4.386044,4.2265954,3.8383431,3.2648449,3.178272,2.8180287,1.2130466,1.6992062,1.4335099,2.158632,1.2739956,-.035900276,.27737272,.7273736,-.2342433,-.35346776,-1.5812378,-1.0560342,-.51143169,-2.3598185,-3.0099156,-2.9347811,-4.0248671
3.5531805,3.1613317,3.0363898,2.7625625,2.1667087,1.6382427,1.6262422,1.4164258,1.2702433,.81035507,-.17965354,-.75194395,.46196333,-.36728072,-1.2896804,-.7627843,-1.8911071,-2.3926992,-2.4200964,-2.2641175,-3.0872817,-3.1730418,-3.9299414,-4.8089862
5.0505824,4.6289091,4.527667,3.7609458,3.5990806,3.5977261,3.2266271,2.5530264,1.5552392,1.216482,1.2838382,1.7675354,.87654704,.33718941,-.020233767,-.35901427,-.21668981,-1.6495517,-2.3107526,-2.1411598,-2.4942372,-3.1932178,-2.9333699,-3.1061919
6.05338,5.9369316,5.4726939,5.5639577,4.7431979,4.8656273,4.2603216,3.6798506,3.8160827,3.1695487,3.2005005,3.5506144,3.2315118,2.5107772,2.4124606,.872078,.83107919,1.3805015,1.32495,.80851489,-.25741664,-.093017422,-.9481045,-1.1198316
1.4121213,1.2006382,.78883278,.38624844,.45755038,-.0060655377,.21230942,-.96080548,-.70735109,-1.3336662,-1.8292071,-1.5562718,-1.5683948,-1.7898452,-3.1368649,-3.5372405,-2.6159077,-2.1991801,-3.0332539,-3.8359735,-4.7807198,-2.9392753,-4.3104157,-5.9697042
-7.6894035,-7.9914494,-8.1317682,-8.8335485,-8.9309635,-9.0078211,-10.0874,-9.8298321,-9.4911375,-10.374262,-10.234086,-11.023192,-11.426027,-11.105022,-11.538731,-12.24546,-11.629404,-12.484367,-12.93685,-13.597013,-12.722569,-13.959422,-13.918098,-14.493425
2.1062593,1.7353221,1.5646551,1.023443,.94780147,-.067991532,-.3789576,-.28609523,-.68604809,-1.4047152,-1.5409056,-2.9033222,-1.9241784,-2.5396805,-2.9997613,-3.333004,-3.8590586,-2.7169178,-4.3254871,-4.2866182,-3.5513821,-5.3174052,-5.9452295,-6.1498022
.032927204,-.35498667,-1.0100297,-1.1163832,-.86321199,-1.9296561,-1.8055788,-2.3946972,-2.746691,-3.4894919,-3.8077364,-2.8939233,-3.535228,-4.252634,-4.6893082,-5.4728203,-5.4879045,-4.9904842,-5.7257338,-5.4418521,-5.8492308,-6.2472992,-6.3105693,-6.6852632
3.1610379,2.6426742,2.1488638,1.9989289,1.67161,1.4607625,1.3116982,.43896011,.28317899,.19956926,-.54182351,-1.3964159,-1.4135698,-1.6360544,-1.8174976,-2.4573731,-2.5706515,-2.2289522,-3.6587667,-4.0462499,-3.7021391,-5.0411749,-4.0941238,-4.8452387
-3.3778954,-3.7118936,-3.653697,-4.2785792,-4.6337371,-4.9989314,-5.503706,-4.9424005,-5.912221,-5.6794739,-6.2335792,-6.7670035,-6.985949,-6.6909628,-7.1609693,-6.8957887,-8.0382662,-7.7545896,-7.7917919,-8.8850098,-8.9241285,-9.9021301,-10.468709,-9.6693468
-4.2156315,-4.484499,-5.1313157,-4.9523416,-5.4109449,-5.8209629,-6.3462663,-6.0179119,-6.2518206,-7.0501823,-7.7198868,-7.2463598,-8.2285614,-7.972712,-8.0667181,-8.5636292,-8.9550886,-9.0004702,-9.482688,-9.8420486,-9.7976398,-10.577534,-10.505021,-11.153407
-6.3975821,-6.5074835,-6.8897061,-7.2560039,-7.6287723,-7.6253076,-8.1569605,-8.6849699,-8.4674931,-8.8722258,-9.203536,-9.5728092,-9.5230217,-10.636174,-10.311223,-11.706303,-11.391637,-11.52344,-11.45808,-11.676148,-12.086857,-12.12781,-13.320446,-13.45467
3.8022504,3.693629,2.9034061,2.6134498,2.1902297,2.547823,1.8273253,1.4955782,1.3478112,1.3613267,.57579511,.45054871,-.020309979,-.93128622,-1.1027077,-1.2010092,-.086319,-2.7184365,-1.7168415,-2.6266146,-2.9399803,-2.3870299,-3.3363791,-3.935297
-2.6299546,-2.8407314,-3.2103679,-3.2775118,-3.7946708,-4.2504325,-4.9387531,-4.6958232,-5.0525136,-5.8084874,-5.9999981,-6.9734592,-7.2176266,-6.7416496,-6.9699254,-7.2413516,-8.1883354,-7.840199,-8.6893854,-8.4346981,-8.6424227,-9.2616816,-9.8057137,-10.633785
.098539345,-.23357843,-.26433483,-.96274978,-1.3732808,-1.2378578,-1.7783159,-2.0141032,-2.0382776,-2.5388885,-2.4127011,-3.2926273,-3.6905355,-4.3006682,-5.0552177,-4.7505231,-4.9330211,-5.3569722,-5.444766,-6.2921734,-5.5690408,-6.6216898,-6.9858637,-7.6301026
1.9040655,1.577692,.99532551,.84587932,.46265683,.77293551,.18851045,-.59613425,.020091914,-1.0352689,-1.3313472,-1.0154046,-1.573184,-2.2797952,-2.4756775,-2.4276686,-2.9816301,-3.1142075,-4.4447465,-4.2339358,-3.8191526,-4.8806443,-4.7294455,-5.5999794
-3.1552055,-3.3606756,-3.6287892,-3.9371228,-4.7114429,-4.4221439,-5.7552934,-5.8570762,-5.5274949,-6.399004,-6.6672468,-7.1794524,-6.927855,-6.5171328,-7.0609012,-7.8535442,-8.8707504,-8.1875563,-8.2895079,-8.7377052,-8.6833754,-9.5347786,-10.664556,-9.7895594
8.4224625,8.2494078,7.828546,6.8418236,6.6614304,6.5313592,6.1189752,6.3519621,5.8240666,5.5259619,4.9067979,3.8771627,5.2764254,4.2494783,3.200772,3.8844399,2.3754637,1.9047099,2.2292786,-.6430099,.26259193,2.021538,.5567559,.67327875
-12.535702,-12.7248,-13.315901,-13.850904,-13.700197,-13.686087,-14.412852,-14.546848,-14.520537,-15.379073,-15.70453,-15.437886,-15.725939,-16.311977,-16.03911,-16.243219,-16.421392,-16.89315,-17.705742,-18.114452,-18.114044,-18.233593,-18.297256,-18.950291
7.0570621,6.8249483,6.0553608,6.3144078,5.622189,5.0692048,4.8886161,5.2895546,4.6488237,4.0169339,3.439383,3.8424644,3.1268101,2.3564146,2.0555656,2.3646801,2.0099411,2.2036033,1.1398906,.92748362,-.12313069,-.60280782,.053383343,-.91968042
-3.4528456,-3.733155,-4.0166149,-4.2804379,-4.6260839,-4.7446313,-4.7886438,-5.1757512,-5.874619,-6.2272511,-6.1635098,-6.9913044,-7.1173692,-7.2861648,-7.9770813,-7.0294795,-7.3715682,-7.9168601,-8.2820425,-9.0049772,-9.8648634,-8.3040924,-9.457942,-10.542205
10.198852,9.8167686,9.4441614,8.9192963,8.5960693,8.4638348,8.4107857,7.7048588,6.7209811,7.1518493,6.7133865,6.7481999,6.1157064,5.8358989,5.0182061,4.3446722,5.4903297,3.9156761,4.7397461,2.6728909,2.2975278,2.878782,2.480541,1.5211402
-6.2642884,-6.5814238,-6.73664,-6.7594624,-6.7271838,-7.3556995,-7.7964053,-7.8198872,-8.4915533,-8.6937666,-9.6676798,-9.4263229,-9.5265312,-9.936986,-10.253991,-10.464027,-10.207549,-10.46629,-10.68049,-12.054932,-11.594885,-11.413686,-11.809839,-12.40424
2.2109029,1.5856427,1.856318,1.3996997,.28755954,.3886199,.51926941,-.55724275,.20441701,-.29016599,-1.4089406,-1.2190166,-1.3981717,-2.4850757,-2.6045029,-2.0450418,-3.3222466,-3.6280551,-3.7498493,-3.629735,-4.7069936,-4.9960799,-5.5939274,-5.9414225
.99193406,.87877774,.42900401,.02297784,-.3614291,-.36717987,-.70300233,-1.0519804,-1.5426598,-1.3716271,-1.5652421,-2.7432849,-2.4213088,-1.9684302,-3.243475,-4.4205933,-4.4446869,-4.1771789,-4.6094089,-5.0637159,-6.0643425,-5.747107,-4.9162288,-6.5495391
-.48852521,-.74646801,-1.1300691,-1.1607115,-1.9320763,-1.7956941,-2.265384,-2.5040388,-3.3395226,-3.1507711,-4.0246511,-3.9406123,-4.5463328,-3.9601078,-5.2321906,-5.4007192,-5.9233713,-6.4171758,-5.680203,-6.1697941,-7.3139701,-8.1226101,-8.0348892,-8.0815716
-2.9386854,-3.1723509,-3.6522281,-3.943994,-4.2087831,-4.4654713,-4.8786583,-4.3355246,-5.3850241,-5.6075993,-6.2219057,-6.0139155,-6.4216676,-6.8240623,-7.3875804,-7.9818702,-8.7035065,-7.7475996,-8.7827902,-8.8263502,-9.0461988,-8.9647226,-9.4285097,-11.720238
1.755614,1.3188157,.9141295,.77504987,.32224545,-.18693712,.13366219,-.87113583,-.62056595,-.4409723,-1.6522207,-1.793012,-2.670285,-2.1249843,-2.2326195,-2.5943937,-2.508148,-2.9560888,-3.4751353,-4.0732236,-4.6882362,-4.7876835,-4.4457245,-4.3071656
2.8530812,2.317889,2.2912199,1.5536264,1.7973495,1.0733278,.65551889,.12095479,-.19735418,-1.0287638,-.56671154,-.88676405,-1.157254,-1.6489497,-1.8266915,-2.0862651,-2.531076,-2.7316649,-3.8519504,-3.1343524,-4.2130518,-4.0722747,-6.7428679,-4.3800211
-1.2931416,-1.7060378,-1.8780967,-2.5407798,-2.0520403,-2.7146621,-3.1309886,-2.6381927,-3.5224149,-3.929594,-4.0094194,-3.9255939,-4.2428808,-5.757978,-5.7286248,-6.4155231,-6.1385422,-6.7868924,-6.040875,-7.6885781,-7.285491,-7.9393716,-8.637928,-9.7144003
8.425004,8.2001343,7.8898168,7.3804994,6.930119,6.7023754,6.2604537,5.5536556,5.3576536,5.2818441,4.5456996,4.5785937,4.165988,3.0611372,3.1200287,2.1174114,2.4216919,2.5170064,2.0104401,1.7689748,1.5248113,1.4887143,.17088979,-.36648926
-1.8484261,-2.0992939,-2.4055614,-2.5709138,-2.6051142,-3.6539581,-3.7159591,-3.991636,-3.8799975,-5.1893573,-5.1068444,-5.5619097,-5.0548191,-6.5687633,-6.4645591,-6.9759417,-6.8420224,-8.2467012,-7.5839791,-8.087245,-7.7450452,-8.1736526,-9.6882801,-8.9275436
1.8674855,1.4617122,1.348714,.82234472,.36411986,.17632578,-.099758051,-.48507932,-1.0289062,-1.2429966,-.44182047,-1.8101817,-2.6714466,-1.581687,-3.3428731,-2.4654059,-3.1682975,-4.1614928,-4.5959067,-3.2240455,-4.1743407,-5.236671,-5.1333413,-6.7928681
-2.7008023,-2.977257,-3.255332,-3.5996299,-3.8627081,-4.4254231,-4.794786,-4.7501593,-5.245831,-5.6720638,-6.4183407,-6.2395186,-6.3040323,-6.5551429,-7.2568541,-7.3742399,-8.2711086,-8.3371859,-8.4382706,-8.8951836,-9.2662878,-9.4991531,-9.86269,-9.9079657
-11.288435,-11.488131,-11.970173,-12.150387,-12.365296,-12.832067,-13.344255,-13.22342,-13.911414,-14.278248,-14.130121,-14.700427,-14.992089,-14.971273,-15.987792,-15.089458,-15.974876,-16.347118,-16.24201,-16.697966,-17.134222,-17.683466,-17.413239,-17.796463
-.79418397,-1.1772928,-1.263142,-1.6471753,-2.1280801,-2.3575418,-2.1407807,-2.9520459,-3.3326657,-3.7343829,-3.7392523,-3.7955017,-4.2384801,-5.1213279,-4.7874904,-5.5120325,-5.3268404,-6.3171253,-6.291554,-7.1273212,-6.3537321,-6.4838524,-7.5176549,-7.3614039
3.2166111,2.5757036,2.7474282,2.3127592,1.72325,1.2729136,.41844788,.84665316,.44785905,.24725962,.38238484,-1.2013811,-.83559704,-1.2003236,-1.8358597,-1.5499823,-2.6196189,-3.0715895,-2.0324502,-2.8709762,-3.680249,-4.0261679,-4.0302348,-4.985033
-1.4847529,-1.8077927,-2.0182686,-2.1386011,-3.0305648,-2.6839588,-3.7080994,-3.0408981,-3.751719,-3.8405926,-4.5808496,-3.7960098,-4.8251929,-5.2672281,-5.0650964,-5.0517502,-5.9534864,-5.808372,-7.1765895,-6.4552488,-6.9248986,-7.724144,-7.825501,-7.3323932
-2.5560691,-3.066874,-2.9965773,-3.4769268,-4.0493274,-4.2731395,-4.2226362,-4.6497917,-5.985271,-5.9071965,-5.5049157,-5.7014928,-6.8451662,-7.7306714,-7.1067739,-7.8082323,-8.1060438,-8.8917799,-7.7285557,-8.1280985,-9.1763992,-9.8972235,-9.7810841,-10.601
1.5668159,1.0970658,.82188255,.59723675,.47045758,.33309013,-.62433279,-1.0867755,-1.2646313,-.22870465,-1.7635866,-2.2083352,-1.8927287,-2.0058506,-2.5433335,-2.8246682,-3.1090822,-3.9590814,-3.7510087,-5.2092471,-4.6963596,-4.8666058,-4.7810812,-5.7357626
.6631248,.45230007,.13795,-.017906908,-.50415504,-.64095134,-.69929969,-1.0079844,-2.1980009,-1.8565398,-2.2161069,-2.7972717,-2.7871745,-2.3867166,-3.7791457,-2.7841747,-3.8546047,-3.7351334,-5.3161135,-5.1727891,-5.1611638,-6.2010498,-5.8349366,-6.6402321
1.6438601,1.1227163,.75505966,.98395067,-.25103381,.069863118,-.28339028,-.75348091,-1.2803774,-1.1435248,-2.2131145,-1.8400792,-2.3587501,-2.8202138,-2.7573383,-3.4553971,-3.9052844,-5.034452,-4.2594447,-4.7794547,-4.3791924,-6.2514186,-5.1719608,-7.1658134
3.3402598,3.1748877,2.8179226,2.5906534,2.5297883,1.8415781,1.9806391,1.1601424,.53895354,.19582574,.37204129,.60604089,-.029248338,-.66630554,-1.2852496,-1.436469,-2.0036821,-2.8202932,-2.5898306,-2.5572679,-3.5356882,-4.1407251,-2.340477,-3.522408
-1.9884592,-2.1743288,-2.6576233,-3.0356464,-3.3289828,-3.3667607,-4.0466242,-4.1288528,-4.4601545,-5.459033,-4.7809396,-6.0622549,-5.356607,-6.4794946,-6.4478936,-6.5361929,-8.1469965,-6.5340691,-8.076972,-7.599915,-8.9213543,-7.9998922,-8.4494753,-9.154706
-5.2469254,-5.5871477,-5.9831772,-6.4191728,-6.5113502,-6.5816364,-7.1330671,-7.6942825,-7.5067539,-7.9482355,-8.1110687,-8.3400955,-8.1681328,-9.0710573,-11.069079,-10.382202,-10.083447,-11.367625,-10.84641,-11.548284,-11.703876,-12.628969,-12.168592,-12.77229
-2.8352222,-3.1718469,-3.4509254,-3.502213,-3.7920017,-4.3535838,-4.7528801,-5.1469512,-5.0507474,-5.2994819,-5.7388315,-6.8006053,-6.9274879,-7.3417044,-7.0304165,-7.6816258,-8.1404858,-8.3288355,-8.2267256,-8.3336544,-8.791687,-9.5226822,-9.9610271,-9.8995438
-9.1044111,-9.3923645,-9.706315,-10.518041,-10.057158,-10.338064,-10.654224,-11.653641,-11.733427,-11.852695,-11.61893,-12.408522,-12.923646,-12.845904,-13.39218,-12.941261,-14.308785,-14.08529,-15.18358,-15.033002,-14.495752,-15.30059,-16.24408,-16.412426
3.8774955,3.7052472,3.2639799,2.9017842,2.4484036,2.3223305,2.2673962,1.6217864,1.0724266,.95448971,.71562749,.0015571297,-.82760769,-1.0717134,-1.3940686,-.95684808,-2.8723099,-2.7121792,-2.7970486,-3.5612657,-2.6703045,-4.013721,-4.0333476,-3.9149613
-7.3703547,-7.6061916,-8.2697735,-8.0855408,-8.4888067,-9.0491953,-9.3195505,-9.4029713,-9.1509514,-10.393117,-10.719569,-11.026484,-11.0175,-11.307987,-12.295793,-11.749076,-12.286816,-13.251591,-11.952033,-13.165806,-12.532267,-14.229112,-13.772424,-15.564132
6.7959352,6.5581059,6.1849337,5.6628399,5.3559332,4.9208107,4.3577304,4.821609,3.6302538,3.9800699,3.7116339,3.185261,2.3877733,1.9955024,2.0025249,.93645954,.85202211,.89131206,.86614662,.87771279,-.55296493,-.83790094,-.15154172,-.90778798
-13.409842,-13.609396,-14.042651,-14.249179,-14.274858,-14.609668,-14.747338,-15.144586,-15.358943,-15.268064,-15.700205,-16.068424,-16.495331,-17.097755,-16.969145,-17.354412,-17.667778,-17.843309,-17.929012,-17.761398,-18.182472,-19.274954,-17.869591,-19.12281
-4.9771934,-5.372375,-5.902534,-5.8557811,-6.4865389,-6.3009634,-7.2986646,-7.3829904,-7.6025324,-7.6714296,-8.0171528,-8.8601437,-8.9530315,-9.7557783,-8.6290493,-9.7032557,-11.050916,-10.620936,-10.509981,-12.010167,-10.588529,-11.94648,-12.350879,-12.510734
.37043029,.17116298,-.36970639,-.64233226,-1.2602929,-.90235293,-1.573192,-1.7658929,-2.0833864,-2.3721023,-3.3988564,-3.1592927,-4.0507336,-3.7644434,-3.9697006,-4.9726605,-4.7921152,-5.5065746,-6.6181598,-5.4878793,-6.258245,-7.0048194,-7.1971855,-6.3070955
-.62070119,-.77181357,-1.3790846,-1.7617021,-1.3282373,-2.1525435,-2.2227168,-2.8670516,-3.0056589,-2.7317176,-3.7881694,-3.8082149,-4.4121847,-5.3976531,-5.2302432,-5.1040592,-5.4884892,-5.1703901,-5.9689751,-6.1075087,-6.2410107,-8.028017,-7.6225142,-7.3081703
6.4849396,6.1790161,5.7392626,5.3496227,5.5455527,4.5955467,3.7556496,3.8226817,3.0130367,3.2712419,2.5330563,2.5690737,2.3788257,1.1226513,1.7273532,1.616942,1.6082062,1.0203204,.11446919,-.11178986,-.79712725,-1.3332785,-.98523188,-1.3418937
2.9519312,2.8018551,1.955425,2.197396,1.6905237,1.1675085,.76161724,.92564034,.39111432,-.31925455,-.4325527,-.87764364,-.93898755,-1.7263261,-2.5721769,-3.2873313,-2.9298928,-3.4345789,-3.1738119,-4.117331,-3.1960993,-3.5234919,-4.9708362,-5.6335626
-9.8127298,-9.9325142,-10.383359,-10.769509,-10.643117,-11.072364,-11.405993,-11.899738,-11.680496,-12.29058,-12.638324,-13.158173,-13.140073,-13.41268,-13.925928,-13.237435,-13.321918,-14.582158,-14.541305,-14.50868,-15.086435,-16.137558,-15.25856,-16.766825
1.1778001,1.0918888,.53194427,.26294428,-.037308138,-.34139645,-1.0358591,-1.1669753,-1.3690388,-1.3778999,-1.8376948,-2.3555071,-2.5969391,-2.2940853,-3.4607418,-3.9394209,-4.3515596,-3.8560004,-3.9764335,-4.5506139,-4.8178368,-4.8012366,-6.1528206,-6.5326405
1.3606092,.90962952,.62846637,.40312371,-.2749517,-.66991693,-.73822999,-1.0301747,-1.8047075,-2.1407957,-1.7149469,-2.6718311,-2.8182571,-3.6696835,-3.5013828,-3.5931838,-3.7599308,-4.6563134,-5.5597267,-5.1491475,-5.5566015,-6.0456772,-6.3954983,-7.2723541
-4.5314727,-4.7651997,-5.1573625,-5.3430886,-5.8915358,-6.4242063,-6.4866819,-6.7621918,-6.3451061,-7.1357999,-7.2495837,-8.0957613,-9.1139288,-8.878109,-8.6770401,-8.9252033,-9.1231346,-9.6191587,-9.5788774,-10.411275,-11.109073,-10.47298,-11.224316,-11.290976
10.079114,9.7593575,9.0411196,9.0787783,8.3167524,8.1381731,7.5638075,7.5533628,6.5932026,7.4005928,6.6678114,6.5828543,6.117609,5.9590325,4.7399468,5.5768967,3.7378752,3.9370687,3.5464215,3.5002365,4.1150813,1.4414566,2.0109236,1.0787596
-3.0891263,-3.2847085,-3.9614749,-4.0652518,-3.9913545,-4.8322911,-4.9225574,-5.0634761,-4.9362121,-5.644546,-5.8643785,-6.8409171,-6.4804883,-6.3122935,-7.4884701,-7.859973,-8.1912718,-8.1171827,-9.3762236,-9.4035683,-9.5881052,-10.128438,-9.9744501,-9.6778364
-7.1199608,-7.4329081,-7.8679047,-7.8023367,-8.511795,-9.008955,-8.8135405,-9.6655579,-9.5558615,-10.271569,-9.9093895,-10.779124,-11.300166,-11.103246,-11.133642,-11.308706,-11.85175,-11.782873,-12.517793,-11.975639,-12.538589,-13.998799,-13.49152,-14.50165
5.8473992,5.5364199,5.056942,4.8190489,4.1121879,4.1767507,3.9825969,3.1635497,3.2950423,2.5050755,2.5409389,1.4441546,2.2270155,1.4338622,.74835336,-.071906909,1.2718046,.22594129,-.96131682,-.026361773,-.025811095,-1.9851961,-1.2576981,-1.8410432
-6.3111916,-6.6443038,-7.0373693,-7.0646014,-8.0600758,-7.7185178,-7.8285933,-8.292449,-8.9054899,-9.2049284,-9.3477631,-9.3275385,-9.7613125,-9.8944235,-10.653443,-10.343644,-11.237028,-11.30485,-11.312316,-12.470027,-11.998706,-13.958735,-12.482144,-12.938951
-1.5749866,-2.1167295,-1.9404411,-2.6430185,-2.8901761,-3.1862741,-3.772475,-3.9227893,-3.7111962,-5.0342588,-4.2282701,-5.661037,-5.9841719,-5.9739909,-6.0726871,-6.7080164,-6.667532,-6.7997575,-6.6630173,-8.077877,-7.7380447,-7.8116245,-9.8569288,-7.9846888
-6.1028147,-6.3160014,-6.7167382,-7.0106244,-7.4899826,-7.4619226,-7.8843389,-8.5712299,-8.3978729,-8.969615,-9.7577887,-9.5105667,-9.6842985,-10.193468,-10.673145,-10.602719,-11.715582,-11.284422,-10.977485,-10.997695,-12.335684,-12.104978,-12.583658,-12.410169
-3.1175601,-3.3022668,-3.7723973,-3.9039285,-4.5029931,-4.6622434,-5.2960591,-6.0895886,-5.7495461,-5.4950032,-6.9174013,-7.0991225,-7.152575,-7.7244911,-7.6159806,-8.8388596,-7.3154159,-7.5114427,-9.3045568,-9.2249489,-9.3529634,-9.4295454,-9.8744822,-11.511184
-2.8758769,-3.1671915,-3.4675541,-4.1131558,-4.0582471,-4.1204429,-4.4735799,-5.1023421,-5.4156833,-5.6536994,-6.0436144,-6.6867185,-6.6432562,-6.8703065,-8.5977964,-7.9711046,-7.797215,-8.465107,-8.9790163,-8.0046358,-8.6644478,-9.6278915,-8.9858589,-9.1970129
.3845461,.19784264,-.64215833,-.69213027,-.78659469,-1.1202688,-1.9865485,-1.4503176,-1.5139347,-2.8968782,-2.2776237,-3.1598423,-3.2297544,-3.9382918,-5.1600866,-4.2274256,-4.8603911,-5.1836667,-4.906352,-5.4015684,-5.8966298,-6.2854877,-4.7043176,-6.7377515
4.8388076,4.4545379,4.2015281,3.775882,3.9530134,3.589534,2.8267019,2.8977137,2.2668922,2.2537203,.91523373,1.4438556,.72162539,.82066,.08064077,.23635696,-.92814827,-1.9462428,-.76056468,-2.7351968,-1.5140357,-1.8694713,-1.978773,-2.9573777
-10.428747,-10.748419,-11.027838,-11.037901,-11.418029,-12.173518,-11.993237,-11.712504,-13.087303,-12.816407,-13.208839,-13.084637,-13.335081,-13.819027,-13.479756,-14.09466,-14.280243,-14.572336,-15.093148,-14.932932,-15.431793,-15.748882,-15.831881,-16.430452
-4.0126514,-4.352026,-4.7570662,-4.554287,-5.2143412,-5.8246651,-6.125392,-6.03689,-6.8192701,-7.0776024,-6.9917331,-7.1101961,-7.8624368,-8.1817303,-8.0790024,-9.2931395,-8.6838684,-9.381917,-10.095046,-10.49133,-10.500287,-11.180795,-11.500903,-12.026028
-2.6444921,-2.9041004,-2.9852784,-3.3019848,-4.2223625,-4.2736149,-4.4498963,-4.8342943,-5.7835579,-5.0370264,-6.4295163,-6.237484,-6.0602698,-7.1186519,-7.5742307,-7.1577888,-8.192193,-8.0281858,-9.6616497,-8.2237749,-9.7100649,-10.06819,-9.7030401,-9.7436228
10.899762,10.57323,10.151939,9.6286469,9.6678715,8.6784954,8.6947918,8.162302,7.5515561,7.4559813,6.8204246,6.1823187,5.8336611,6.0264425,6.3388867,5.8926039,5.6638112,4.4851384,4.2961998,4.4029317,3.0576301,3.3110993,2.1731181,3.1837618
-5.190177,-5.607244,-5.5751348,-6.2836914,-6.4910622,-7.1734381,-7.2454553,-6.953856,-7.2114029,-7.838717,-7.8304195,-8.4111032,-8.9347897,-9.7333078,-9.4997663,-9.4623413,-9.93398,-9.9482155,-10.86449,-10.124676,-10.920485,-11.586099,-11.953424,-12.886487
8.8380156,8.4742517,7.571734,7.7381549,7.7147622,7.4367218,7.1998763,5.7623701,5.8482962,5.7245531,5.7616029,5.3242497,5.4788141,4.3975406,3.7652152,4.5197773,3.1340706,2.6798501,2.644242,1.1715314,1.5208256,2.4025633,1.6864176,1.0584689
-5.3580089,-5.4559188,-5.8907881,-6.5214815,-6.1919527,-6.3680677,-7.0442643,-6.5150352,-7.7927365,-8.2444458,-8.3116579,-7.9895849,-8.8100586,-9.3014717,-9.2816639,-10.366359,-9.2690067,-9.8266792,-9.6051645,-10.583872,-10.300793,-10.877307,-11.235633,-12.129149
2.5323443,2.258615,1.7541662,1.6482249,.1421172,.87105817,1.3955491,.4212122,.41215762,-1.5786791,-1.2474126,-1.139874,-.92704087,-1.5357518,-1.4077288,-2.7365761,-1.9407364,-3.4768877,-3.1591935,-3.4845908,-4.0753598,-4.2823172,-4.0276146,-5.4557419
5.317307,4.9592762,4.6845989,4.0383749,4.5981584,4.3606296,3.5803864,3.7354021,3.0740368,3.3628032,2.1426585,1.4141822,1.5411398,1.2860143,1.37626,.61155331,.62889612,.29984286,.85121119,-1.0327594,-.38184595,-.67344248,-2.0061712,-1.7850378
-2.4141924,-2.8865974,-3.0618842,-3.203145,-3.9473984,-3.7103968,-3.8613701,-4.4801641,-4.4840126,-4.9776831,-5.6798019,-4.972322,-7.0173297,-5.7051258,-6.2781491,-6.5689683,-7.3220997,-6.3803201,-8.334692,-8.4420156,-7.899456,-8.9457474,-9.1037836,-8.4614229
-3.3523619,-3.4898119,-3.9847605,-4.1666393,-4.5642896,-4.6481414,-4.675271,-5.1757607,-5.1179719,-6.3892961,-5.9552808,-6.6829524,-7.4753871,-7.1096878,-7.901288,-7.5079589,-7.866221,-8.1205168,-8.3661509,-8.8540869,-9.8660479,-9.2467718,-9.8801355,-10.158749
-7.1605697,-7.4076095,-7.8396554,-8.021019,-8.2506332,-8.7569904,-9.1177454,-9.3179684,-9.2255554,-9.7556458,-10.043365,-10.272216,-10.889144,-11.295424,-10.977825,-11.509995,-12.534325,-12.465681,-12.637175,-13.44562,-13.854147,-13.948648,-13.379496,-14.313064
-3.5356162,-3.8747549,-4.3717556,-4.1865678,-4.8835692,-5.2188544,-5.7621908,-5.3352079,-5.3140011,-6.3491092,-6.8737354,-6.9016628,-7.3356762,-7.5409245,-8.2363024,-7.9749417,-8.4960489,-8.8786125,-8.6199627,-9.1663322,-10.033442,-10.243755,-9.6124144,-10.556148
-9.7811756,-10.072496,-10.519882,-10.542632,-11.080719,-11.505294,-11.735669,-11.560781,-11.974864,-12.088323,-12.604596,-13.414781,-12.980745,-13.062265,-14.058269,-14.684084,-14.726017,-14.645956,-15.37618,-15.543616,-15.422983,-15.153586,-14.984089,-16.0301
1.9648098,1.7686678,1.301669,.98645383,.57550842,.6475634,.68298757,-.23221692,-.34470075,-.54824764,-1.0374775,-.60161692,-1.3837528,-1.6078929,-2.5042315,-2.5575948,-2.516772,-3.4040225,-3.7376859,-3.7086434,-3.9484599,-4.2406063,-4.4876237,-5.0446234
1.3224294,.82171637,.42840353,-.066787429,.033749994,-.8452335,-.91159129,-.74038494,-1.7404075,-2.405035,-1.9905715,-2.9404929,-3.1480839,-3.4226983,-4.4856806,-3.5125971,-5.4761553,-4.8511047,-5.0485234,-7.0082855,-5.4227238,-7.2019567,-6.6310544,-6.4214263
1.8684417,1.4915867,1.242687,.9767195,.43181315,1.1723993,.16632847,-.35197741,-.29169717,-1.1083616,-2.1103957,-2.6955516,-1.9295985,-1.7496883,-2.0932803,-1.8310252,-4.17416,-3.8154058,-4.4495983,-4.3880167,-5.0150061,-4.0890212,-3.742043,-5.0793242
-2.8551884,-3.2386367,-3.5231249,-3.8833857,-3.8479307,-3.9368782,-4.3663054,-5.6088729,-5.3832345,-6.1051793,-5.6619682,-6.5164514,-6.9906044,-7.1205645,-7.005847,-7.0630245,-7.7644649,-8.1863012,-8.5469007,-8.8376827,-9.1493034,-9.1755972,-9.3129654,-11.203354
-3.9252169,-4.3663087,-4.323935,-5.0146646,-4.6521802,-5.260448,-5.7367783,-5.863214,-6.175015,-6.6140652,-6.4040275,-6.9322014,-7.628756,-7.4150338,-8.3164549,-8.8855095,-9.2985086,-8.1451731,-8.7291422,-9.8588314,-10.709348,-9.8408918,-10.189085,-10.495954
-.87133002,-1.2766972,-1.640617,-1.6670018,-1.8323652,-2.2443099,-2.3318393,-3.1438432,-3.4003446,-3.5770719,-4.1367764,-4.3545203,-5.1383243,-4.9304852,-5.3927217,-5.4742913,-5.9372206,-5.9683838,-6.2886629,-5.9066024,-6.4196382,-7.230279,-6.9038501,-7.2132497
7.9146166,7.664607,7.0879378,7.1595359,6.7689123,6.4666739,6.8919716,6.1965976,5.1659532,4.7513561,4.388782,4.8718638,3.283042,3.470988,3.5270593,3.2429905,2.5492201,.9356612,2.728595,1.66717,.66415852,.27035534,.03261992,.10713313
.67837304,.31654119,.32795924,-.64824367,-.53468126,-1.0202584,-2.1217628,-1.5515145,-1.5112545,-1.7995821,-2.2741132,-2.7576375,-3.2717297,-3.4562414,-3.2989817,-4.6774974,-4.4971833,-4.1326413,-4.9280076,-5.5930848,-4.4839053,-4.9987054,-6.5909076,-5.9172473
-2.6717567,-3.1912003,-3.2665398,-3.4607456,-4.1255302,-4.5046878,-4.0168118,-4.867579,-5.0385714,-5.461544,-6.0621886,-6.2067165,-6.4882245,-6.2069955,-7.6907439,-6.6519933,-8.0870094,-7.6653266,-8.0142889,-9.2291956,-8.7289553,-9.256443,-8.6581306,-10.109613
-13.622582,-13.841025,-14.372707,-14.459846,-14.423998,-15.241624,-15.56124,-15.578485,-16.065784,-16.018267,-16.367804,-16.437256,-16.568542,-17.329805,-16.516855,-18.265966,-17.712032,-17.816971,-18.751345,-18.965578,-19.317684,-19.13438,-19.096943,-19.252066
2.1472464,1.851993,1.3331528,1.3396575,.78594935,-.49788183,.0074737347,-.54194635,-.69218314,-1.2151991,-1.3878839,-1.5566369,-1.3930708,-1.886734,-3.2558324,-3.1578505,-3.1102276,-3.5314817,-4.4029613,-4.7681665,-4.4210892,-4.4138308,-6.021214,-5.9367933
8.8224354,8.1318407,8.1779337,7.4320941,7.2704654,7.7341843,5.956183,6.9132576,6.1295586,5.0709205,5.4094315,4.7459126,4.4492297,3.6672199,5.0729113,3.3942544,4.3260741,2.4188526,2.035908,2.5403528,2.3704081,1.8331782,.59164572,1.4114119
3.619751,3.3919024,2.9199004,2.9740436,2.3201761,1.6792912,1.7228506,.81483686,.43109745,.90709269,.50474668,.30868369,-.00099932682,-.81197619,-.54819417,-1.720645,-2.5551631,-1.7519393,-2.5040562,-3.3632705,-3.4451964,-4.1488276,-3.5628092,-4.525466
-8.3106365,-8.6054764,-8.8915977,-9.1283255,-9.9598055,-9.68118,-10.214259,-10.268247,-11.176312,-10.424648,-10.69929,-11.424617,-12.140846,-11.859601,-12.450636,-12.977666,-13.295211,-13.413976,-13.258198,-13.718999,-14.543874,-15.109209,-14.808596,-15.358191
2.7069948,2.4014435,2.10164,1.3480411,1.2456919,1.4519269,.35076651,.77706051,.29811665,.13369699,.030374261,-1.2339621,-.6880697,-1.4843727,-1.6122347,-2.0102684,-1.4277577,-3.2384357,-2.7098505,-2.3978913,-3.5254853,-3.3482003,-3.31882,-4.6158085
1.4094001,1.059539,.70369875,.64674497,.5529868,.27056909,-.29902959,.03312929,-.32482907,-1.1008822,-1.6886142,-.83161891,-1.7409956,-2.0975542,-2.4804716,-2.9046609,-2.6301045,-2.8983431,-3.611413,-3.2404671,-4.550621,-3.6310518,-4.8242688,-4.4230256
-.25809342,-.6896928,-1.0962006,-1.515699,-1.5337343,-1.947934,-1.9963795,-2.5854309,-3.0077641,-3.4722068,-3.7463963,-4.5086694,-3.959708,-4.8395305,-5.5909829,-4.7429986,-5.9558644,-6.0159378,-6.4770136,-6.494421,-6.1622729,-7.1457391,-6.5773811,-7.5918016
-3.0660686,-3.2739401,-3.4416811,-3.7946227,-4.2293768,-4.3221455,-5.1235056,-4.9941049,-5.0124183,-4.9762721,-5.9552484,-5.7643666,-5.2874289,-6.9862146,-7.3661246,-7.5750642,-7.4889178,-7.765481,-7.5502925,-8.8633089,-8.5545731,-8.9051895,-9.1494226,-9.4547758
-12.710683,-12.881151,-13.523197,-13.391997,-13.901183,-14.084642,-14.586791,-14.911107,-14.362019,-15.250566,-15.61542,-15.495933,-16.170696,-16.40032,-16.167231,-16.832331,-18.088461,-17.477934,-18.633593,-18.193447,-18.266779,-18.679987,-19.472132,-19.706295
.98789871,.73684347,.21749966,-.014894508,-.12572742,-.27741241,-.98501551,-1.2164453,-1.6557747,-1.7048153,-1.7473303,-2.5762999,-2.5706644,-3.444541,-3.6125765,-4.6024423,-3.9109936,-4.4908299,-5.69068,-4.4344444,-4.4478483,-5.9898562,-5.1814914,-5.9955773
-2.8872492,-3.292578,-3.6873066,-3.8249867,-4.2607751,-4.8430219,-4.4287834,-5.1852474,-5.3541436,-6.4340734,-5.9997668,-6.2661219,-7.0505614,-7.1721897,-7.1309819,-8.2931547,-7.6657543,-8.7732363,-8.5675764,-9.8053694,-9.0325403,-9.9726028,-10.363124,-10.833384
-3.6535223,-3.9116707,-4.5563703,-4.5139012,-4.3259964,-5.0328794,-4.9156351,-5.5253954,-6.1293406,-5.5074,-6.2523651,-7.3464193,-7.3250256,-7.8834972,-7.008677,-7.4034853,-8.0218468,-8.1760979,-7.8437262,-8.1356983,-8.5313196,-8.9356899,-9.6143751,-8.7456455
-6.4971509,-6.7411308,-7.1094761,-7.0469327,-7.3033137,-7.8319116,-7.5169511,-8.2532158,-8.0298576,-9.3323135,-9.1031713,-10.302512,-9.6418047,-9.6508713,-10.049358,-10.347381,-10.147194,-10.965716,-11.600318,-10.607293,-12.711583,-11.955579,-12.014803,-12.635623
-6.3973355,-6.513454,-7.0049639,-7.4004283,-7.7865691,-8.1451683,-8.131321,-8.5798082,-8.6382542,-8.4232635,-9.0460072,-10.330284,-9.8424053,-10.066185,-10.945529,-11.092083,-11.575552,-11.565762,-11.665359,-12.876782,-12.561266,-12.537642,-12.490282,-13.795083
3.2674119,2.8890071,2.6508355,2.544404,2.0864573,1.4018426,1.106248,.79921538,.95664793,.2094259,.12729761,-.45312902,-1.5840142,-1.1465304,-1.527504,-1.7777336,-2.8076549,-3.1144943,-2.8599746,-3.1789172,-3.6042264,-4.2240777,-3.9373572,-3.825181
7.2327962,6.9813433,6.2882843,6.3876643,5.9560618,6.0311322,5.4123297,4.8343382,4.6957297,5.084126,4.3730245,3.7179606,2.7421873,3.7950327,2.9048727,2.3391116,2.1443479,1.8098956,2.3430226,.72837722,1.0389874,1.0411532,.11131632,-1.4707639
-1.3598865,-1.6652069,-1.9180777,-2.5348139,-3.1545572,-2.6341989,-3.3565035,-3.2055461,-3.9186575,-4.5258174,-3.6984394,-5.4221997,-5.3495526,-5.4415593,-4.8307257,-5.3888755,-5.4987459,-6.9444346,-7.047195,-6.6178098,-7.1135864,-7.1436796,-8.7735214,-8.1254311
-4.9275904,-5.1371117,-5.3985338,-5.7348599,-5.8083639,-6.198348,-6.7149758,-6.5116067,-7.3117175,-7.2534199,-8.5151415,-8.0691452,-9.212079,-8.9397621,-9.6699352,-9.6120157,-9.3585749,-10.677865,-9.9122276,-10.971806,-11.478301,-11.805247,-11.132495,-11.69386
-7.5647345,-7.8833194,-8.08354,-8.1397572,-8.8427515,-9.4702597,-9.5132437,-9.9060421,-9.6848631,-10.554031,-10.916154,-10.836195,-10.915174,-11.369917,-12.149608,-12.624139,-12.01188,-12.65805,-12.820795,-13.312669,-13.236323,-14.549085,-14.986279,-15.0738
1.4965533,.94488972,.69176269,.82900065,.34623957,-.23723869,-.66367096,-.89282304,-1.3045303,-1.3890783,-1.4612858,-1.8519222,-2.3557074,-2.8057141,-4.2359219,-3.3039916,-4.4389272,-3.5096848,-4.831768,-4.4819226,-5.3390951,-6.3912158,-6.0780835,-5.8257246
-2.082207,-2.2444849,-2.629849,-2.7769983,-3.6942394,-3.4466946,-3.4786201,-4.3640385,-4.8910246,-5.156054,-5.2751346,-5.5966725,-5.9450932,-6.7883363,-6.0994186,-6.4948916,-7.780282,-7.330677,-7.0029831,-7.1201844,-8.4900351,-8.8078985,-9.0210352,-9.9893179
2.8530455,2.3589745,2.1108694,1.8575366,2.3434746,1.2177567,.90048093,.95687497,-.71098876,-.096314549,.47239903,-.16312999,-1.6401054,-1.4727578,-2.1305916,-1.1692396,-2.1870058,-2.0981789,-2.4688268,-1.9621547,-3.015625,-3.418787,-3.6214683,-3.8241072
11.032988,10.547414,10.55437,10.151395,10.095103,9.5131121,9.4786949,9.0097237,8.4310417,8.1064825,7.6392212,8.02981,6.7639937,7.2216902,6.6977997,7.2910151,5.7209082,4.875432,5.1968908,7.0873766,4.408299,5.1823158,4.2338142,2.9324489
-10.413206,-10.720918,-10.971322,-11.095306,-11.409297,-11.425429,-12.412987,-12.242528,-12.731687,-13.08663,-13.125509,-13.582227,-13.384722,-14.115228,-14.418264,-14.027979,-15.237222,-15.685173,-16.388222,-16.173241,-15.804203,-15.968172,-16.546591,-16.76803
2.0711303,1.7277697,1.5706861,1.0950046,.9523614,.26632017,.69892174,.2178093,-.24595918,-.47214669,-1.2800379,-1.6852196,-1.4621102,-2.3845329,-1.7982117,-3.3079269,-3.0718777,-3.3626864,-4.0354791,-3.710629,-5.4911823,-4.1611605,-5.6046257,-4.4390826
-.15530869,-.4517895,-.64115536,-1.040531,-1.1517857,-1.7252437,-1.8524574,-1.9816625,-3.3356805,-2.7311513,-3.3611994,-3.8737669,-4.6614456,-3.9487383,-4.1162138,-4.3192196,-5.9425378,-5.9727116,-5.429399,-6.964746,-6.4171996,-6.5456204,-7.8873649,-7.6884809
-2.6877847,-3.0269532,-3.524183,-3.5520551,-3.8210366,-4.5383124,-4.5792584,-4.8160481,-4.9297986,-5.5797038,-5.8173327,-6.1170053,-6.3758612,-7.217299,-6.8593621,-7.297266,-7.6291375,-7.5697751,-8.0976057,-8.4703894,-8.8566647,-8.3181419,-10.773767,-9.6263676
10.232328,9.9528437,9.5809784,9.0952511,8.9316578,7.9345636,8.3057756,7.9798708,7.3081527,7.6814084,7.2444391,7.5220146,5.2768617,5.9934568,5.7665339,4.7230387,4.6913123,4.1100912,4.6946192,3.2157121,4.2989016,2.0037475,2.6282704,2.8930938
.57386452,.32770061,-.34052509,-.27339792,-.64281118,-1.197221,-1.1277113,-1.9347014,-2.2941973,-2.286263,-3.2432718,-3.3498657,-4.0470257,-3.5645978,-3.5561695,-3.343658,-4.9920402,-4.3313918,-5.8638921,-5.5423007,-7.5757585,-5.8245711,-6.7560477,-6.3009782
-11.172318,-11.371241,-12.063911,-12.026495,-12.126403,-12.730209,-12.982532,-13.329262,-13.463343,-13.722,-14.915494,-14.431682,-14.194007,-15.281922,-14.575937,-15.61702,-15.441292,-16.211983,-16.10376,-16.966,-16.985821,-17.541559,-18.098091,-17.686962
-4.9197898,-5.1601233,-5.6455083,-5.5597343,-6.4361444,-6.8515754,-7.1274834,-6.8172731,-7.7367597,-7.1061149,-8.2073736,-8.4814367,-8.9910641,-8.6827793,-9.497139,-9.0038929,-9.5930099,-9.8671961,-10.968044,-11.363606,-10.379648,-11.421616,-11.189231,-10.918176
2.4994082,1.8944679,1.6653669,1.7762704,.72417706,1.0821664,.22856764,.14570487,-.18414967,-.52332127,-.56060076,-.57111651,-1.289169,-1.1835477,-2.253124,-2.8811886,-3.2162573,-2.9416959,-3.4313595,-2.9506311,-4.4151235,-4.7054172,-3.7228794,-5.4767113
-6.1852288,-6.4310594,-6.6310596,-7.3394136,-7.7248878,-7.4539576,-7.939043,-7.921967,-8.2865162,-8.7970276,-8.785512,-9.2039146,-9.1534081,-9.666007,-9.7207546,-10.787191,-10.970726,-11.480279,-11.485272,-11.576385,-11.593904,-12.577535,-12.782876,-13.610412
-1.5359296,-2.1643436,-2.1053925,-2.2135277,-2.8268845,-3.1371784,-3.0252285,-3.6667254,-3.4591546,-4.442286,-4.4291859,-5.1073189,-5.595623,-5.151876,-5.841527,-6.5832024,-6.6352291,-7.4499149,-5.9836035,-6.1997294,-7.6098485,-6.4492521,-8.29245,-8.2164774
-3.7316515,-3.9193661,-4.6873188,-4.3963346,-5.038281,-5.5383649,-5.6613903,-5.9538908,-6.9634686,-7.2978058,-7.0985179,-7.7249913,-6.6210122,-7.6869187,-8.4347439,-8.9379797,-8.5108299,-9.6042528,-9.9414759,-10.374653,-9.3225794,-10.76364,-10.259251,-10.860925
-3.2526541,-3.6065621,-3.8523309,-4.4946618,-4.6360779,-4.8354573,-5.0396934,-5.1650372,-6.1893082,-5.9461298,-6.2932582,-6.4872012,-7.8786058,-7.7939639,-7.2066822,-7.4935532,-7.9638119,-8.7667789,-9.0094872,-9.5040474,-9.7103138,-9.7305126,-9.4731588,-10.128407
-1.2746124,-1.590904,-2.0998342,-2.38311,-2.7043989,-2.458149,-3.0368524,-3.831511,-3.2679167,-4.3229179,-3.6156502,-4.7232695,-5.6659427,-6.0335078,-5.3296862,-6.4866543,-5.7284398,-6.4733486,-6.6000948,-7.7531781,-7.1711302,-8.0062513,-6.8825164,-8.3573208
-6.6067619,-7.0391488,-7.149384,-7.5688114,-7.7640386,-7.832181,-8.3979807,-8.6204014,-9.0532179,-9.1303072,-10.307139,-9.8157539,-10.106515,-11.378217,-10.305836,-11.081036,-11.466224,-11.679881,-12.268322,-12.172468,-13.218742,-12.62543,-12.420341,-13.975915
.77667791,.54948705,.075101197,-.18649964,-.45730838,-.45457265,-1.0666482,-1.0581694,-1.5550694,-1.274053,-2.2993896,-2.017189,-3.3604994,-2.8018198,-3.1342854,-3.4945672,-3.8899987,-4.5819139,-4.3677707,-4.9506478,-4.5164313,-6.3962307,-6.7563629,-4.8234186
-1.5111425,-1.6905136,-1.9450396,-2.211663,-2.4236846,-3.3625159,-3.5005836,-3.6728215,-4.0943036,-4.2810707,-4.7781162,-4.3588424,-4.7123394,-4.829174,-5.3363571,-5.8211846,-6.638124,-6.5404544,-6.6203804,-7.2209072,-7.7678752,-7.5634799,-8.0941753,-8.8177691
-.014081259,-.28001183,-.44256148,-.9309243,-1.7288909,-1.9888992,-1.998503,-1.7536443,-2.4768958,-2.789176,-3.1167555,-3.1592035,-3.2012005,-3.6816311,-3.4815173,-4.3406882,-5.0083933,-4.2456393,-5.2132363,-5.9004436,-5.9011645,-6.5729299,-7.398355,-6.9370785
-1.642779,-1.8770347,-2.2997191,-2.241621,-2.8323908,-3.0625856,-3.3363309,-3.8354492,-4.352654,-4.4120693,-5.3874702,-5.0525279,-5.1414194,-5.6714993,-5.5106959,-6.0495968,-6.549964,-6.429389,-7.6432195,-6.6687956,-8.1226883,-8.3641644,-6.7865357,-7.9219675
-3.1644819,-3.3285992,-4.0457997,-4.2002749,-4.2409887,-4.8980932,-5.1053867,-5.6226749,-6.021441,-5.8801084,-6.3194218,-6.4364314,-6.7491379,-6.6673684,-6.3961072,-7.5693274,-8.3626833,-8.6858902,-9.1787739,-8.821187,-8.9134159,-9.7418346,-10.265691,-10.07146
2.5958855,2.346029,1.9212236,1.4181676,1.004365,1.4982301,.31491104,.48234063,.38601419,-.34995717,-.72274476,-1.3160187,-1.009769,-1.79825,-.80391073,-1.8836652,-2.6004822,-2.7145131,-3.1575646,-3.3564446,-3.9445376,-4.2328243,-4.1862154,-5.3886762
-9.5487833,-9.6459312,-9.9693918,-10.442528,-10.562012,-11.348978,-11.389911,-11.602238,-11.834944,-12.185877,-12.020328,-12.261889,-12.769357,-13.562216,-14.198191,-13.612325,-14.136361,-14.206183,-14.560924,-15.595444,-16.231197,-16.508266,-16.370459,-16.245068
-5.8240972,-6.1901193,-6.6691136,-6.5658565,-7.2790895,-8.0554152,-7.2508926,-8.2091084,-8.7324629,-9.1235638,-9.2489843,-9.0476475,-9.3707552,-10.214853,-10.715814,-10.54371,-10.993726,-11.006788,-12.078732,-11.370687,-12.668072,-11.445073,-13.155215,-12.19359
-1.2576007,-1.9448146,-1.7196467,-2.4018471,-2.4985862,-2.9826126,-3.6336787,-3.6144335,-3.6289215,-3.9040306,-4.8139815,-4.3685513,-5.5730152,-5.655139,-5.5320287,-6.5307274,-6.7945619,-6.9595613,-7.177423,-7.2520332,-8.1660957,-8.9432135,-8.2912264,-8.8060246
6.6993718,6.5614519,5.7235041,5.5360918,5.2580376,4.4508553,5.0957303,5.2717781,4.4508471,3.5677223,4.4204421,2.952774,2.640861,2.124593,1.626502,1.8957756,2.3946557,.95097965,.29797781,-.27473828,.93891573,.47604164,.54064661,-.46681595
-1.5954821,-2.0554786,-2.1555464,-2.7996607,-2.921597,-3.1624517,-3.4224896,-3.4772353,-4.5390038,-5.515667,-3.9789059,-4.9570155,-5.7956185,-5.7098098,-6.4095831,-6.4989285,-6.0805392,-6.404285,-8.083539,-7.2215366,-7.6062708,-8.0344477,-8.1115246,-8.0142536
-1.0006446,-1.4581211,-1.4708695,-2.3121355,-2.3100872,-2.7102268,-2.6065645,-4.041328,-4.1439109,-4.6019068,-4.4215055,-4.2621522,-5.7138972,-5.4649506,-6.6078925,-5.731905,-6.240582,-6.5962548,-7.233007,-7.9599533,-8.3617897,-9.1323481,-9.0241518,-9.3101864
-4.4813056,-4.611958,-5.1403093,-5.3123822,-5.3878064,-6.0075097,-6.0284343,-7.161274,-6.4238682,-7.2108221,-7.3985448,-7.4617634,-7.9590845,-7.7127414,-8.4715662,-8.885726,-7.8490849,-9.9812489,-10.430601,-9.2135811,-10.479382,-9.4495001,-11.030599,-11.284598
-4.7492399,-5.0209174,-5.2925143,-5.4670434,-5.9597173,-6.5295415,-6.2549915,-6.890348,-6.6647301,-7.9320002,-7.7473602,-7.7703972,-8.4057884,-8.2842007,-8.5152502,-9.0730228,-9.1041603,-9.6324015,-9.3584986,-9.966116,-10.356342,-11.570282,-12.503451,-11.656302
-1.0320101,-1.521258,-1.5744294,-1.8771255,-2.3576682,-3.0945585,-3.4014585,-3.1419737,-3.3842783,-3.3494461,-3.6963863,-4.5613446,-4.6496677,-5.3897839,-5.1264143,-5.3828349,-5.8550239,-7.5946832,-6.9253683,-6.9738507,-7.8074727,-7.5631809,-8.2580996,-8.1702728
.50674832,.16187122,.22990093,-.60037088,-.64614618,-.71112901,-.81258357,-1.5178375,-2.3724816,-2.5343666,-2.1221106,-2.4208941,-3.0177653,-3.0372334,-3.3105834,-3.3930788,-3.9805815,-5.1042833,-4.8704977,-5.3186898,-5.1840749,-5.8158283,-5.4377537,-7.1081419
-9.2364407,-9.423048,-9.8542242,-10.286402,-10.508723,-10.500098,-11.059662,-11.511524,-11.191188,-10.871671,-12.132184,-12.645319,-12.126659,-13.498357,-13.040372,-14.407959,-13.308393,-14.100311,-14.493248,-14.339528,-15.033519,-15.350418,-15.502447,-15.241579
-10.314967,-10.429375,-10.618914,-10.997931,-11.380466,-11.686679,-12.352904,-12.521278,-12.745228,-13.06725,-13.315875,-13.360233,-13.690983,-14.958329,-13.581133,-14.2667,-14.806011,-15.852839,-15.356501,-15.7808,-16.559187,-16.466953,-17.354443,-18.127893
.77450818,.36504114,.18866581,.16891792,-.75077862,-.65138179,-1.2539371,-1.9643022,-1.1206743,-1.9347202,-2.0896051,-2.5240498,-3.7898974,-3.4617898,-3.7624652,-3.1624022,-5.5820098,-4.1493206,-5.1642923,-5.3190007,-5.7969651,-6.1952481,-5.676178,-6.5407991
8.8026695,8.5196733,8.1212702,6.961833,8.0276537,6.6719856,6.4011726,6.4488215,6.0601745,4.784914,5.4238238,4.7937789,4.5706506,4.9428406,4.7402806,4.1044998,2.6426556,3.2322507,2.3549292,1.7459753,1.4523779,1.6312274,2.7465379,1.1490208
4.1015234,3.8680706,3.5720563,3.0880275,2.7348468,2.2343922,1.5534624,1.3498939,1.2602413,.80032724,1.1690953,.70691985,-.50975579,-.77697462,-.61386049,-1.2021667,-1.5925906,-2.041178,-1.8549131,-2.7619214,-3.0406716,-2.1733696,-4.0977759,-4.3793864
-1.7849021,-1.9906435,-2.4402268,-2.6623843,-3.3374755,-3.2669811,-3.5698762,-3.8451838,-4.3881106,-4.6916122,-5.1589489,-6.0664997,-5.4590058,-5.3479462,-6.7549663,-6.8566432,-6.9516592,-6.8043575,-8.201272,-7.5749445,-7.7100568,-8.9990854,-8.529748,-8.9089165
-10.235966,-10.534558,-10.706937,-11.295206,-11.361063,-11.69063,-11.695589,-12.407143,-12.833124,-12.678363,-13.339842,-13.527791,-13.764065,-14.271881,-14.713366,-14.421348,-14.226171,-15.705106,-15.931114,-16.028723,-16.743559,-16.986071,-17.638216,-17.907387
-4.040319,-4.3215241,-4.7503128,-4.9421992,-5.5955305,-5.6248374,-6.3859129,-6.1428514,-6.1141567,-6.9600739,-6.96909,-7.3518643,-7.2811952,-7.2815504,-8.6524029,-8.7743788,-8.5991983,-9.5858593,-10.240236,-9.5569887,-9.2307596,-11.102669,-10.465196,-10.484105
-7.7945814,-8.0988913,-8.4227486,-8.6720171,-8.7033272,-9.2886724,-9.4449263,-10.022506,-10.540608,-10.231559,-10.876462,-12.117726,-11.170568,-11.967658,-11.214416,-11.746224,-12.489912,-12.668993,-13.031247,-13.007421,-13.179173,-15.422003,-13.634856,-13.35339
2.5210283,2.2800214,1.9636954,1.4927154,1.3225875,1.039676,.91516387,.26340777,-.55416721,.15383676,-.90230131,-.93315709,-.26227161,-1.8393937,-1.4444335,-2.335125,-2.3218851,-3.7511454,-3.5282125,-3.584801,-4.1147857,-5.6505003,-5.2529278,-5.5078111
1.2365077,.961779,.73844016,.40171632,-.080476671,-.23804054,-.54845405,-1.0474523,-1.917302,-1.3492378,-1.3866528,-1.9357575,-3.9811003,-1.6078109,-4.1104021,-2.6668441,-3.0633452,-3.0814724,-4.5234756,-4.4473758,-4.9607973,-4.4650683,-5.4124427,-6.0359225
.15290734,-.13921221,-.46378192,-.40999407,-1.0783454,-1.5783218,-1.8611429,-1.7646611,-.83412462,-2.9251907,-2.5046647,-3.4726522,-3.7406721,-3.2021132,-3.871558,-4.7396746,-4.3366337,-4.1857443,-5.1298733,-5.1653857,-5.4361157,-5.2645478,-6.076303,-5.386477
8.0791998,7.7268205,7.4543414,7.4527717,6.9174757,5.8240733,6.5270786,5.2797575,5.2908125,5.2741647,4.4591107,3.8566587,3.3859448,3.8163898,2.9067645,2.8507333,3.0420303,2.3963807,2.5524824,1.9954739,.50509745,1.361726,.90519649,.32795361
7.6294093,6.9566197,6.6140966,6.7128696,6.4487348,6.323596,5.6055641,5.4948349,4.9152131,4.8628874,5.5231037,4.5932298,3.7356346,3.6511168,3.6627219,3.3038929,2.1425717,2.0537975,2.9568338,2.1931069,.93389565,2.0610681,.47350416,-.24373102
-2.8633056,-3.1766052,-3.5610561,-3.8465443,-4.0567188,-4.5509343,-4.976078,-5.226367,-5.4525762,-5.9026008,-6.4375944,-6.6895947,-7.7892838,-7.254281,-7.6048317,-7.9610019,-7.8802066,-8.5294161,-9.3349018,-8.8494244,-9.4120874,-10.499894,-10.572683,-9.7536106
-8.1551418,-8.3465385,-8.5664158,-9.305274,-9.345747,-9.5744667,-9.7717628,-10.36756,-10.251789,-10.333936,-10.814632,-12.03387,-11.255319,-11.788551,-11.77922,-12.601704,-13.959202,-13.637622,-13.419314,-14.671301,-13.36803,-13.715116,-14.219427,-15.010338
-1.7402912,-2.0213954,-2.5218928,-2.7632947,-3.1098895,-3.4513068,-3.0970685,-4.3704009,-4.7159343,-4.1114817,-4.2000446,-5.5741005,-5.4193177,-6.2996674,-5.9601278,-6.2271657,-6.0247579,-6.9952207,-7.2360806,-7.9547262,-8.2804756,-8.901392,-8.6170473,-9.4212503
-2.3665283,-2.5161898,-3.009805,-3.0555251,-3.5629897,-3.5154815,-3.5562506,-4.377574,-4.2886696,-5.0550866,-6.2328849,-5.3611598,-5.7643938,-6.2978835,-6.7805157,-6.5129046,-6.9412398,-7.3187852,-7.7830544,-8.3693686,-8.1853218,-8.3605022,-9.0906906,-9.4717035
1.8714335,1.388939,1.3154435,.43620765,.46757126,.010299355,.11357673,-.076781742,-.32047182,-1.1985441,-2.1592431,-1.1336427,-1.9363569,-2.3021166,-2.1361439,-3.5163958,-3.5015068,-3.4392629,-4.3568196,-4.0268698,-5.0932498,-4.0440683,-5.6905694,-5.994318
3.4005489,2.9474485,2.6793354,2.658556,1.9617152,1.6076978,1.3226265,1.3591094,1.6718042,.56222016,1.1670913,-.17803803,.32868499,-.40501258,-.79565793,-.99307948,-1.2246329,-1.0584368,-1.6174119,-2.2988038,-3.1462493,-2.7839117,-3.5970199,-3.4335167
5.2999105,4.9818516,4.7447186,4.1525688,3.3057833,3.7408781,4.017561,3.1636155,2.5304561,3.2021823,2.8570077,1.8265786,1.0787457,2.0748141,.43246943,1.4676143,1.3812664,.37371853,1.7332973,-.14580595,-.34497732,-.41019019,-1.4761302,-1.2899063
-14.335236,-14.586907,-14.841811,-15.571005,-15.425084,-15.707728,-15.998763,-16.007895,-16.534922,-16.623478,-17.320015,-16.965578,-17.415697,-18.489405,-18.169134,-17.830395,-18.653143,-18.26811,-19.358232,-19.26042,-20.082642,-19.959045,-19.763651,-20.255209
-2.8438163,-3.1751018,-3.1591578,-3.8885157,-4.1885118,-4.7634697,-4.9005876,-5.2995267,-6.2442999,-5.3900876,-6.0768094,-6.1555672,-6.5781164,-6.8412323,-6.3977218,-7.2146244,-7.6452055,-7.5714192,-8.1385641,-8.5388699,-10.62671,-9.5233784,-9.234643,-8.9041767
4.0869231,3.7916217,3.3847952,2.7702146,3.0780008,2.382463,1.8294299,2.1933146,1.7784332,1.206514,.94179356,.19588397,-.20025887,.10586429,-.57445884,-1.5498495,-.92321759,-1.4895333,-.62196851,-3.0157788,-3.0055187,-2.5315607,-3.2962995,-3.1925912
-6.0605774,-6.2668686,-6.5946608,-6.8772645,-7.3479753,-6.9636369,-7.8677473,-7.9695821,-8.5197372,-8.5506477,-9.96103,-9.3950768,-10.902686,-9.9650793,-9.2625751,-10.916327,-10.634902,-10.936637,-10.820696,-11.770694,-11.139031,-11.412649,-12.063829,-12.896402
2.5594697,2.3933163,1.8170432,1.7742677,1.2069219,.5479039,.71667302,.71262258,-.24536696,-.2238948,-.40144274,-1.516258,-.77109295,-1.4802419,-1.7430215,-2.2047465,-2.0912595,-3.276932,-3.8640747,-3.666328,-3.9139347,-5.0599256,-4.977128,-5.8029928
-2.6645598,-3.0942383,-3.1387193,-3.5999024,-3.8548846,-4.0430984,-4.5328212,-5.0073452,-4.9805908,-5.1160536,-5.0494204,-5.7204552,-6.5283904,-6.9109869,-7.3244801,-7.1674356,-7.5513635,-7.4886189,-7.8474488,-7.9182668,-7.8037391,-8.5948019,-10.076723,-9.4300194
.23568702,-.20804666,-.34526044,-.64340681,-.64331084,-.98906189,-1.5272187,-1.3581246,-1.954336,-3.034498,-3.1505253,-3.6917672,-3.3536599,-4.3791037,-4.4723334,-4.2173796,-4.7566466,-6.0170827,-6.5270486,-6.337913,-6.240448,-5.8661566,-7.4645615,-7.1554966
.38905165,.26809904,-.54311579,-.33879429,-1.0725671,-1.537692,-1.7940698,-1.8401743,-1.1426431,-2.2803054,-2.2101581,-2.8448727,-2.5001462,-3.4785347,-3.0735245,-3.0120344,-3.7264252,-4.0774512,-4.1433578,-5.0115824,-6.349431,-5.7866783,-4.022697,-5.93187
-.26133516,-.68167877,-.48709282,-.65227878,-1.163498,-1.6458951,-1.7376087,-3.056603,-2.0671134,-2.8158321,-2.5359929,-3.0526364,-2.5252645,-3.6360219,-3.2861824,-4.7614007,-4.1120901,-4.3943815,-3.6029344,-5.3551202,-5.5532103,-5.6908865,-6.3175812,-6.282145
5.3344917,5.1399169,5.0964031,4.3546,4.0575333,3.3310635,3.2549059,3.4643526,2.7116692,2.9220612,3.0505428,.81387866,1.831174,.036353424,1.7570949,.79526234,.98688334,-.61110967,.62270528,-.29386657,-.57074314,-1.0143788,-1.3949413,-1.4261487
-5.387289,-5.8134155,-5.9879618,-6.2554135,-6.3804321,-7.3823214,-6.7498693,-7.6422415,-7.4018712,-8.0057983,-8.2248039,-8.6045809,-9.2528744,-8.9969702,-10.142298,-9.5194464,-10.311837,-10.741484,-10.330064,-10.812654,-11.822711,-11.10335,-11.410942,-12.727843
.46363842,.051432591,.052657213,-.30398032,-.56236583,-1.2751195,-1.2921441,-1.7995378,-1.8329735,-2.3739259,-2.2030711,-2.7212384,-3.4776275,-3.9400246,-4.3864074,-4.3281198,-4.6289477,-4.9748325,-4.6458778,-5.5060534,-5.6154203,-6.4645066,-6.6307831,-6.2967415
.24604827,-.043794788,-.424474,-.55226099,-1.2828737,-1.4375488,-1.4657428,-1.9689958,-2.6409633,-2.9388928,-3.1875579,-3.3918066,-3.8224041,-3.491694,-3.6262982,-5.1756201,-4.5363684,-5.4615288,-5.1601949,-5.7656341,-6.1051931,-6.6582665,-6.9410615,-6.4007988
.2813291,-.13761537,-.35833994,-1.153955,-.86998218,-1.5479056,-1.5782176,-2.5285032,-2.5399215,-2.220001,-2.6219807,-2.5646262,-3.1880732,-3.5225365,-3.7792511,-4.6399055,-4.9792857,-5.5077333,-5.2787514,-6.1982174,-6.0481501,-7.3519177,-6.2302566,-7.278398
2.0047448,1.8260555,1.4129554,1.0623202,.53888357,.73420483,.50757438,.48115975,-.33764368,-.02762145,-1.7384272,-1.8071765,-1.2806153,-2.6598103,-2.1548505,-2.5701189,-2.5942707,-3.7649376,-3.2430816,-3.4078653,-3.8879695,-3.9978023,-4.0419102,-4.9148488
-2.1500053,-2.8999865,-2.7101305,-3.5562856,-3.6033599,-3.4374714,-3.7092695,-4.5155983,-4.4084096,-4.2271471,-5.6091824,-5.8031306,-5.1327066,-7.0877976,-6.1410432,-6.522922,-6.4057975,-6.568934,-8.4401846,-7.5821652,-7.7930894,-8.3418655,-8.8493509,-9.3959379
.10217039,-.32640046,-.53380924,-1.0730377,-.83769375,-1.252045,-1.8470945,-1.5459169,-2.8627465,-2.6900139,-2.8185966,-4.0034423,-2.765543,-3.5876131,-5.0218706,-3.7611845,-5.5593319,-5.2515388,-5.243988,-5.4554262,-6.1490121,-7.2387714,-6.64043,-6.9159541
-4.6177835,-4.9646983,-5.4915829,-5.9041481,-5.5336995,-5.8345218,-6.7439003,-6.8760138,-7.3617315,-6.9424715,-7.7486396,-7.4458995,-8.4222212,-8.3415861,-8.5317755,-8.4394007,-9.7057467,-9.8978815,-10.229957,-9.6746426,-10.137897,-11.537139,-10.259771,-12.006566
3.6131964,3.3092439,3.0056481,2.9528537,2.1329737,2.3153036,2.1703699,.91044116,1.5625745,.082784802,1.3845662,.46827888,-.56283391,.072113402,-.29387334,-1.9621985,-1.5942458,-1.6278224,-2.9101427,-2.334729,-3.2577207,-2.5840881,-3.5118456,-3.5193441
-4.7552958,-4.9930654,-5.1479478,-5.576715,-6.0666947,-6.465847,-6.5346603,-6.8636003,-7.1123657,-7.6239386,-8.065341,-7.9116821,-8.6779938,-8.9660883,-8.576767,-9.6496506,-10.282485,-10.788438,-9.9268913,-10.409373,-10.982334,-10.270285,-10.558118,-11.178771
2.288749,2.0887425,1.8039762,1.5960801,1.3521422,.71543866,.10395236,.42312899,.24899068,-.70155644,-1.2633952,-.95699012,-1.0318427,-.86100543,-2.6778388,-1.9008198,-1.9938946,-3.3673122,-3.7009475,-3.7408831,-3.5334709,-3.4383972,-4.1496959,-4.5545111
3.844703,3.7232866,3.5069592,2.7228928,2.886621,2.1871622,1.7831824,2.3032913,1.1678635,.97091854,1.0211693,.51130342,.42080018,.79932624,-1.2277066,-.55342072,-.51538497,-1.692453,-2.1067784,-1.5982114,-2.203572,-1.7022058,-3.1173689,-4.1528492
-8.4740791,-8.7129593,-9.2147655,-9.3781672,-9.7547798,-9.3578606,-10.209957,-10.378444,-10.942698,-10.964303,-10.780763,-12.093127,-11.79917,-11.763431,-12.528232,-12.829485,-13.194991,-13.598171,-13.47202,-13.883307,-13.636841,-13.571197,-14.314374,-14.088468
15.315841,15.117509,14.404853,14.501637,14.312509,13.276838,13.318205,12.542231,12.724723,11.968581,11.656029,11.413322,9.721056,10.916714,9.6456966,10.472698,8.6593142,8.6667929,8.9433231,8.1125879,7.8505511,8.2583227,8.4823923,7.2701774
-5.9043837,-6.1023822,-6.3651109,-6.8113894,-7.0631261,-6.8466363,-7.9237885,-8.6712484,-8.3129978,-8.536396,-8.3391705,-9.0517559,-9.2346973,-9.5553017,-9.8944416,-9.9412766,-11.102521,-10.763141,-11.003816,-12.117533,-11.348575,-12.310982,-12.124368,-11.664752
-1.3543628,-1.5823929,-1.905267,-2.6370354,-2.4265246,-2.9537766,-3.0970798,-3.1882107,-3.9278932,-3.8479443,-4.4584641,-4.8202505,-5.3530941,-5.2321277,-6.0257983,-6.3850293,-6.8433776,-7.7407527,-7.5787935,-6.8799992,-7.3080368,-8.7181187,-8.0444975,-9.568119
-3.983295,-4.2093358,-4.3232718,-4.5507598,-5.8042731,-5.3495932,-5.8270569,-5.831614,-6.1407771,-6.5524716,-6.5641828,-7.6938105,-7.2736502,-8.5411034,-8.3035898,-8.516511,-8.8520908,-9.2026052,-10.421828,-9.8735809,-9.7596827,-9.829874,-10.861027,-11.312506
4.050117,3.7111599,3.1775508,3.157805,2.4004519,2.705519,1.7665455,1.2030818,1.1068779,1.1996093,.44475999,-.28012931,-.58216679,-.8319056,-1.7434418,-1.6735466,-1.4887146,-1.2932554,-2.8534484,-2.29986,-3.3107142,-2.6101351,-4.1284142,-4.4532676
-5.5104399,-5.7110968,-6.1933765,-6.1158848,-6.3660793,-6.7470784,-7.1947818,-7.1465693,-7.1714835,-7.7605243,-8.3129435,-8.7880087,-8.9593639,-8.9184084,-9.1933937,-9.8435888,-10.288438,-10.390546,-11.422969,-10.657641,-11.455999,-11.381419,-11.654742,-11.783412
7.3770595,7.2382584,6.820529,6.6616244,6.1438994,6.0832787,5.229382,4.8558269,4.8406401,4.2687831,3.8354604,4.3785315,3.8429089,2.9849582,3.4405286,2.2784567,2.3088942,2.2073214,1.0065042,.68149894,.84490836,-.020737793,-.48664987,.34307855
1.5460491,1.335335,.82433826,.73452133,.24202238,-.18078157,-.18478058,-.62483227,-1.3706557,-1.6721874,-1.4808154,-1.8897341,-2.9068613,-2.779187,-3.5454512,-3.7469461,-3.9623721,-4.7894392,-4.8866982,-4.5415502,-6.1423035,-6.278903,-5.7778273,-6.1356483
-10.850531,-11.022027,-11.3521,-11.637282,-11.881598,-12.256999,-12.569917,-13.245887,-13.543374,-13.575029,-14.188274,-14.430417,-13.970138,-14.573046,-14.358421,-14.852385,-15.119096,-15.629913,-15.819828,-16.799793,-17.378874,-16.244915,-16.141645,-16.826584
2.0093024,1.7223305,1.1431751,.78258348,.49422488,.23237301,-.13404852,.14915647,-1.4047095,-.80146366,-2.061244,-1.4100344,-2.0181642,-2.9616976,-2.2457356,-3.0310972,-3.018436,-2.6049688,-4.8674612,-4.247407,-6.4269342,-5.2550616,-5.0259509,-4.6404877
-.68888438,-1.2305245,-1.629321,-1.5815109,-1.6874663,-2.0617909,-2.6791351,-2.7467284,-2.9617336,-3.3344107,-4.2815218,-3.9988306,-5.2002625,-4.8711472,-4.7872257,-5.2986794,-5.4932723,-6.0357924,-5.6234155,-6.6588459,-7.1746802,-7.5442648,-6.7643824,-7.5285034
15.697056,15.134163,14.661588,14.871845,14.946633,14.111017,13.769944,13.239667,12.715624,12.338017,12.855915,12.333882,12.015114,12.348866,11.011687,10.687739,11.085873,9.4283447,10.151078,9.356843,9.1755571,8.0003901,8.4114199,8.2477589
-11.49329,-11.731311,-12.146327,-12.467489,-12.0867,-12.914131,-13.019596,-13.676786,-14.235747,-13.773746,-14.899997,-14.376744,-14.927574,-15.290423,-15.715916,-16.02343,-16.147373,-16.309435,-16.853125,-16.964499,-18.032848,-17.649172,-17.786514,-18.473732
3.0356572,2.612608,2.1874986,2.3009875,2.1306336,1.8502641,.98863697,1.3099446,.81514931,1.2222439,.46652246,.050764661,-.43712035,-.40674844,-.41390479,-1.3531122,-1.3392305,-2.5986481,-2.1571717,-1.8255639,-1.8100892,-3.4665673,-3.3341439,-3.7929337
7.6207719,7.4690833,7.0398359,6.892879,6.6753244,6.0699348,6.2239704,5.0942917,5.6740646,4.2636027,4.1943994,3.4658504,2.9586258,3.5034688,2.7780964,2.2623296,2.7407701,2.8205206,1.9916254,.99483275,1.5886923,1.1152458,1.9319198,.55449384
.39481524,.15929542,-.13835764,-.20710348,-.87634194,-1.2086058,-1.136757,-1.5295548,-2.1459112,-1.9450411,-2.2653334,-2.7466459,-2.6080079,-3.6145012,-3.412215,-4.1339183,-3.9881685,-4.7978888,-4.3986158,-5.5749769,-5.6351452,-5.4093089,-6.3308668,-5.5628304
-2.7345512,-3.0278804,-3.2542958,-3.5537641,-3.5755572,-4.2958026,-4.2717037,-4.3923302,-5.1871696,-5.601656,-6.0084114,-5.378149,-7.3745933,-6.6621237,-7.1577811,-6.467289,-7.2821836,-7.4919348,-8.1355906,-7.9336286,-8.5592451,-8.8572721,-8.632926,-8.7980309
-2.3206785,-2.7135377,-2.9022756,-3.4250917,-3.5370445,-3.8870695,-4.0738878,-4.7401524,-4.4066954,-4.7857618,-5.450016,-5.2046061,-5.6352654,-7.039268,-7.7795081,-6.3078914,-6.9638686,-8.1744986,-7.8550353,-8.2068148,-9.5524092,-9.1485081,-8.5493584,-9.3505688
1.9001336,1.6523348,1.1576424,1.0089175,.54863644,.49543616,.10492072,-.29732305,-.8161028,-1.3393524,-1.7463533,-1.5926565,-1.5776372,-2.6670525,-2.5081515,-2.4998882,-2.5578139,-4.42731,-3.2260911,-4.7016788,-4.6239491,-4.8196459,-5.2318425,-4.9059224
-4.1559796,-4.4193926,-4.7731805,-4.8834982,-5.4282274,-5.8965693,-5.8225083,-6.4786243,-6.8130312,-6.8522935,-7.3056335,-6.8178039,-7.7407818,-9.240983,-8.338419,-8.8525391,-9.0809364,-9.2504549,-10.132577,-10.765781,-10.209048,-10.279638,-10.007613,-9.6657848
2.0107369,1.869429,1.4286585,1.091715,1.090983,.21340315,-.36480731,.035034709,-.64565742,-.20330831,-2.1617305,-1.0683569,-2.1543694,-2.4126573,-3.7282629,-1.849111,-4.6752319,-3.8209376,-3.9197283,-4.1343298,-5.5756445,-4.639637,-5.3414607,-5.832253
5.5461149,5.0554199,4.6553073,4.5892634,4.3301139,3.9690483,3.010653,2.8009253,2.6439126,2.1170428,2.2240007,1.1545818,1.2632661,1.0055493,.2266393,.53381711,.21571922,-.27106789,-1.1265445,-1.7424856,-2.5464618,-2.2628179,-2.4436617,-2.7512124
-5.5791178,-5.8008795,-6.1125174,-6.4288292,-7.021214,-7.2819505,-7.9345994,-7.7630157,-7.7198143,-8.4118233,-8.7993479,-8.8113756,-9.0974665,-9.9399786,-10.276311,-10.91739,-10.244527,-10.491203,-11.081219,-12.382263,-11.506541,-12.614661,-11.52879,-12.342622
-12.483439,-12.868985,-12.935551,-13.456036,-13.951971,-14.10286,-14.165171,-14.89546,-14.255241,-15.107644,-15.337701,-15.855742,-17.301323,-16.270706,-15.950176,-16.716002,-17.37875,-17.190771,-17.245668,-17.5278,-17.897419,-18.633188,-18.332708,-18.508364
2.859993,2.4971836,2.226615,1.8266035,1.8845508,.96060622,.5194537,.89540088,.82016063,-.6337893,-.63647032,-.36742145,-.55975157,-2.0065629,-1.9140719,-1.9388999,-2.5018771,-2.8016009,-2.4923897,-3.7787814,-3.3761559,-3.9950221,-4.8727155,-5.0556545
4.2778077,4.0224662,3.5884697,3.5753584,2.6048203,2.5243843,2.7815979,2.7963889,1.2520174,1.5961146,.96046954,1.1797922,.80319357,.65073925,.25728324,-.10123777,-.35730055,-.39210555,-1.6962053,-2.1243196,-2.4243829,-2.1094131,-3.8988526,-3.0416181
-5.7772737,-6.0156155,-6.1656089,-6.6570697,-7.0883212,-7.3470564,-7.5913281,-7.3389044,-8.1543541,-8.2751513,-9.1097431,-9.3344107,-9.0468225,-10.444905,-9.8511829,-10.087263,-11.057936,-11.300937,-10.977618,-11.234899,-10.983906,-12.58643,-13.293599,-11.993095
-5.6792054,-6.2679696,-6.5676537,-6.559206,-6.5997171,-7.0037508,-7.3005776,-8.1353865,-8.0744219,-8.6969013,-9.0597076,-8.8715887,-8.7903748,-9.9325266,-9.7952833,-9.1247396,-10.782277,-11.030969,-11.176913,-11.934451,-11.539818,-12.073545,-11.832511,-12.701137
-2.1169803,-2.5620959,-2.6314805,-3.0434945,-3.2883999,-3.3309231,-4.27846,-3.9437327,-4.1751285,-5.4850125,-4.9672604,-5.6012907,-6.0074878,-6.7128224,-6.6558867,-6.4813967,-6.8990188,-8.1999722,-7.1235414,-7.9853759,-8.6824322,-8.7030659,-8.2815561,-9.445261
-3.4798374,-3.6765425,-4.0081916,-4.1380711,-4.876399,-4.9294267,-5.3932338,-5.8959837,-5.8513203,-6.0885949,-6.2800417,-7.249629,-7.130022,-7.9617305,-7.4476242,-7.7686419,-9.7903376,-8.687048,-8.8582087,-9.581933,-9.0992193,-10.395894,-10.220844,-10.681393
-2.0462666,-2.2855442,-2.2326033,-2.7456639,-3.6617224,-3.0604353,-3.5423954,-4.0774364,-4.6196818,-4.4423194,-4.704885,-5.4427919,-5.8196502,-5.7241597,-6.0228543,-6.531004,-6.957469,-6.321012,-7.7401786,-6.2196031,-8.076642,-7.7864752,-8.3720684,-8.3342323
7.1483212,6.8564773,6.5770569,5.8399525,5.9371886,6.2602887,5.1573391,4.7395434,4.1304069,4.0635114,4.6832867,3.8376777,3.2474844,2.9960568,3.4065287,2.5878124,1.1636989,1.504005,1.8789841,.43311056,1.713263,.56806481,-.29672131,-.43540031
-3.8653316,-4.0074711,-4.3076243,-4.9063911,-5.1461916,-5.2121091,-5.7017736,-5.7949848,-6.0062275,-6.3412881,-7.2790098,-6.7038212,-7.9260492,-8.8390436,-8.0681448,-8.4019547,-8.4307375,-9.6924667,-9.5788412,-8.9109259,-9.6492968,-9.3413954,-11.004283,-11.243725
5.7068825,5.5635123,5.141377,5.1738505,4.3811097,3.7893698,3.578464,2.7953176,2.9698322,3.1414478,2.7126856,2.2866213,2.3052158,1.4224145,.62668383,1.764052,1.0121188,.017190684,-.1977556,-.036839701,-1.4438133,-.58535504,-1.8330853,-2.1128411
-2.8674462,-3.2249317,-3.7084379,-3.4989252,-4.0887489,-5.0928302,-4.689044,-5.0442252,-5.8687654,-5.0968633,-5.480865,-6.0576115,-6.7855392,-6.7417512,-7.8275819,-7.9780421,-7.8371882,-7.4474044,-9.0966711,-9.2816019,-9.5982189,-9.4615755,-9.8793907,-9.6711473
2.9465485,2.5249178,2.596508,2.2792158,2.018405,1.5907959,1.0237955,.82088858,.04083148,-.6835233,-.71413493,-.78018874,-2.0687873,-1.8207974,-1.7369797,-3.5815318,-2.9742863,-4.0524349,-3.2884519,-3.8168879,-4.2020564,-4.6835403,-4.6249781,-4.7824712
7.1541047,6.7139897,6.6098886,6.3598886,5.2748919,5.5229077,5.2974606,5.5125408,4.2050276,3.9788001,4.386035,3.6467488,3.1302848,2.2216742,3.4402044,2.7711437,3.2762291,1.8826901,1.8349861,.84828359,1.056114,.436867,.75956774,.47307411
.85100204,.69746721,-.077542372,-.22744603,-.27802825,-.4150584,-1.4358591,-1.2816694,-1.5384302,-2.2498105,-1.9521466,-1.9907633,-3.0302196,-2.991611,-3.5234084,-3.663234,-3.9102383,-4.0707736,-3.753134,-4.6170807,-5.0889969,-5.189817,-5.3961544,-6.0076509
4.9982753,4.661531,4.643733,3.6413829,3.9911954,4.1933384,3.2652965,3.1096237,3.7635398,3.1227822,3.0079501,1.44508,1.2880255,1.4257876,1.0594119,.81524223,1.2801288,-1.3514844,-.12722141,.34722158,-.94936967,-.47222641,-.64170623,-1.4847314
6.3613667,6.0527253,5.6096892,5.3063793,5.1182532,4.4654489,4.13936,4.0240145,3.9042354,3.0735559,2.4294989,2.283133,2.2095275,1.8071884,1.3164241,1.6740643,.14510556,-.058336481,.18753529,-.10250269,-.96197689,-.70838201,-1.5416582,-1.7775387
-14.947769,-15.259361,-15.400123,-15.67289,-15.565171,-15.782053,-16.418781,-17.090858,-17.262592,-17.003908,-17.08713,-17.817974,-17.476971,-18.930267,-18.078938,-18.820894,-19.3048,-18.924109,-19.728514,-20.441784,-19.236921,-21.08317,-19.552334,-20.482107
4.1461253,4.0195899,3.6870863,3.0600924,2.9876449,2.3727231,2.090461,1.9017413,1.4622113,1.222849,1.5431442,.33628216,.5289259,-.33767483,-.79878229,-.67774069,-1.3416981,-1.745757,-1.2582722,-2.1292751,-3.0918233,-3.0261431,-4.1777453,-3.4105124
6.8404012,6.4770956,6.4358644,5.9225974,6.0516615,5.6971922,5.8171697,4.212275,4.0991049,3.9911647,3.4339867,3.6960113,3.7756088,3.0265331,2.9494913,1.9716235,1.3596694,1.9605684,.71953887,.48322293,.95643848,.48268712,-.14993916,-.22264159
-.69025767,-1.0916169,-1.2948352,-1.4057693,-1.8728125,-2.3984785,-2.8548946,-2.8467693,-3.0952117,-3.9267857,-3.9171908,-3.7537065,-5.2412839,-4.5718207,-5.51685,-5.3734832,-5.8563457,-6.4384737,-6.4397917,-6.883286,-8.2487373,-7.3541737,-7.6611438,-8.4440155
-9.714448,-9.9773808,-10.255267,-10.48197,-10.789629,-11.01886,-11.748659,-11.825237,-11.939541,-12.086764,-12.175009,-13.078834,-13.197098,-13.823845,-13.905517,-13.421443,-14.258959,-15.11247,-13.704417,-14.808258,-14.239428,-14.756148,-16.59771,-16.187761
-5.1803241,-5.5384045,-5.6677694,-6.0936365,-6.0236573,-6.3798318,-7.0621033,-6.8213019,-7.491292,-8.1113691,-8.1205635,-8.2581186,-9.3260679,-9.1056213,-10.209785,-9.1029396,-9.4959917,-10.65799,-10.877539,-11.777318,-11.67092,-11.974505,-11.618848,-12.086349
-3.7580409,-3.9903393,-4.3948884,-4.6485929,-4.97791,-5.4163713,-5.7807221,-5.6142001,-6.6946282,-7.7321887,-7.0829282,-6.6757336,-7.6396933,-7.1533351,-7.9474578,-7.7532187,-8.9579515,-7.9874849,-10.154099,-9.6962013,-10.084694,-10.095068,-10.485884,-10.542302
-11.415297,-11.721453,-12.385437,-12.27242,-12.504848,-12.729608,-13.388135,-13.182876,-13.745449,-13.800011,-14.398719,-14.3427,-14.407364,-13.996702,-15.783066,-15.741654,-16.225132,-16.279222,-17.489985,-17.255911,-17.475939,-16.334883,-17.432583,-17.392916
-4.5259995,-4.8750901,-5.3851523,-5.3450222,-5.9592652,-5.7961125,-6.5793037,-6.2017531,-7.6803036,-7.9452925,-7.9647665,-7.6571307,-7.1517406,-8.3072796,-8.749445,-9.7272854,-9.9476204,-9.2813969,-10.754955,-10.491506,-10.688883,-10.183548,-11.725981,-12.20941
-6.5568604,-6.7428818,-7.2145276,-7.6968508,-7.8105612,-8.2700434,-8.6329679,-8.6121025,-9.191967,-9.1797504,-9.4441776,-9.8207436,-10.16021,-10.400337,-10.521143,-11.288058,-11.215106,-11.42647,-12.064672,-11.701572,-12.196315,-13.174162,-12.276135,-13.849553
4.2854543,3.9469173,3.3620682,3.7383854,2.8810124,2.8412437,2.5661182,1.8417199,2.2177355,1.8145503,1.2698052,.10303576,.85146236,.65800071,-.19897686,.64527786,-1.7802022,-2.274004,-1.8638,-1.3361124,-3.3899689,-2.1986842,-3.1331437,-3.2336361
-2.0009429,-2.3161058,-2.8946633,-2.5012321,-2.962651,-3.4755511,-3.6107543,-4.5200825,-4.4375558,-5.4246302,-5.0328093,-4.972249,-6.3898335,-6.0741339,-6.0954423,-7.3084197,-6.1881437,-6.0956874,-6.5292969,-8.4675722,-7.4022245,-7.8686185,-7.7315655,-9.0536118
-2.8653164,-3.0337679,-3.4347053,-4.044014,-3.9482386,-4.7724137,-4.320334,-5.1483641,-5.8179049,-6.2722845,-5.68051,-6.9845767,-7.0513058,-6.6878114,-6.8303814,-8.3989286,-8.164279,-8.4058466,-9.1310816,-8.8840542,-9.1118374,-10.056352,-10.46389,-10.156944
-1.9835752,-2.374192,-2.8565331,-2.8931057,-3.2447596,-3.4781907,-4.0222039,-4.2242069,-4.286869,-4.6943913,-5.6755714,-5.0634928,-5.877274,-5.4868007,-6.2674389,-6.5196891,-6.2247624,-7.0409303,-7.2694597,-8.0713568,-7.6847672,-8.5363426,-8.778964,-8.7746239
-5.5115342,-5.9120431,-6.1354618,-6.2776361,-6.822134,-7.0978351,-7.320714,-7.4118323,-7.324748,-7.7971215,-8.6045313,-8.6477661,-9.2516956,-8.9699383,-9.3290291,-9.392725,-10.142647,-10.378654,-10.673844,-10.969962,-11.304669,-11.185606,-11.874403,-12.388346
1.1765507,.84610581,.63387322,.00026931244,-.020908546,-.35616112,-1.1832765,-.88890475,-1.4874315,-1.7094946,-2.6802809,-2.0499108,-1.8874086,-2.520926,-3.2822759,-2.762274,-3.867054,-3.7208338,-4.5680814,-5.3950133,-5.520483,-5.0569024,-5.8876448,-6.7205176
1.5066668,1.1360712,.85636503,.33858082,.18886715,-.32221285,-1.4134934,-.55739039,-1.0836773,-1.7473259,-1.891471,-1.9009651,-2.7840543,-3.1315136,-3.5371249,-3.8552299,-3.4894812,-4.7095089,-4.7334728,-4.5211043,-5.3943453,-4.9595404,-6.3089209,-5.741046
-3.441581,-3.682833,-3.8960638,-4.5912862,-4.9426589,-5.3020358,-5.1002188,-5.2608194,-5.89327,-5.6090798,-6.1968021,-6.5848675,-7.487453,-7.4628067,-6.9761701,-8.8237829,-7.9368367,-7.8354769,-9.4231558,-9.3673096,-9.6657639,-9.3335915,-10.109705,-9.4643183
5.4160738,5.2370639,4.7879243,4.5861864,3.8672373,3.5753586,3.7938123,3.6692669,2.4328001,3.0763755,1.4105068,1.5531735,1.1491719,1.3546623,.16229534,1.4019408,1.2911795,.27273914,-.20981836,-1.1188115,-1.1769273,-.34241971,-1.6651124,-1.6631498
-4.8170261,-5.260345,-5.1795626,-5.5785408,-5.7715859,-6.2207799,-6.8549995,-6.6032934,-6.6917038,-7.9544263,-7.5481677,-7.703721,-7.6252565,-8.2658367,-8.560092,-9.5070467,-9.6139336,-9.9352083,-10.333154,-10.475905,-10.399669,-10.709865,-11.24966,-12.052538
3.9125156,3.6141098,3.6767786,3.1571426,2.5663016,1.9243455,2.6501014,2.2721741,1.7355632,1.8299779,.99991375,.7241922,.86753851,.95285636,.10428419,-.11588884,-.79824328,-.96221876,-1.5266125,-1.2735806,-2.1681683,-1.9541514,-2.5818765,-2.6460912
-3.6892848,-4.1026564,-4.276166,-4.4308109,-5.0575194,-5.0017896,-5.7008543,-5.6168404,-7.0479484,-6.3740463,-6.6851692,-7.7078142,-7.6524367,-7.396647,-7.8223667,-8.0649824,-8.6206808,-9.1616611,-8.2163172,-9.5890284,-9.0283594,-10.38606,-9.4495907,-11.34316
-7.3074985,-7.670979,-7.633934,-8.4619608,-8.356636,-8.7369537,-9.0422411,-9.4472408,-9.5722713,-9.358573,-10.002705,-10.521171,-10.742311,-11.394667,-10.759776,-11.013594,-10.998061,-11.694841,-12.446736,-13.012676,-12.412959,-12.193238,-13.164392,-13.666508
-3.3994911,-3.8229389,-3.918843,-4.3435731,-4.7665091,-5.5679326,-4.9041185,-5.7639298,-6.5840578,-6.3491611,-6.4915557,-6.6436567,-6.9678254,-6.3184152,-7.0968518,-7.4264784,-8.2546101,-8.6280279,-8.4778309,-9.1693373,-9.5519924,-9.2359972,-8.988101,-10.182127
1.8646778,1.4673654,1.1471961,.91930228,.67603433,.059758022,-.27590895,-.021094549,-1.0413939,-.85634559,-1.9898927,-1.4843543,-1.4654232,-1.9650062,-2.5757244,-2.6004429,-3.5051641,-2.8520436,-3.2046876,-4.9323435,-4.0218887,-3.9179616,-5.7361059,-5.5820127
.51780432,.27646858,.01424321,-.18706182,-.70066398,-1.0525568,-1.3137966,-1.8207498,-1.5122306,-1.966352,-2.3416829,-2.541496,-3.5392485,-3.7728441,-3.8579223,-4.7530684,-4.1154828,-5.7357459,-5.6114469,-6.6159248,-4.9693041,-5.2921643,-7.1423807,-6.9133234
-.53770256,-.72447056,-1.0282842,-1.7644943,-1.6284239,-2.5258498,-3.0479019,-2.1987686,-3.8920507,-3.4215112,-4.3498378,-4.3466825,-4.7547374,-4.8665733,-5.2317047,-5.7406511,-6.0836744,-6.1813402,-6.4452515,-7.3960137,-6.6016593,-8.6542711,-7.722579,-6.9334779
.57165891,.35034999,.32328063,-.12271576,-.72358239,-.74237019,-1.4327546,-1.4201976,-1.9398992,-1.7410963,-1.8770138,-1.9122055,-2.7987654,-3.4931133,-3.1000495,-3.420578,-5.1051283,-4.0259528,-4.9582939,-5.4133554,-5.2385845,-5.3612661,-5.2146897,-6.5715623
-12.843149,-13.112088,-13.515372,-13.645694,-13.97753,-13.917173,-14.409573,-15.215592,-15.142592,-15.344476,-15.635956,-15.802486,-17.312099,-16.58083,-16.477123,-17.068577,-17.433983,-17.142508,-17.889431,-17.686493,-18.490513,-18.632696,-19.056658,-19.910866
-3.2404258,-3.5455894,-3.6641958,-3.8724322,-4.1506405,-5.3917475,-5.5780158,-5.2962785,-5.427361,-6.0710354,-6.3002133,-6.3220921,-7.1381078,-7.6745543,-7.683393,-7.1838756,-8.128664,-8.7377167,-9.6981068,-9.1365538,-8.9688587,-9.2994251,-9.6932211,-8.8939867
2.2415907,1.9782405,1.7928814,1.0190862,1.3641399,.56550974,.26188949,.38610053,-.24770148,-.44087476,-.01888545,-1.8184264,-1.3934735,-1.5057176,-2.0854704,-2.2410622,-2.2135749,-2.7610011,-2.777046,-2.5890234,-3.5198312,-4.102694,-5.3467698,-5.2269907
7.5037045,7.211247,7.0258832,5.9589047,6.0257754,6.0247808,5.2088709,5.2326784,4.5237112,4.7773514,3.4051595,3.8765159,3.5544226,2.1576507,2.9194107,1.1802007,2.0705969,1.1740966,2.0794771,1.6516088,-.50928551,.0092091765,1.3386397,-1.1238326
2.8140178,2.5314715,1.9563522,1.8617622,1.6290729,.78211063,.38689131,.36213768,-.74623001,.47830313,-.64583457,-.68866605,-.61166745,-1.3357551,-2.3227985,-2.374368,-1.8385957,-2.6899295,-3.4244537,-4.2888293,-4.1131711,-5.4105668,-4.7518907,-5.5302448
-.38082847,-.66095775,-.6360299,-.90783352,-1.5509667,-1.7438754,-2.2348907,-3.0113366,-3.0625701,-3.0665174,-3.4791133,-3.8894997,-4.7134018,-4.9119081,-5.3617072,-5.482924,-5.7842455,-5.1706157,-6.3049192,-7.7425008,-6.8366284,-7.6158967,-7.0904818,-7.4994645
3.171701,2.9152846,1.8545365,2.1725757,1.2998953,1.853094,.69055271,.93241215,.081157543,-.57434803,.032807127,-2.1832438,-.46558246,-2.0671067,-1.6298788,-2.2638125,-2.6859682,-1.9115838,-2.8345883,-3.383014,-4.2034125,-3.979373,-3.7558975,-5.0057907
3.9940188,3.5428524,3.4202266,3.3296061,2.9535835,2.3796713,2.3264074,1.8666781,1.5751649,1.711642,-.49767619,1.0359168,.39469928,-.3438772,.1484433,-.43039736,-1.5684137,-.79669356,-3.0638301,-.78896147,-2.2645266,-2.9738021,-3.8487523,-3.732888
-4.4952297,-4.7613521,-4.7053967,-5.2291794,-6.1962113,-6.0664063,-5.785162,-6.1496191,-6.0650077,-7.3705044,-7.1606307,-8.3243332,-8.4605665,-8.2989149,-7.933815,-8.2382975,-9.232688,-8.9322109,-9.717308,-8.9891987,-10.031766,-10.17768,-11.586075,-10.905948
-.8610844,-1.1465493,-1.2737615,-1.5991801,-1.77588,-2.5838866,-2.8281541,-2.8297153,-2.9599283,-3.1480303,-3.2239447,-3.5526879,-3.0892043,-3.7138364,-5.1532221,-4.4653559,-6.1454926,-5.6710014,-5.7551231,-6.1215329,-6.3377547,-7.2371182,-6.0493851,-6.767272
-1.2127615,-1.4498024,-1.4638592,-2.5376582,-2.1729376,-2.8897109,-3.5368507,-3.2980807,-3.1340127,-3.4450817,-4.0472946,-4.5431066,-4.3796339,-5.2849278,-4.8047276,-6.2303319,-6.1708059,-6.8362164,-6.8740497,-7.1741085,-6.9444814,-6.9723673,-7.4502521,-7.3589392
4.7935033,4.7260227,4.4651155,3.4796991,3.7712722,2.8922117,2.7493703,2.4234614,2.7061269,2.8009927,1.8791182,1.7120702,.61316526,.49153021,-.05685892,-.011545477,.084632523,-.66148716,.32716566,-.91089821,-.87896931,-2.0405707,-1.3223599,-1.5374449
-.065855049,-.52655172,-.44247177,-.61508971,-1.0957712,-1.4209096,-1.5319597,-2.408922,-2.8175361,-2.6610272,-2.6083972,-3.1923356,-3.8920987,-4.6137977,-4.1281872,-5.1656361,-4.5030375,-5.7017722,-4.8081894,-5.0090475,-6.3641267,-5.4224439,-6.9509406,-7.4845214
-7.0514145,-7.4013462,-7.5075479,-7.6425128,-7.9538269,-8.3627958,-8.7826014,-8.8714848,-8.5013828,-9.4179678,-10.747742,-10.502852,-9.8280878,-10.547567,-11.573688,-11.366873,-11.644869,-11.743731,-12.672554,-12.885885,-13.183748,-12.968839,-13.143166,-14.536914
-1.737147,-1.9310834,-2.4577837,-2.7145586,-2.9189322,-3.1434598,-3.4222734,-3.5786221,-3.696028,-4.3420825,-4.6534324,-4.5359645,-5.0883594,-4.9738526,-5.6825867,-5.971262,-6.9275994,-6.4887009,-7.758368,-7.7964463,-8.2941093,-7.251914,-8.9157972,-8.5536957
-2.8942661,-3.1105282,-3.4574959,-3.6140196,-4.2683196,-4.7774282,-5.0668163,-5.0694661,-5.1074905,-5.3144822,-6.0380888,-5.9777761,-6.4094958,-7.4862194,-6.6724901,-6.9594493,-8.4435835,-7.6770363,-8.3722267,-9.1547127,-8.8037834,-9.1112013,-10.412148,-10.594907
-5.7524495,-6.3796878,-6.2940936,-6.8817067,-6.9361315,-7.1987205,-7.2193089,-7.7400208,-8.2749872,-7.8974347,-8.916647,-9.5266218,-8.9758215,-9.4945087,-10.236449,-10.453053,-10.60428,-11.202231,-11.185854,-11.597411,-11.757426,-12.117644,-11.732451,-12.257395
-8.3155823,-8.7476912,-8.801897,-9.3746185,-9.16782,-9.6929016,-10.087696,-10.04803,-10.442922,-11.23154,-11.629687,-11.742455,-11.597196,-12.156541,-12.234681,-13.269632,-13.646827,-13.970679,-13.842497,-13.522483,-14.105749,-14.650684,-15.208101,-14.701342
.087930441,-.2388604,-.562244,-.38921148,-.7575829,-1.4513475,-1.9200046,-1.5088273,-2.7013774,-2.4929476,-2.5417523,-3.0695696,-3.372052,-3.4165678,-4.326088,-3.9036558,-4.6954346,-5.7626219,-4.607183,-5.339395,-5.7496309,-7.6721635,-6.9091611,-6.1767111
2.5434339,2.1119211,1.784199,1.4338373,.93838775,.15098886,.83751482,.13345405,.064809881,-.91132295,-1.1217799,-1.3663337,-1.3517103,-1.8647478,-3.4903433,-2.1728158,-2.9391119,-3.3986297,-4.03545,-4.3450656,-4.9811468,-4.1338124,-4.715055,-5.0227461
.57311058,.13138495,.21179855,-.23316693,-.81325406,-1.1583871,-1.0511197,-2.2514567,-1.5610368,-2.184433,-2.9736862,-2.8272133,-3.0754523,-3.5219519,-4.1317239,-4.2653193,-3.7679725,-4.3875313,-5.0555692,-5.4019046,-5.3539104,-6.2975054,-6.2147012,-5.7093019
.59465867,.3511878,.26254064,-.23268832,-.64625478,-.38851926,-1.7359581,-1.1881281,-1.9392437,-2.0660999,-2.689127,-3.2757492,-2.8153954,-2.7778559,-4.3392363,-4.0934157,-5.139596,-5.8165398,-5.9398465,-6.3099527,-6.447391,-4.9864726,-5.8304038,-7.1293182
.30459964,-.069926962,-.40417483,-.40642816,-.75778621,-1.2651737,-1.7020884,-2.0547681,-2.9302981,-2.631156,-2.9053431,-2.5993197,-3.0939577,-3.7311597,-3.1229334,-3.638711,-4.4184031,-4.3165984,-4.577723,-5.0843496,-4.9925156,-5.6841307,-5.4228559,-6.0874186
1.1484271,.81414872,.45432854,.21688427,.074729294,-.76732689,-1.2193246,-.65389109,-1.1787628,-1.5584198,-1.6460129,-1.6088686,-1.5335513,-2.4373579,-2.9894083,-3.8819966,-4.0652375,-4.1373053,-4.9791145,-5.5588765,-5.3061371,-6.7756691,-6.1488214,-5.2395844
-5.9793296,-6.306551,-6.4615993,-6.659193,-7.0886879,-8.0102062,-8.3549519,-7.7872453,-8.3245287,-8.297224,-9.1333103,-9.985507,-9.8980122,-10.328076,-9.9292355,-10.346964,-10.604682,-11.821827,-11.498257,-12.858055,-11.677685,-12.266521,-12.052508,-12.956528
-2.0578847,-2.6864374,-2.8705616,-3.1667416,-3.3998675,-3.5252495,-4.3059545,-4.5237408,-4.0182257,-5.139955,-5.6051269,-5.5930734,-5.3090158,-6.1885386,-6.4733825,-6.4968905,-7.4257183,-7.0174518,-8.3403711,-8.3535347,-8.6129227,-7.8320994,-7.8501544,-8.410738
-1.1841131,-1.585948,-1.7444829,-2.031739,-3.1450248,-2.8440433,-2.5728691,-3.7537177,-3.7547872,-3.4342334,-4.0712862,-4.7482858,-4.4162536,-5.5227685,-5.4122248,-5.4562988,-6.0749507,-6.5359073,-6.9928017,-6.8753304,-8.1315813,-7.6743016,-8.0538406,-7.8667793
-2.3130326,-2.7838922,-2.8439844,-3.1751952,-3.529175,-3.4415741,-4.4009466,-4.0895276,-4.8708019,-4.9669085,-4.5821481,-5.5008965,-5.4631715,-5.3355899,-5.7378745,-6.0302858,-6.996531,-6.1858568,-6.203887,-8.0550661,-7.5477872,-7.7781682,-7.8390293,-8.8865309
-3.3310239,-3.7979536,-3.9901583,-4.0816789,-4.8585358,-4.4195962,-5.2924962,-5.0703158,-5.5838146,-5.7665081,-6.6019082,-5.7274494,-6.7022643,-7.4398513,-7.957335,-8.6808348,-7.4337029,-8.6327477,-8.8939867,-8.7983875,-9.6064587,-9.0813189,-8.8386126,-9.819849
8.5927954,8.3442879,7.6413937,7.8853421,7.1064105,6.8917141,7.176487,6.4583845,6.0658526,5.6561699,5.3103342,5.6284585,4.6606474,3.5002923,3.9076884,3.8040683,4.3347034,3.2833807,3.5236433,1.5991799,3.7433,2.7340057,1.3815833,1.8907638
-.8175748,-1.0413971,-1.4483123,-1.8594104,-2.7119172,-2.1142659,-2.6991301,-3.3172314,-3.7819006,-4.0056629,-4.7124491,-4.4532127,-4.6448879,-4.9909539,-5.052135,-5.4570966,-6.9178205,-6.009901,-7.1040177,-7.7959514,-6.057518,-8.2400904,-8.2971478,-8.8127146
-9.7250261,-9.8894386,-10.267839,-10.579863,-11.059501,-11.346605,-11.911493,-11.931113,-12.250198,-12.539814,-12.88545,-13.050064,-12.959656,-13.558454,-14.290106,-13.904749,-14.605413,-14.369443,-15.239676,-15.080527,-15.060192,-15.762077,-15.93631,-16.301722
6.2926664,6.0267277,5.2469931,5.7026019,4.5740314,4.8041587,4.8482652,3.7369606,4.266108,3.0250933,2.7094343,2.7955549,2.7272129,2.2147784,.98194391,1.320978,1.5395211,.91096395,1.6179689,.65705365,-1.3058984,-.87063104,-1.1329856,-1.4662929
9.1555986,8.8439941,8.4710951,8.2513847,7.1146731,7.2713518,7.149488,6.7075491,6.2266526,6.0663476,4.5911798,5.1914783,4.6388674,4.6707296,3.9615312,3.3439398,2.7152157,2.78424,2.7643785,2.2089951,1.3746387,1.5408084,1.4843564,-.095233999
11.866361,11.14057,10.748896,11.192274,9.9524298,10.59351,10.642591,9.4467211,9.3053894,8.0207024,8.576335,8.6008759,8.7841558,7.0765653,6.0260243,7.2385535,6.987617,6.5444245,5.2881675,6.1948657,4.7391877,4.8160515,4.374649,3.0127718
-.089172252,-.23231135,-.61150301,-.96139622,-1.3662838,-1.2928778,-1.453838,-2.1645682,-2.5221312,-3.3178158,-3.6094382,-4.3810964,-3.766598,-4.4283237,-3.6100066,-5.490768,-4.3314915,-4.6553807,-6.0463076,-6.9067087,-4.8483744,-6.1557159,-6.7132759,-7.555613
-10.857428,-11.160973,-11.389117,-11.654776,-11.808408,-12.712053,-12.468712,-12.38229,-13.011168,-13.105395,-13.661234,-14.481795,-14.080269,-15.230026,-14.724792,-15.597629,-15.730442,-15.654199,-15.766831,-16.277847,-16.981895,-15.892714,-17.289963,-17.102736
-7.6567092,-7.8928719,-8.1089153,-8.590476,-9.590663,-8.9704323,-9.3815231,-9.7176104,-10.985868,-10.121131,-10.215249,-10.953179,-11.062515,-10.902477,-11.03625,-12.056999,-12.106374,-12.904301,-12.996712,-12.742452,-12.842273,-13.286879,-13.042482,-14.633809
-3.8791208,-4.0606513,-4.2952332,-4.5690303,-5.1108818,-5.2602887,-5.6934657,-5.3292813,-6.1880989,-6.3334036,-6.3260117,-7.1177282,-8.0957289,-7.4494596,-8.2143965,-8.7270775,-8.3441467,-9.9056921,-9.734971,-8.6160946,-8.9594727,-9.9447794,-10.185965,-9.8471737
7.0472322,6.6561236,6.4551334,5.769208,5.8688173,4.7716045,4.8357368,4.2629156,4.2542033,4.0971956,3.9654913,3.3007612,2.8649423,2.9422455,2.617944,.97465688,.72161776,.60753965,-.048884522,.26224855,.40141916,.38155749,-.87257844,-2.0753937
-7.0294461,-7.3516688,-7.7736187,-7.8132968,-8.0673866,-8.4650955,-8.9272709,-9.005558,-9.2251625,-9.9903183,-9.7968464,-10.422453,-10.397918,-11.590227,-12.115294,-10.525915,-11.557991,-11.960032,-12.640776,-12.959171,-12.569346,-13.280634,-13.985981,-13.633912
-6.9505596,-7.3068295,-7.473876,-8.0928497,-8.0788879,-8.5187321,-8.9425116,-8.808382,-9.4700871,-9.3976669,-9.316268,-9.8149242,-10.862071,-10.827356,-10.538811,-11.597368,-11.660635,-11.530321,-12.137925,-12.011616,-12.932343,-13.101546,-12.940062,-13.853554
-2.4274423,-2.8829877,-2.8630817,-3.0804136,-3.6687925,-3.4901919,-4.516892,-4.7696996,-4.2070575,-4.7879562,-5.1589069,-5.1990781,-5.5101871,-6.056828,-6.9066396,-6.802619,-7.2940507,-6.7712193,-7.4716983,-8.614295,-8.6400881,-8.6374187,-7.7970252,-9.5212917
4.1285892,3.7867658,3.5276582,3.4388199,2.3152092,2.0532703,1.8186222,1.9351832,1.2452083,.9717176,.74890077,.82495475,.74786001,.097168654,.11711476,-1.1021878,-.54065216,-1.7639916,-1.5155609,-1.4156955,-2.4887266,-2.3360298,-2.9234025,-3.4473324
-7.0733457,-7.498992,-7.5129251,-8.1332512,-8.1550913,-8.4495821,-8.5765743,-9.5881224,-9.3378792,-9.5159187,-10.406308,-10.842469,-10.768626,-11.592198,-11.990156,-11.863561,-12.859814,-12.421491,-12.148347,-12.217831,-12.712767,-13.865499,-13.490082,-14.573606
-4.1463375,-4.2088084,-4.4793406,-5.1233339,-5.3688889,-5.837132,-5.9597578,-6.4173961,-6.9148178,-6.5159979,-7.4134755,-7.7757263,-8.5599384,-7.8597898,-7.5464239,-7.8692303,-9.729208,-9.2014017,-10.167422,-9.8614693,-11.00513,-10.791441,-10.519029,-11.467152
.35643056,.02921568,-.097185664,-.31401294,-.72910666,-1.1446677,-1.1739516,-1.4119574,-1.5017442,-2.0036349,-1.98764,-3.4179726,-3.2573209,-3.1380315,-3.1411643,-3.7795193,-3.9866328,-4.30832,-4.619679,-5.6840043,-5.9659724,-6.3527718,-6.6136699,-6.1753511
-15.022174,-15.149265,-15.528814,-15.63626,-16.184988,-16.693401,-16.948269,-17.224525,-16.707134,-17.759853,-18.454386,-18.106926,-18.23398,-18.725765,-18.796234,-19.044096,-19.430183,-19.979969,-20.390142,-19.571777,-20.59602,-19.90703,-21.224546,-20.283735
3.061552,2.6269174,2.5837677,2.1454332,2.1941447,1.3617309,1.6412137,.69586718,1.041509,.14606427,.16102709,-.41250178,-.51002961,-.90551716,-1.5047688,-1.7220622,-1.4764099,-1.9037882,-3.4171195,-3.4757824,-2.6790099,-4.233048,-5.1130948,-4.2039599
